<?xml version="1.0"?>
<opencv_storage>
<opencv_ml_svm>
  <format>3</format>
  <svmType>C_SVC</svmType>
  <kernel>
    <type>RBF</type>
    <gamma>0.50625000000000009</gamma></kernel>
  <C>312.5</C>
  <term_criteria><epsilon>1.1920928955078125e-07</epsilon>
    <iterations>1000</iterations></term_criteria>
  <var_count>50</var_count>
  <class_count>2</class_count>
  <class_labels type_id="opencv-matrix">
    <rows>2</rows>
    <cols>1</cols>
    <dt>i</dt>
    <data>
      0 1</data></class_labels>
  <sv_total>650</sv_total>
  <support_vectors>
    <_>
      0.0313486233 0.0414475091 0.00904691778 0.0157795083 0.030927835
      0.0153587209 0.0218809173 0.0387123935 0.0300862622 0.00904691778
      0.0433410481 0. 0.0159899015 0.0180938356 0.0248264261
      0.0214601308 0.0012623606 0.00504944241 0.000841573754
      0.0483904891 0.0399747528 0.0021039343 0.0262991805 0.0233536717
      0.0237744581 0.0542815067 0.00652219681 0.0012623606 0.0021039343
      0.0279823281 0.0380812138 0.00820534397 0.0107300654 0.0130443936
      0.0281927213 0.00189354096 0.0109404586 0.00483904919 0.0197769832
      0.010309278 0.00294550811 0.0431306548 0.0248264261 0.0159899015
      0.0178834423 0.00336629502 0.0258783922 0.0427098684 0.0460761636
      0.000631180301</_>
    <_>
      0.0423190854 0.0820990279 0.00761743542 0.0241218787 0.0236986876
      0.0203131605 0.0101565802 0.0228523053 0.0207363516 0.0114261527
      0.0258146413 0.000423190853 0.006347863 0.0118493438 0.0414727032
      0.0228523053 0.00423190836 0.000846381707 0.000846381707
      0.0241218787 0.0385103673 0.00592467189 0.038087178 0.019043589
      0.012695726 0.0338552669 0.00677105365 0.00465509947 0.00296233594
      0.0444350392 0.0541684292 0.00296233594 0.00931019895 0.0139652984
      0.025391452 0.00338552683 0.00846381672 0.00126957253 0.0249682609
      0.00804062653 0.00338552683 0.0681337267 0.0236986876 0.0139652984
      0.0266610235 0.00296233594 0.0135421073 0.0279305968 0.0545916185
      0.00211595418</_>
    <_>
      0.0560802817 0.0430932678 0.00708382484 0.0165289249 0.0306965746
      0.0230224319 0.0171192437 0.0242030695 0.0265643448 0.012987013
      0.0454545431 0.000590318756 0.0123966942 0.0135773318 0.0224321131
      0.0236127507 0.00708382484 0.00472255005 0.00118063751
      0.0501770936 0.0395513549 0.00413223123 0.0153482873 0.0247933883
      0.0135773318 0.0360094458 0.0106257377 0.00413223123 0.00236127502
      0.0271546636 0.0655253828 0.0135773318 0.00767414365 0.00767414365
      0.0206611566 0.00295159384 0.0147579685 0.00177095621 0.0147579685
      0.0118063753 0.00413223123 0.0430932678 0.0401416756 0.0106257377
      0.012987013 0.00295159384 0.0224321131 0.0401416756 0.0442739055
      0.00177095621</_>
    <_>
      0.0448256806 0.0420586616 0.00830105226 0.0154952966 0.0271167699
      0.0237963479 0.026563365 0.026009962 0.0271167699 0.0149418935
      0.0448256806 0. 0.0154952966 0.0204759277 0.027670173 0.0215827357
      0.00221361383 0.00332042063 0.00166021031 0.0376314335
      0.0437188745 0.00387382414 0.0232429449 0.0249031559 0.0127282795
      0.0354178213 0.0110680694 0.00332042063 0.00110680691 0.0354178213
      0.0636413991 0.00553403469 0.00664084125 0.0132816825 0.0204759277
      0.000553403457 0.0188157167 0.00442722766 0.0143884895
      0.0154952966 0.00498063117 0.0343110152 0.0459324867 0.0127282795
      0.0143884895 0.00276701734 0.0199225247 0.0415052585 0.0337576121
      0.000553403457</_>
    <_>
      0.0683850646 0.0420831144 0.00683850609 0.0110468175 0.022619674
      0.0247238297 0.0205155183 0.022619674 0.0252498686 0.0173592847
      0.0341925323 0. 0.0105207786 0.0199894793 0.0268279854
      0.0194634404 0.00683850609 0.00263019465 0.00052603893
      0.0394529179 0.0515518151 0.00420831144 0.0194634404 0.0273540244
      0.0142030511 0.0462914258 0.0115728565 0.00631246716 0.00105207786
      0.0368227251 0.0494476594 0.00683850609 0.00683850609 0.0215675961
      0.0220936351 0.00263019465 0.0184113625 0.00263019465 0.01472909
      0.0110468175 0.00210415572 0.0336664915 0.0552340895 0.00683850609
      0.015255129 0.00420831144 0.0184113625 0.0341925323 0.0289321411
      0.00420831144</_>
    <_>
      0.0545236692 0.035350509 0.00718993414 0.0107849017 0.02995806
      0.0233672876 0.0197723191 0.0239664484 0.0287597366 0.01497903
      0.0455362499 0.000599161198 0.0203714799 0.0233672876 0.0269622542
      0.0161773525 0.00179748354 0.00239664479 0.00179748354
      0.0479328968 0.0437387675 0.00239664479 0.0221689641 0.0239664484
      0.01497903 0.0305572208 0.0119832242 0.00239664479 0.00239664479
      0.0341521874 0.0629119277 0.0107849017 0.00539245084 0.0113840625
      0.0263630934 0.0011983224 0.01497903 0.00239664479 0.01497903
      0.0155781908 0.00239664479 0.0437387675 0.032354705 0.00898741838
      0.0119832242 0.00359496707 0.0281605758 0.0425404459 0.0359496735
      0.</_>
    <_>
      0.0585106388 0.0744680837 0.00344180223 0.0281602014 0.0281602014
      0.0193992499 0.0103254067 0.0178347938 0.0225281604 0.0125156445
      0.0287859831 0.000312891119 0.0106382985 0.0109511893 0.0375469327
      0.0215894878 0.00125156448 0.00125156448 0.000625782239
      0.0341051333 0.0456821024 0.000625782239 0.029098874 0.0187734663
      0.0153316651 0.0413016267 0.00688360445 0.00312891114
      0.00156445557 0.0475594513 0.0535043813 0.00406758441 0.0106382985
      0.0122027537 0.0212765969 0.00125156448 0.00907384232 0.
      0.0140801007 0.0131414272 0.00469336659 0.08135169 0.0237797257
      0.0103254067 0.0175219029 0.00312891114 0.0150187742 0.033166457
      0.0381727181 0.00125156448</_>
    <_>
      0.0833333358 0.00520833349 0.00312500028 0.00312500028
      0.0687500015 0.0166666675 0.015625 0.0187500007 0.0218750015
      0.0114583336 0.0781250075 0. 0.0187500007 0.00833333377
      0.00520833349 0.059375003 0.00104166672 0.00312500028 0.
      0.0729166716 0.0572916679 0.00520833349 0.0114583336 0.0322916694
      0.00729166716 0.0562500022 0.00416666688 0. 0. 0.010416667
      0.119791672 0.0250000022 0.00208333344 0.0145833343 0.00312500028
      0. 0.00833333377 0.00625000056 0.00520833349 0.00833333377
      0.00208333344 0.00625000056 0.043750003 0.00729166716
      0.00416666688 0.00208333344 0.0270833354 0.0229166672 0.0114583336
      0.00104166672</_>
    <_>
      0.079158321 0.0110220443 0. 0.00501001999 0.0761523023
      0.0140280565 0.0170340687 0.0210420843 0.01503006 0.00601202436
      0.0761523023 0. 0.01002004 0.01002004 0.00701402826 0.0641282573
      0.00100200402 0.00100200402 0. 0.0761523023 0.0701402798
      0.00200400804 0.0120240487 0.0340681374 0.00300601218 0.0601202399
      0.00501001999 0. 0. 0.00601202436 0.146292582 0.01503006
      0.00300601218 0.028056113 0.00601202436 0. 0.00501001999 0.
      0.00901803654 0.00601202436 0. 0.00200400804 0.0380761512
      0.00400801608 0.00501001999 0.00200400804 0.0180360731
      0.0140280565 0.0160320643 0.</_>
    <_>
      0.0744394585 0.0206278022 0.00403587427 0.00941704027 0.0336322859
      0.0134529145 0.0300448425 0.0331838541 0.0300448425 0.0210762322
      0.060089685 0. 0.021524664 0.0156950671 0.0161434971 0.0340807177
      0.000896860962 0.00672645727 0.0013452915 0.0618834049
      0.0363228694 0.00179372192 0.0192825105 0.021973094 0.021524664
      0.0515695065 0.00627802685 0.00179372192 0.0013452915 0.0192825105
      0.0744394585 0.0161434971 0.0103139011 0.00807174854 0.0134529145
      0.00224215235 0.0143497754 0.00493273512 0.0121076228 0.0179372188
      0.00179372192 0.0246636756 0.0139013445 0.0130044837 0.0130044837
      0.00403587427 0.0340807177 0.0228699539 0.0282511208
      0.000896860962</_>
    <_>
      0.0546448082 0.0245901644 0.00591985416 0.0122950822 0.0373406187
      0.0154826958 0.0332422592 0.0227686707 0.0241347905 0.0163934417
      0.0587431677 0. 0.0173041895 0.0214025509 0.0191256832
      0.0409836061 0.000910746807 0.00455373386 0.000910746807
      0.0528233163 0.0268670302 0.00364298723 0.0268670302 0.0259562843
      0.0132058291 0.0491803288 0.00956284162 0.00227686693
      0.00227686693 0.0182149354 0.0655737668 0.00956284162
      0.00910746772 0.0104735885 0.0241347905 0.00455373386 0.0223132968
      0.00273224036 0.0186703093 0.0122950822 0.00136612018 0.0282331519
      0.0177595634 0.0104735885 0.0168488156 0.00364298723 0.0295992717
      0.0405282341 0.0300546438 0.000455373403</_>
    <_>
      0.0371229686 0.0278422274 0.00881670509 0.00881670509 0.0394431539
      0.0120649654 0.0301624127 0.0278422274 0.0338747092 0.0190255214
      0.0598607883 0. 0.0180974472 0.0176334102 0.0129930396
      0.0352668203 0.00185614848 0.00232018554 0.000464037119
      0.0631090477 0.0361948945 0.00603248272 0.0213457067 0.0310904868
      0.0120649654 0.0505800471 0.0102088163 0.00232018554 0.00185614848
      0.0194895584 0.0607888624 0.0134570766 0.0125290025 0.00696055684
      0.0204176325 0.00371229695 0.0180974472 0.00881670509 0.0148491878
      0.0125290025 0. 0.0204176325 0.0171693731 0.0204176325
      0.0171693731 0.00371229695 0.0310904868 0.0357308574 0.032482598
      0.00185614848</_>
    <_>
      0.0715524703 0.0290546399 0.00910667796 0.0112749347 0.0368603654
      0.00954032969 0.0242844764 0.0346921086 0.0390286222 0.0130095407
      0.0589765832 0.000433651352 0.0203816127 0.0195143111 0.0156114483
      0.0281873383 0.00216825679 0.0060711191 0.00173460541 0.0637467504
      0.0416305289 0.00216825679 0.017779706 0.0242844764 0.0156114483
      0.0481352992 0.00650477037 0.00216825679 0.000867302704
      0.0147441458 0.0646140501 0.0160450991 0.00867302716 0.00650477037
      0.0169124026 0.000433651352 0.0130095407 0.00433651358
      0.0151777975 0.0173460543 0.00346921082 0.0277536865 0.0147441458
      0.0164787509 0.0108412839 0.00303555955 0.0299219433 0.02862099
      0.0325238518 0.000433651352</_>
    <_>
      0.0492700711 0.0255474448 0.00729927002 0.0104927011 0.0337591246
      0.0141423354 0.0246350355 0.0246350355 0.0228102189 0.0250912402
      0.0547445267 0. 0.018704379 0.0168795623 0.0177919716 0.0323905125
      0.00410583941 0.00456204358 0.000456204376 0.0780109465
      0.0296532847 0.00547445239 0.0237226281 0.0260036495 0.013229927
      0.0542883202 0.0104927011 0.000912408752 0.000912408752
      0.0228102189 0.053375911 0.0114051094 0.0127737224 0.00958029181
      0.0196167883 0.000912408752 0.0214416049 0.0018248175 0.0136861317
      0.015967153 0.00228102179 0.0342153274 0.0168795623 0.0109489048
      0.0173357669 0.0031934306 0.0264598541 0.030565694 0.0437956192
      0.000912408752</_>
    <_>
      0.018711837 0.0315146744 0.00531810103 0.0102422684 0.0305298399
      0.0147725027 0.0279692728 0.033681307 0.0330904052 0.0135907028
      0.0768170133 0.000196966706 0.019302737 0.022454204 0.0204845369
      0.0228481386 0.000590900134 0.00669686822 0.000196966706
      0.0758321807 0.0401812084 0.00118180027 0.0216663368 0.0234390385
      0.0135907028 0.0478629097 0.00906046852 0.00118180027 0.0031514673
      0.02934804 0.0252117384 0.00709080137 0.0120149693 0.0141816027
      0.0202875715 0.00118180027 0.011818002 0.00649990141 0.0244238712
      0.0126058692 0.00413630065 0.0421508737 0.0159543026 0.01437857
      0.0198936369 0.0031514673 0.0273783728 0.0376206413 0.0437266082
      0.000787866826</_>
    <_>
      0.0183158368 0.0388653129 0.006477552 0.00871119089 0.0225597508
      0.0149653787 0.0256868452 0.0366316736 0.0357382186 0.012061649
      0.0732633471 0. 0.018092474 0.0223363861 0.0236765705 0.018092474
      0.000893455464 0.00670091622 0.00111681933 0.0714764372
      0.0377484933 0.00223363866 0.0223363861 0.0187625643 0.012061649
      0.0504802354 0.00737100746 0.00245700264 0.00268036639
      0.0326111242 0.025016753 0.00737100746 0.00960464589 0.00915791839
      0.0221130233 0.00156354706 0.012061649 0.0104981018 0.0306008495
      0.0127317403 0.00245700264 0.046683047 0.0158588346 0.0160821974
      0.0212195665 0.00245700264 0.0272503924 0.0433325917 0.0379718579
      0.00156354706</_>
    <_>
      0.0605236329 0.0265215915 0.00612036698 0.0112206731 0.0329819806
      0.0275416523 0.0200612042 0.0377422646 0.0319619179 0.0129207755
      0.0496429801 0. 0.0275416523 0.0180210806 0.0139408363
      0.0326419584 0.0010200612 0.00646038773 0.000680040801
      0.0516831018 0.0479428768 0.00612036698 0.0227813665 0.0156409387
      0.0108806528 0.0442026518 0.0108806528 0.0013600816 0.00238014292
      0.0251615103 0.0510030612 0.00442026509 0.0108806528 0.0132607957
      0.0159809589 0.0010200612 0.0119007137 0.00748044904 0.0176810604
      0.0119007137 0.00306018349 0.0326419584 0.0357021429 0.0102006122
      0.0112206731 0.00442026509 0.0343420617 0.033321999 0.0319619179
      0.0010200612</_>
    <_>
      0.0194748361 0.038730856 0.00984682702 0.00919037219 0.0212253835
      0.0100656459 0.0352297612 0.0396061279 0.0426695868 0.012910285
      0.0717724338 0.000218818386 0.0234135669 0.0238512047 0.0188183803
      0.0201312918 0.000875273545 0.00743982522 0.000437636772
      0.0792122558 0.0330415778 0.000656455173 0.0166301969 0.0183807444
      0.0137855588 0.0417943113 0.00809628051 0.000875273545
      0.00262582069 0.0258205701 0.0256017521 0.0105032828 0.0124726482
      0.00787746161 0.0229759309 0.00175054709 0.0146608315
      0.00875273533 0.0245076586 0.012910285 0.00547045982 0.0463894978
      0.0100656459 0.016411379 0.016411379 0.00240700226 0.0319474861
      0.0407002196 0.0402625836 0.00109409192</_>
    <_>
      0.0165803116 0.0400690846 0.00310880831 0.0127806561 0.0369602777
      0.00587219372 0.0255613122 0.0352331623 0.033506047 0.0113989636
      0.0711571649 0. 0.0245250426 0.0314335078 0.0214162357
      0.0207253881 0. 0.0072538862 0.00172711571 0.0735751316
      0.0459412783 0.00241796207 0.0203799661 0.0145077724 0.0110535407
      0.0352331623 0.00518134702 0. 0.00172711571 0.0328151993
      0.0241796207 0.00863557868 0.00656303996 0.00449050078
      0.0193436965 0.00172711571 0.00898100156 0.0214162357 0.0255613122
      0.0169257335 0.00379965454 0.0445595868 0.0120898103 0.0127806561
      0.025906736 0.00138169259 0.0348877385 0.0321243517 0.0521588959
      0.000345423148</_>
    <_>
      0.0159000568 0.0425894372 0.00965360552 0.0141964788 0.037478704
      0.00880181696 0.0354911983 0.0406019278 0.0383304916 0.0176036339
      0.0522430427 0.000283929578 0.0207268596 0.019307211 0.0252697319
      0.028676888 0.0039750142 0.00709823938 0.00170357747 0.0562180579
      0.0530948304 0.0039750142 0.0212947186 0.0176036339 0.0164679158
      0.0340715498 0.00880181696 0.0019875071 0.00113571831 0.0212947186
      0.018739352 0.0102214646 0.0102214646 0.00993753504 0.0218625776
      0.00283929566 0.0113571826 0.00567859132 0.0141964788 0.0141964788
      0.00340715493 0.039182283 0.0227143653 0.0102214646 0.0207268596
      0.00283929566 0.0278250985 0.045712661 0.0485519581 0.00369108445</_>
    <_>
      0.0169151369 0.0504587144 0.00688073365 0.0189220179 0.0315366946
      0.011467889 0.0326834843 0.0326834843 0.0295298155 0.0140481647
      0.0547591709 0. 0.0217889901 0.0315366946 0.0217889901
      0.0192087144 0.00200688071 0.00860091671 0.00143348612
      0.0484518334 0.0332568809 0.00573394448 0.0237958711 0.0117545864
      0.0172018334 0.0389908254 0.0126146786 0.00143348612 0.00344036683
      0.0212155953 0.0146215586 0.007454128 0.012901376 0.00946100894
      0.0312499981 0.00344036683 0.0183486231 0.014908256 0.020355504
      0.0146215586 0.00315366965 0.0473050438 0.026376145 0.011467889
      0.0212155953 0.00258027506 0.0321100913 0.0369839445 0.0461582541
      0.00114678894</_>
    <_>
      0.025983952 0.025219718 0.00496752001 0.012991976 0.0439434461
      0.015284678 0.034390524 0.0466182679 0.0450897999 0.019487964
      0.0683989301 0. 0.021398548 0.020634314 0.021398548 0.0233091339
      0.000382116938 0.00687810499 0.000764233875 0.0649598762
      0.0466182679 0.0026748185 0.012227742 0.02369125 0.017195262
      0.0412686281 0.00993504003 0.0030569355 0.00114635075 0.0248376001
      0.027130302 0.00534963701 0.00993504003 0.011081391 0.01375621
      0.000764233875 0.011463508 0.00840657298 0.016048912 0.014138327
      0.00458540302 0.02751242 0.027130302 0.015666794 0.010699274
      0.0030569355 0.030187238 0.0393580459 0.0385938101 0.000382116938</_>
    <_>
      0.0348277129 0.0222304557 0.00778065948 0.0125972582 0.0422378667
      0.0144497957 0.031493146 0.0340866968 0.0333456844 0.0192663949
      0.0681733936 0. 0.0177843645 0.023341978 0.0163023341 0.0348277129
      0.00222304557 0.0066691367 0.00148203038 0.0733605027 0.0329751745
      0.00259355316 0.0181548726 0.031493146 0.0122267511 0.0429788828
      0.00926269032 0.000370507594 0.00148203038 0.0192663949
      0.0277880691 0.00815116707 0.00815116707 0.0137087815 0.0133382734
      0.000741015188 0.0163023341 0.00703964429 0.0125972582
      0.0151908118 0.0062986291 0.0366802514 0.0226009637 0.0137087815
      0.0163023341 0.00148203038 0.0296406075 0.0403853282 0.0411263444
      0.00148203038</_>
    <_>
      0.0357142873 0.0345622115 0.00384024577 0.0136328721 0.0238095243
      0.0167050697 0.0178571437 0.0307219662 0.0270737335 0.0186251923
      0.0566436239 0. 0.00883256551 0.0195852537 0.0345622115
      0.0209293403 0.00268817204 0.000960061443 0.000768049154
      0.0543394759 0.0633640587 0.00268817204 0.0182411671 0.0243855603
      0.0165130571 0.0585637465 0.0101766512 0.00211213529 0.00192012289
      0.0572196618 0.0347542241 0.00537634408 0.0107526882 0.00883256551
      0.0247695856 0.000768049154 0.0105606755 0.000768049154
      0.0182411671 0.0142089091 0.0036482336 0.0508832559 0.0270737335
      0.0145929344 0.0199692771 0.00422427058 0.0153609831 0.0274577569
      0.0299539175 0.000768049154</_>
    <_>
      0.0506152138 0.0545302033 0.00475391513 0.0162192397 0.0282438472
      0.0209731553 0.0142617449 0.0248881429 0.0271252804 0.0103467563
      0.0397091731 0.000559284119 0.0164988823 0.0212527961 0.0357941836
      0.0198545866 0.000559284119 0.00335570471 0.000279642059
      0.0411073826 0.0520134233 0.00279642059 0.0265659951 0.0162192397
      0.0100671146 0.0522930659 0.00866890419 0.00279642059
      0.00251677865 0.0402684584 0.0489373617 0.00559284119 0.0103467563
      0.0153803136 0.0215324387 0.00307606254 0.0131431771 0.00167785236
      0.0176174492 0.0137024606 0.0039149886 0.0562080555 0.0343959741
      0.00950783025 0.0229306482 0.0019574943 0.0206935126 0.0254474282
      0.0276845638 0.00111856824</_>
    <_>
      0.041860465 0.0607973412 0.00465116277 0.0209302325 0.0239202641
      0.0242524911 0.0136212623 0.0159468427 0.0169435218 0.0149501655
      0.0538205951 0. 0.00598006602 0.0122923581 0.0438538194
      0.0245847162 0.0013289036 0.00166112953 0. 0.0458471738
      0.0518272407 0.00299003301 0.0205980055 0.0202657804 0.0199335534
      0.0581395328 0.00664451811 0.00232558139 0.00299003301
      0.0372093022 0.0401993357 0.00365448487 0.0106312288 0.0192691013
      0.0205980055 0.00166112953 0.0109634548 0. 0.0132890362
      0.0122923581 0.00199335534 0.06478405 0.0415282361 0.0109634548
      0.0265780725 0.000996677671 0.0139534874 0.0166112948 0.0392026566
      0.0006644518</_>
    <_>
      0.0449665785 0.0293700621 0.00364593882 0.0143812029 0.026534332
      0.020457767 0.0188373495 0.0275470931 0.024711363 0.0196475592
      0.0575248115 0.000202552153 0.0089122951 0.0174194854 0.0291675106
      0.0194450058 0.00202552159 0.00263317791 0.000810208614
      0.0559043959 0.0597528853 0.00303828227 0.0212679766 0.0228883941
      0.0135709941 0.0559043959 0.0089122951 0.00202552159 0.00263317791
      0.0552967377 0.0352440737 0.00506380387 0.010735264 0.00830463786
      0.0241037067 0.00162041723 0.00992505532 0.000607656431
      0.0224832892 0.015393964 0.00303828227 0.0496252775 0.0257241242
      0.0117480252 0.0198501106 0.00526635582 0.0192424543 0.0283573009
      0.0334211066 0.000810208614</_>
    <_>
      0.0305164307 0.0352112651 0.0053655263 0.0124077797 0.0291750487
      0.0221327953 0.0264922865 0.0331991948 0.0298457406 0.0107310526
      0.0469483547 0.000335345394 0.0157612339 0.016767269 0.0214621052
      0.0298457406 0.00201207236 0.00469483528 0.000335345394
      0.0543259531 0.0476190448 0.00167672697 0.019114688 0.0228034873
      0.0154258879 0.0784708187 0.00603621732 0.000670690788
      0.00167672697 0.0399061032 0.0452716276 0.00804828946 0.0103957076
      0.0154258879 0.0117370887 0.00100603618 0.0147551969 0.0110663977
      0.019114688 0.00972501654 0.00134138158 0.0382293761 0.0382293761
      0.0140845068 0.0134138158 0.00435949024 0.0217974503 0.0295103937
      0.0298457406 0.00167672697</_>
    <_>
      0.047841806 0.0323197953 0.00255156285 0.0138209658 0.0219009146
      0.018924091 0.0170104187 0.0261535197 0.0221135449 0.0210503936
      0.0533701926 0. 0.0119072935 0.0191367213 0.02636615 0.0223261751
      0.00148841168 0.00233893259 0.00085052097 0.0586859472
      0.0640017018 0.00318945362 0.0191367213 0.0174356792 0.0114820329
      0.0563470125 0.00893046986 0.00127578143 0.00212630234
      0.0520944111 0.0474165455 0.00489049545 0.0121199237 0.00914310012
      0.0223261751 0.000637890713 0.0104188817 0.00127578143 0.01807357
      0.0170104187 0.0019136722 0.048692327 0.025515629 0.0119072935
      0.0201998726 0.00552838622 0.0242398474 0.027216671 0.0342334695
      0.00106315117</_>
    <_>
      0.05398551 0.0688405856 0.00507246377 0.0235507246 0.0217391308
      0.0177536234 0.0105072465 0.0166666675 0.014130435 0.0112318844
      0.0449275374 0. 0.00760869589 0.0108695654 0.0405797102
      0.0224637687 0.00217391318 0.00108695659 0.000362318853
      0.0398550741 0.0532608703 0.00398550741 0.0235507246 0.0195652172
      0.0166666675 0.0568840615 0.00471014529 0.000724637706
      0.00253623188 0.0423913077 0.0518115945 0.00543478271
      0.00942029059 0.0130434791 0.0217391308 0.00217391318
      0.00724637695 0.00144927541 0.0166666675 0.0108695654
      0.00181159424 0.0659420341 0.0351449288 0.0126811601 0.026811596
      0.00181159424 0.0152173918 0.0195652172 0.0423913077 0.00108695659</_>
    <_>
      0.0521400794 0.0272373538 0.00415045395 0.0176394284 0.0272373538
      0.023346303 0.016861219 0.0251621269 0.023346303 0.0173800252
      0.0539559014 0. 0.0140077826 0.0189364459 0.0204928666
      0.0246433206 0.00129701686 0.00233463035 0.000518806744
      0.0596627742 0.057328146 0.00285343709 0.0225680936 0.0212710761
      0.0166018158 0.053177692 0.00959792454 0.00181582361 0.00181582361
      0.0456549935 0.0440985747 0.00726329442 0.010635538 0.010635538
      0.0241245143 0.00155642023 0.0129701681 0.00259403372 0.0204928666
      0.0158236064 0.00285343709 0.0396887176 0.0223086905 0.016861219
      0.0191958491 0.00440985709 0.0241245143 0.0251621269 0.0313878097
      0.000778210117</_>
    <_>
      0.0543798544 0.0300026778 0.00455397787 0.0133940531 0.0267881062
      0.0200910792 0.0241092946 0.0291990358 0.0246450566 0.0187516734
      0.056790784 0. 0.0120546473 0.0179480314 0.0184837934 0.0251808185
      0.000803643139 0.00375033473 0.000267881056 0.0562550202
      0.0527725667 0.00267881062 0.0198231973 0.0249129385 0.0171443876
      0.0420573242 0.0104473615 0.00107152422 0.00133940531 0.0385748707
      0.0517010428 0.00857219379 0.0115188854 0.0163407438 0.0211626031
      0.000803643139 0.0133940531 0.00508974027 0.0203589611
      0.0125904093 0.00294669159 0.0431288518 0.0241092946 0.0152692199
      0.0179480314 0.00294669159 0.0227698889 0.0310742017 0.0289311539
      0.00107152422</_>
    <_>
      0.0521776639 0.0316946954 0.00301854266 0.0144458823 0.0252263919
      0.0170332044 0.0200517476 0.0288917646 0.0224234592 0.0198361371
      0.0528244935 0. 0.0107805096 0.020267358 0.0263044424 0.0213454086
      0.00107805093 0.0028029324 0.000431220367 0.0579991378
      0.0608020723 0.00258732215 0.0200517476 0.0230702888 0.0129366107
      0.0526088849 0.00754635641 0.00215610187 0.000862440735
      0.0470030196 0.046787411 0.00431220373 0.0112117296 0.0125053907
      0.0224234592 0.00129366107 0.0107805096 0.00237171212 0.0200517476
      0.0183268655 0.00172488147 0.0491591208 0.0237171203 0.0133678317
      0.018542476 0.00495903427 0.0228546802 0.0280293245 0.028244935
      0.00107805093</_>
    <_>
      0.0364912301 0.0428070202 0.00631578965 0.0112280706 0.028070176
      0.0228070188 0.0210526325 0.0273684226 0.0256140362 0.0147368424
      0.0582456179 0.000350877206 0.0133333337 0.0192982461 0.0235087723
      0.0340350904 0.000701754412 0.00385964918 0.00105263165
      0.0480701774 0.04526316 0.00140350882 0.0185964927 0.0207017548
      0.0133333337 0.0733333379 0.00982456189 0.00210526329
      0.00421052659 0.0361403525 0.0435087718 0.00771929836
      0.00596491247 0.0242105275 0.0164912287 0.00140350882 0.010877193
      0.00736842118 0.0178947374 0.0119298249 0.00210526329 0.0375438593
      0.0357894748 0.00771929836 0.0122807026 0.00421052659 0.0200000014
      0.0298245624 0.0375438593 0.001754386</_>
    <_>
      0.0533078164 0.030344449 0.0079278294 0.0106615629 0.0284308344
      0.0210497528 0.0221432466 0.0325314365 0.0278840885 0.0139420442
      0.0434663743 0. 0.0147621641 0.0172225256 0.0177692715
      0.0278840885 0.0013668671 0.00437397463 0. 0.055221431
      0.0560415499 0.00382722775 0.0213231258 0.0292509552 0.0174958985
      0.0478403494 0.010114816 0.000546746829 0.00164024043 0.0426462516
      0.0489338413 0.00820120238 0.00820120238 0.015308911 0.0207763799
      0.00109349366 0.0133952973 0.0035538543 0.0191361383 0.0133952973
      0.00601421529 0.0396391451 0.0205030069 0.0136686703 0.0183160193
      0.00300710765 0.0254237279 0.030071076 0.0292509552 0.00109349366</_>
    <_>
      0.0880149826 0.017322097 0.00234082388 0.0121722845 0.0454119854
      0.0145131089 0.0210674163 0.0290262178 0.0243445691 0.0145131089
      0.0641385764 0. 0.0107677905 0.0121722845 0.0163857676
      0.0299625471 0.000936329598 0.00468164776 0.000468164799
      0.0650749058 0.0435393266 0.00468164776 0.0159176029 0.0248127338
      0.0149812736 0.0683520585 0.00608614227 0.0014044944 0.0014044944
      0.0205992516 0.0711610466 0.00795880146 0.00561797759 0.017322097
      0.017322097 0.00327715371 0.0102996258 0.00561797759 0.00889513083
      0.0149812736 0.000468164799 0.018726591 0.0365168527 0.00608614227
      0.0140449442 0.00374531839 0.021535581 0.0280898884 0.0323033705
      0.000936329598</_>
    <_>
      0.074240163 0.0219232701 0.00448430516 0.00896861032 0.0368709527
      0.0144494278 0.0259093177 0.0393622331 0.0368709527 0.0139511712
      0.0587942228 0. 0.0144494278 0.00996512268 0.0124564031
      0.0363726951 0.000498256122 0.00298953662 0.000996512244
      0.0657698065 0.0553064309 0.00498256134 0.0169407073 0.0284005981
      0.0104633784 0.0732436478 0.00697558559 0.00149476831
      0.000996512244 0.0144494278 0.0707523674 0.00797209796
      0.00697558559 0.0129546588 0.0154459402 0.00199302449
      0.00996512268 0.00647732941 0.00797209796 0.010961635 0.
      0.0194319896 0.0288988557 0.00548081752 0.00896861032
      0.00398604898 0.0244145505 0.0284005981 0.0353761837
      0.000996512244</_>
    <_>
      0.0668523684 0.0246053841 0.00603528321 0.00928505138 0.0399257205
      0.0171773434 0.0241411328 0.032497678 0.027390901 0.0111420611
      0.057567317 0. 0.0181058496 0.0153203337 0.0185701028 0.0338904373
      0.00185701018 0.00185701018 0.000928505091 0.0631383434
      0.0519962832 0.00232126284 0.0199628603 0.0204271115 0.0116063133
      0.0659238622 0.0064995354 0.000928505091 0.00278551527
      0.0129990708 0.0798514411 0.00789229292 0.00696378807 0.0143918293
      0.019034354 0.00139275764 0.0125348186 0.0064995354 0.00603528321
      0.0139275761 0.00139275764 0.0157845858 0.0394614674 0.00789229292
      0.0111420611 0.00371402036 0.0255338904 0.0259981416 0.0338904373
      0.000928505091</_>
    <_>
      0.0259617213 0.0619670302 0.0128861098 0.0221716892 0.0216031838
      0.00776956649 0.0509759337 0.0473754033 0.0464278981 0.0102330875
      0.0318362713 0.000189501618 0.016486641 0.0284252428 0.0219821874
      0.0170551464 0.0041690357 0.00814856961 0.000947508088
      0.0367633142 0.0176236499 0.00303202588 0.0200871713 0.010612091
      0.0216031838 0.0341102928 0.00833807141 0.00075800647
      0.00246352097 0.0200871713 0.0291832499 0.0104225893 0.0180026535
      0.00606405176 0.0234981999 0.0017055145 0.0117490999 0.0168656446
      0.0212241821 0.00814856961 0.00587454997 0.0511654355 0.0142126214
      0.0183816571 0.0181921553 0.00454803882 0.027288232 0.0566609837
      0.0439643748 0.00075800647</_>
    <_>
      0.0532223023 0.0369297601 0.00724112988 0.0126719773 0.0224475022
      0.0141202025 0.0438088328 0.0488776267 0.0456191152 0.0155684287
      0.0409123823 0. 0.0235336721 0.0199131072 0.0228095576 0.022085445
      0.00108616939 0.00977552496 0.00144822593 0.043084722 0.0257060099
      0.00289645186 0.015930485 0.0188269373 0.0141202025 0.0514120199
      0.00977552496 0.000724112964 0.00144822593 0.0184648801
      0.0445329472 0.0083272988 0.00905141234 0.0188269373 0.0141202025
      0.000362056482 0.00796524249 0.0267921798 0.0141202025
      0.00941346865 0.00253439532 0.0434467793 0.0242577847
      0.00941346865 0.00977552496 0.0032585084 0.0365677029 0.0369297601
      0.0358435921 0.</_>
    <_>
      0.035045106 0.023247743 0.00381679367 0.0128383059 0.0412907675
      0.0201249123 0.0305343494 0.0360860489 0.0388619006 0.0142262317
      0.0416377485 0.000346981251 0.022553781 0.0194309503 0.0249826498
      0.0301873684 0.000346981251 0.00659264391 0.000346981251
      0.0399028435 0.068355307 0.00520471856 0.0156141566 0.0270645376
      0.0131852878 0.0548230372 0.0135322688 0.00208188756 0.00242886879
      0.0281054806 0.0426786952 0.00971547514 0.0100624561 0.0135322688
      0.0149201937 0.00277585001 0.0159611367 0.0069396249 0.0152671747
      0.0163081195 0.00381679367 0.0256766118 0.0287994444 0.00971547514
      0.0100624561 0.00555170001 0.0308813322 0.0360860489 0.0267175566
      0.00173490623</_>
    <_>
      0.0329391882 0.036880631 0.00929054059 0.0118243247 0.0402590111
      0.0233671181 0.039414417 0.0320945941 0.0315315314 0.00731982011
      0.0326576568 0.000281531538 0.016891893 0.0360360369 0.0244932435
      0.0292792805 0.000844594615 0.0025337839 0.000844594615 0.03125
      0.0467342362 0.0081644142 0.0211148653 0.0137950452 0.0163288284
      0.0523648672 0.016047297 0.00168918923 0.00365991006 0.0250563063
      0.0475788303 0.00985360425 0.0118243247 0.0177364871 0.0126689188
      0.00112612615 0.0318130627 0.00394144142 0.0194256753 0.0115427934
      0.00140765775 0.0340653174 0.0295608118 0.0143581089 0.00929054059
      0.00394144142 0.0247747749 0.0422297306 0.0256193709 0.00225225231</_>
    <_>
      0.0375970565 0.0232938305 0.00980792847 0.0159378834 0.0441356786
      0.0175725389 0.0339190848 0.0363710672 0.0367797315 0.0126685742
      0.0433183499 0. 0.0245198198 0.0192071926 0.0179812014
      0.0269718021 0.00122599106 0.00653861882 0.00163465471
      0.0420923568 0.0396403782 0.00531262765 0.0302411113 0.0187985282
      0.0175725389 0.0637515336 0.00899060071 0.000408663676
      0.00286064576 0.0269718021 0.0604822226 0.0114425831 0.00735594612
      0.00899060071 0.0143032288 0.000408663676 0.0130772376
      0.00899060071 0.0159378834 0.0130772376 0.00490396423 0.0232938305
      0.0212505106 0.0167552102 0.0147118922 0.00531262765 0.0277891308
      0.0286064576 0.0363710672 0.000817327353</_>
    <_>
      0.0372159071 0.0400568172 0.00624999963 0.0249999985 0.0411931798
      0.0181818176 0.0411931798 0.0372159071 0.0343750007 0.0105113629
      0.0295454543 0.00170454546 0.0144886356 0.0258522723 0.0261363629
      0.0352272727 0.00312499981 0.00312499981 0.00142045447
      0.0315340906 0.0528409071 0.0105113629 0.0235795453 0.0139204543
      0.0122159086 0.046306815 0.0224431809 0.0005681818 0.00397727266
      0.027556818 0.0440340899 0.0124999993 0.00653409073 0.0159090906
      0.019318182 0.00170454546 0.0235795453 0.00568181789 0.0136363637
      0.00965909101 0.00312499981 0.0301136356 0.0284090899 0.0085227266
      0.00795454532 0.00653409073 0.0207386352 0.0372159071 0.0249999985
      0.00255681807</_>
    <_>
      0.0366578624 0.02972259 0.00759577285 0.0115587851 0.0442536324
      0.020145312 0.034015853 0.0376486145 0.0303830914 0.0125495382
      0.0432628803 0.000330251001 0.0211360641 0.0221268162 0.0241083223
      0.0343461037 0.0033025099 0.00594451791 0.00198150612 0.0383091159
      0.0495376512 0.00231175707 0.0194848087 0.0257595778 0.0151915457
      0.0554821678 0.0125495382 0.00231175707 0.00297225895 0.0326948501
      0.0330251008 0.0122192875 0.00957727898 0.0161822997 0.0142007926
      0.00132100401 0.0175033025 0.0056142672 0.0138705419 0.0165125504
      0.00297225895 0.0287318379 0.02972259 0.010568032 0.0112285344
      0.00495376484 0.0247688256 0.0343461037 0.0330251008 0.00198150612</_>
    <_>
      0.0579557456 0.0245872866 0.00280997553 0.00842992682 0.0432033725
      0.0151036186 0.0379346684 0.0312609784 0.0382859148 0.0119423959
      0.0439058691 0. 0.0221285578 0.0182648413 0.0207235701
      0.0288022496 0.00245872862 0.00456621032 0. 0.0484720767
      0.0526870415 0.00210748171 0.0140498774 0.0165086053 0.0108886547
      0.0576044992 0.0147523712 0.00210748171 0.00140498776 0.0354759395
      0.0547945239 0.0154548651 0.00913242064 0.0115911495 0.0122936433
      0.00316122244 0.0158061124 0.00632244488 0.0129961371 0.0165086053
      0.00280997553 0.0316122249 0.0266947672 0.0140498774 0.00878117327
      0.00526870415 0.029153496 0.025641026 0.0284510031 0.00105374085</_>
    <_>
      0.0336438939 0.025621118 0.00543478271 0.0147515535 0.0362318829
      0.0251035206 0.0326086953 0.032091096 0.0336438939 0.00802277401
      0.0331262946 0. 0.0217391308 0.032867495 0.0240683239 0.025621118
      0.00103519671 0.004399586 0.000258799177 0.035196688 0.0530538298
      0.00465838518 0.0266563147 0.0186335407 0.0155279506 0.0597826093
      0.0157867502 0.00284679094 0.00284679094 0.0318323001 0.0571946166
      0.00828157365 0.0106107667 0.0168219469 0.0119047621 0.00103519671
      0.0279503111 0.00207039341 0.0165631473 0.00750517612
      0.00362318847 0.0300207045 0.0349378884 0.0106107667 0.0121635608
      0.00258799177 0.0258799177 0.0354554877 0.0263975151 0.00129399588</_>
    <_>
      0.0605302677 0.0425212607 0.00900450256 0.012506254 0.0360180102
      0.0145072546 0.0270135067 0.0490245149 0.0445222631 0.00900450256
      0.0545272641 0. 0.0150075043 0.012506254 0.0135067534 0.0245122574
      0.00200100057 0.0060030017 0.000500250142 0.0525262654
      0.0355177596 0.00400200114 0.012506254 0.0255127568 0.0195097551
      0.060030017 0.00500250142 0.000500250142 0.00150075043
      0.0230115056 0.047523763 0.00950475223 0.00800400227 0.00350175099
      0.012506254 0.00100050028 0.00550275156 0.0110055031 0.0170085058
      0.00950475223 0.00400200114 0.0330165103 0.0120060034 0.0175087545
      0.0160080045 0.00250125071 0.0300150085 0.0515257642 0.0355177596
      0.</_>
    <_>
      0.0620108359 0.0168573149 0.00903070439 0.00842865743 0.0439494289
      0.0258880183 0.0216736905 0.0313064419 0.0355207697 0.00842865743
      0.0668272153 0. 0.016255267 0.0126429861 0.0114388922 0.0373269096
      0.00120409392 0.00842865743 0.000602046959 0.0590006039
      0.045153521 0.00180614088 0.0126429861 0.0210716426 0.0186634548
      0.0788681507 0.00421432871 0.00120409392 0.00120409392
      0.0234798305 0.058398556 0.00963275135 0.0102347983 0.0180614088
      0.0138470801 0.00120409392 0.00541842263 0.00602046959 0.015051174
      0.00963275135 0.00180614088 0.0156532209 0.0319084898
      0.00602046959 0.0126429861 0.00602046959 0.0282962061 0.0313064419
      0.0313064419 0.00240818784</_>
    <_>
      0.0539944917 0.0236914605 0.0143250693 0.0110192839 0.0385674946
      0.0187327825 0.025895318 0.0528925657 0.0429752097 0.00826446339
      0.0606060624 0. 0.0126721766 0.0115702488 0.0121212127
      0.0303030312 0.00495867804 0.00661157072 0.00165289268
      0.0677685961 0.0440771356 0.00440771366 0.0159779619 0.0225895327
      0.0137741053 0.0705234185 0.00330578536 0.00220385683
      0.00220385683 0.0176308546 0.0424242429 0.00771349901
      0.00826446339 0.00716253463 0.0170798898 0.00110192841
      0.00771349901 0.00661157072 0.0126721766 0.00661157072
      0.00330578536 0.0297520664 0.0126721766 0.0165289268 0.0187327825
      0.00275482098 0.0269972458 0.0358126722 0.0374655649 0.00330578536</_>
    <_>
      0.0276073609 0.0279907975 0.00460122712 0.0141871162 0.0253067482
      0.0226226989 0.0260736197 0.0398772992 0.0375766866 0.00805214699
      0.0463957042 0. 0.0218558274 0.0191717781 0.0268404894
      0.0291411038 0.00345092011 0.00421779137 0.000766871148
      0.0379601233 0.0805214718 0.0015337423 0.0253067482 0.0172546003
      0.0164877288 0.0525306724 0.0134202447 0.000766871148 0.0015337423
      0.0383435562 0.036809817 0.00613496918 0.00805214699 0.00690184021
      0.0138036804 0.00230061356 0.0245398767 0.00191717781 0.0207055211
      0.00728527596 0.00306748459 0.0433282182 0.0249233115 0.0138036804
      0.0122699384 0.00575153343 0.0276073609 0.0371932499 0.0310582817
      0.00115030678</_>
    <_>
      0.0379584506 0.051551681 0.00666837674 0.0166709423 0.0220569372
      0.027442934 0.0202616062 0.0320595019 0.0294947419 0.00923313666
      0.0307771228 0. 0.0133367535 0.026929982 0.025904078 0.0223134141
      0.00179533218 0.00256476016 0.000512952043 0.0323159769
      0.0574506298 0.00179533218 0.0300076939 0.0210310332 0.0133367535
      0.055142343 0.0128238015 0.00102590409 0.00256476016 0.0300076939
      0.0379584506 0.00615542475 0.0112849446 0.0205180813 0.0253911261
      0.00179533218 0.0153885614 0.000769428094 0.0187227502
      0.00846370868 0.00461656833 0.0489869192 0.0338548347 0.0107719926
      0.0171838943 0.00282123615 0.0161579885 0.0353936926 0.0482174903
      0.000512952043</_>
    <_>
      0.0400108136 0.0524466038 0.00756961294 0.01459854 0.0313598253
      0.0254122727 0.0229791831 0.0235198699 0.0254122727 0.0121654496
      0.0370370373 0. 0.0137875099 0.0254122727 0.0170316305 0.022168152
      0.00162205996 0.00162205996 0.000811029982 0.0413625278
      0.0278453622 0.00378480647 0.0248715859 0.0259529594 0.0140578533
      0.0359556638 0.0124357929 0.0013517167 0.0051365234 0.0305487961
      0.0473100841 0.00648823986 0.0135171665 0.0240605567 0.0237902123
      0.00189240323 0.0143281966 0.000811029982 0.015950257 0.0118951062
      0.00459583662 0.0475804247 0.0427142456 0.0132468231 0.0183833465
      0.00486618001 0.0202757493 0.0400108136 0.0489321426 0.00108137331</_>
    <_>
      0.0390674211 0.063642092 0.00567107741 0.0138626331 0.032766223
      0.02142407 0.0189035907 0.0293005668 0.0229993686 0.0189035907
      0.0415879004 0. 0.0151228728 0.0211090092 0.0207939502
      0.0293005668 0.00409577787 0.0025204788 0.00031505985 0.0545053557
      0.0396975428 0.0028355387 0.0201638304 0.0141776931 0.0129174534
      0.0315059833 0.0100819152 0.00157529931 0.00220541889 0.0189035907
      0.0586011335 0.00756143639 0.0103969751 0.0141776931 0.0204788893
      0.00472589768 0.0110270949 0.00630119722 0.0141776931 0.0122873345
      0.00346565829 0.0466288589 0.0258349068 0.0148078129 0.0198487714
      0.00504095759 0.0286704469 0.032766223 0.0529300533 0.00031505985</_>
    <_>
      0.0388457291 0.0593784675 0.00591934891 0.0177580472 0.0236773957
      0.0321864597 0.0123936366 0.0149833523 0.0162782092 0.0179430265
      0.0349611528 0. 0.00776914554 0.0166481696 0.034406215
      0.0240473542 0.00147983723 0.00258971518 0.00203477615
      0.0382907875 0.045689974 0.00258971518 0.0220125783 0.0188679248
      0.0122086573 0.0467998534 0.0122086573 0.000739918614
      0.00610432867 0.0301516838 0.0340362564 0.0055493894 0.0101738805
      0.0227524973 0.0281169079 0.00517943036 0.0183129851 0.00147983723
      0.0177580472 0.0125786169 0.00295967446 0.0460599326 0.0645579025
      0.01054384 0.0160932299 0.00258971518 0.0127635961 0.0427303016
      0.0462449118 0.000554938975</_>
    <_>
      0.0326231681 0.070350647 0.00355082122 0.020195296 0.0226364844
      0.0377274752 0.0157567691 0.0135375056 0.0117620956 0.0166444741
      0.0339547284 0. 0.00621393695 0.019307591 0.0383932553
      0.0235241912 0.00199733698 0.00177541061 0.00133155799
      0.0392809585 0.0490457192 0.00133155799 0.0248557478 0.020195296
      0.0142032849 0.0388371088 0.0148690641 0.000443852652
      0.00421660021 0.0250776745 0.0410563685 0.00732356869
      0.00909897964 0.025521528 0.0275188647 0.00732356869 0.0166444741
      0.00110963162 0.0142032849 0.0135375056 0.00310696848 0.0403905921
      0.0683533102 0.0113182422 0.0150909899 0.00377274747 0.00976475794
      0.0355082117 0.0443852656 0.00133155799</_>
    <_>
      0.034557905 0.0398505591 0.00622664997 0.0140099619 0.0283312574
      0.0189912822 0.0227272715 0.0308219176 0.0245952662 0.0146326274
      0.0426525511 0.000311332493 0.0146326274 0.0233499371 0.0233499371
      0.0236612689 0.00342465751 0.0037359898 0.000933997449
      0.0451432131 0.0523038581 0.00498131989 0.0196139477 0.0236612689
      0.0155666247 0.0613325015 0.00933997519 0.00155666249
      0.00249065994 0.0245952662 0.0435865484 0.00871730968
      0.00933997519 0.0168119539 0.0171232875 0.00311332499 0.0118306344
      0.00498131989 0.0174346194 0.0127646318 0.0018679949 0.0470112078
      0.034557905 0.0152552919 0.0211706087 0.0037359898 0.0239726026
      0.0326899104 0.0417185538 0.000933997449</_>
    <_>
      0.0352974683 0.0264731012 0.00597779686 0.0119555937 0.0438371785
      0.0304582994 0.0284656994 0.0418445803 0.036151439 0.00910902396
      0.0424138941 0.000853970996 0.0222032461 0.0281810425 0.0219185892
      0.0318815857 0.00113862799 0.00569313997 0.00113862799
      0.0446911491 0.047537718 0.00540848309 0.0239111874 0.0219185892
      0.0122402506 0.05408483 0.0145175066 0.00170794199 0.00483916886
      0.0247651581 0.042698551 0.0150868213 0.00967833772 0.017933391
      0.0122402506 0.00227725599 0.0199259892 0.0105323093 0.0165101066
      0.00654711109 0.00540848309 0.0185027048 0.0261884443 0.0128095653
      0.00939368084 0.00540848309 0.0304582994 0.0304582994 0.0256191306
      0.00170794199</_>
    <_>
      0.0306576174 0.0236367881 0.0084249936 0.014275684 0.0369763635
      0.0198923461 0.0402527489 0.0580388494 0.0496138521 0.0102972146
      0.0411888584 0.000234027611 0.0238708165 0.0236367881 0.0182541534
      0.0252749827 0.00163819327 0.00819096621 0.000936110446
      0.0416569151 0.0507839918 0.00327638653 0.0196583197 0.0156798493
      0.0166159607 0.0592089854 0.0112333251 0.000936110446
      0.000936110446 0.0210624859 0.0318277553 0.0112333251 0.012403463
      0.0105312429 0.0114673525 0.00187222089 0.0112333251 0.0133395735
      0.014275684 0.0105312429 0.00444652466 0.0325298384 0.0257430375
      0.0128715187 0.0107652703 0.00538263517 0.0353381708 0.0355721973
      0.0313596986 0.000936110446</_>
    <_>
      0.027179487 0.0243589729 0.00897435844 0.0133333327 0.0325640999
      0.0187179483 0.0335897431 0.0553846136 0.0471794866 0.011282051
      0.0430769213 0. 0.0197435897 0.0230769217 0.0205128193
      0.0233333316 0.00128205121 0.00615384616 0.00102564099
      0.0394871794 0.0438461527 0.00410256395 0.0217948705 0.0130769229
      0.0179487169 0.0538461506 0.0115384609 0.00128205121 0.00384615362
      0.0243589729 0.04179487 0.0138461534 0.0153846145 0.0138461534
      0.0105128204 0.00230769231 0.0161538459 0.0174358971 0.0141025633
      0.0128205121 0.00487179449 0.0297435895 0.0341025628 0.0138461534
      0.0148717947 0.00487179449 0.0315384604 0.0333333313 0.0284615383
      0.000256410247</_>
    <_>
      0.043680042 0.0207480211 0.00655200658 0.0131040132 0.0303030312
      0.0229320228 0.028938029 0.053235054 0.0494130515 0.0101010101
      0.0401310399 0. 0.0196560193 0.0226590224 0.0259350259
      0.0259350259 0.00163800165 0.00819000788 0.000273000274
      0.0450450443 0.0529620536 0.00354900351 0.0166530162 0.0152880158
      0.0171990171 0.0559650548 0.00900900923 0.000819000823
      0.00327600329 0.0226590224 0.0469560474 0.0120120123 0.011193011
      0.0131040132 0.0109200105 0.000819000823 0.0117390119 0.0117390119
      0.0131040132 0.00873600878 0.00191100198 0.0275730286 0.0349440351
      0.011193011 0.0125580123 0.00600600615 0.0343980342 0.0343980342
      0.0303030312 0.000546000549</_>
    <_>
      0.0596383251 0.0334744155 0.0042323973 0.0138514815 0.0500192381
      0.0126971919 0.0346287042 0.0330896489 0.0265486725 0.0103886109
      0.0530973449 0.000384763378 0.0242400933 0.0284724906 0.0173143521
      0.0357829928 0.000384763378 0.00808003079 0.00153905351
      0.0627164319 0.0261639096 0.00384763372 0.0161600616 0.0161600616
      0.0134667186 0.0338591784 0.00692574074 0.00115429016
      0.000769526756 0.0165448245 0.0461716056 0.0092343213 0.0092343213
      0.010003848 0.0157752987 0.000769526756 0.0111581376 0.00846479461
      0.017699115 0.0173143521 0.00153905351 0.03539823 0.0315505974
      0.0065409774 0.0115429014 0.00192381686 0.0334744155 0.0454020798
      0.0404001549 0.000769526756</_>
    <_>
      0.0411924124 0.025474254 0.00487804879 0.00867208652 0.0428184271
      0.008130081 0.0227642264 0.0476964749 0.0422764234 0.0157181565
      0.0775067732 0. 0.0227642264 0.0113821132 0.0135501353
      0.0249322485 0.00379403774 0.0108401086 0.00216802163 0.0802168027
      0.0384823829 0.00433604326 0.0157181565 0.0168021675 0.0205962062
      0.0379403792 0.00975609757 0.00162601622 0.00162601622 0.016260162
      0.0455284528 0.00704607042 0.0184281841 0.00108401082 0.0184281841
      0.00162601622 0.00704607042 0.0168021675 0.017344173 0.0157181565
      0.00271002715 0.0276422761 0.008130081 0.0124661243 0.0124661243
      0.00162601622 0.0411924124 0.0384823829 0.033604335 0.00271002715</_>
    <_>
      0.0270752758 0.0273728054 0.0124962805 0.0124962805 0.039869085
      0.00446295738 0.0434394516 0.0571258552 0.0547456108 0.00862838421
      0.0717048496 0.000595060992 0.0321332924 0.0199345425
      0.00952097587 0.022909848 0.000892591488 0.0110086286
      0.000892591488 0.0737875625 0.024992561 0.0032728354 0.0133888721
      0.0163641777 0.0226123184 0.0321332924 0.00743826246 0.
      0.00208271341 0.0163641777 0.0273728054 0.0148765249 0.0166617073
      0.00208271341 0.0157691166 0.000297530496 0.00862838421
      0.015471586 0.0133888721 0.00862838421 0.00535554904 0.0294555184
      0.0104135675 0.0160666462 0.0133888721 0.00267777452 0.0461172275
      0.0499851219 0.0330258869 0.000595060992</_>
    <_>
      0.025925925 0.0303703696 0.0088888891 0.0122222221 0.0322222225
      0.00481481478 0.0540740751 0.0599999987 0.0522222221 0.0111111114
      0.0785185173 0. 0.0299999993 0.0192592591 0.00925925933
      0.0222222228 0.00148148148 0.00592592591 0.00037037037
      0.0837037042 0.0222222228 0.00444444455 0.0125925923 0.017407408
      0.0199999996 0.0251851846 0.00481481478 0.000740740739
      0.00148148148 0.0181481484 0.0203703698 0.0114814816 0.0114814816
      0.00148148148 0.0166666675 0.00185185182 0.0088888891 0.017407408
      0.0177777782 0.0114814816 0.00222222228 0.0325925909 0.0088888891
      0.0133333337 0.0151851848 0.00037037037 0.04148148 0.053703703
      0.0425925925 0.00111111114</_>
    <_>
      0.0383597873 0.0229276884 0.0114638442 0.0114638442 0.0357142836
      0.0167548489 0.0277777761 0.0489417985 0.0365961194 0.00705467351
      0.0418871231 0. 0.0224867724 0.029100528 0.0229276884 0.0233686063
      0.00176366838 0.0132275131 0.000881834188 0.0524691343 0.029100528
      0.00529100513 0.0260141082 0.0176366828 0.0101410933 0.0559964702
      0.0119047612 0.00220458535 0.00308641978 0.0330687836 0.0388007052
      0.00837742444 0.00970017631 0.00485008815 0.00881834142
      0.00264550257 0.0127865961 0.00881834142 0.0264550261
      0.00793650746 0.00617283955 0.0326278657 0.0233686063 0.014109347
      0.00925925933 0.00529100513 0.0321869478 0.0573192239 0.0308641959
      0.</_>
    <_>
      0.0259365998 0.0345821343 0.0118475826 0.0115273781 0.0288184453
      0.00672430359 0.044508487 0.0614793487 0.0592379123 0.0108869681
      0.0755683631 0. 0.0288184453 0.0182516817 0.00960614812
      0.0268972144 0.00128081976 0.00960614812 0.000960614823
      0.0704450905 0.0240153708 0.00512327906 0.0150496326 0.0134486072
      0.0208133217 0.0281780344 0.00544348406 0.000960614823
      0.000640409882 0.0137688126 0.0236951653 0.0137688126 0.0150496326
      0.00224143453 0.0201729108 0.000640409882 0.00704450859
      0.0163304526 0.0163304526 0.00960614812 0.00352225429 0.0307396743
      0.00512327906 0.0160102472 0.0128081981 0.00224143453 0.0441882834
      0.0544348396 0.0400256179 0.00160102476</_>
    <_>
      0.0453471877 0.0278696269 0.0047236653 0.0141709968 0.0406235233
      0.0174775627 0.0307038259 0.0481813885 0.0429853573 0.00566839846
      0.0462919213 0. 0.0264525265 0.0302314591 0.0179499295
      0.0297590923 0.000944733096 0.00944733061 0. 0.0410958901
      0.0340103917 0.00377893238 0.0198393948 0.0203117616 0.0113367969
      0.0543221533 0.00897496473 0.00188946619 0.00283419923
      0.0240906943 0.0396787897 0.00944733061 0.00708549842 0.0146433627
      0.00991969742 0.00141709961 0.0122815305 0.010864431 0.0184222963
      0.00661313161 0.00708549842 0.0307038259 0.0226735938
      0.00991969742 0.00991969742 0.00188946619 0.0462919213
      0.0472366549 0.0307038259 0.00188946619</_>
    <_>
      0.032435406 0.0236393623 0.00494777365 0.00549752638 0.0467289723
      0.013743815 0.0291368887 0.0467289723 0.0351841673 0.0126443105
      0.0769653693 0. 0.0170423314 0.0175920837 0.0148433205
      0.0291368887 0.00219901046 0.0104452996 0.000549752614
      0.0868609101 0.03188565 0.00164925784 0.0131940627 0.0280373842
      0.0219901055 0.0445299633 0.00329851569 0.000549752614
      0.000549752614 0.0164925791 0.043980211 0.00659703137
      0.00879604183 0.00329851569 0.0148433205 0.00109950523
      0.00824628957 0.011544805 0.0142935682 0.0142935682 0.00329851569
      0.0346344151 0.00879604183 0.0120945573 0.0153930727 0.00164925784
      0.0401319414 0.0461792201 0.0423309505 0.</_>
    <_>
      0.0431148261 0.0211174656 0.00571931386 0.0114386277 0.0343158841
      0.0123185217 0.0263968334 0.043994721 0.0409150906 0.0123185217
      0.0514738224 0.000439947209 0.0237571485 0.0250769909 0.0171579421
      0.0303563569 0.0013198416 0.00791904982 0.000439947209
      0.0536735579 0.0303563569 0.00395952491 0.0219973605 0.0145182582
      0.0158380996 0.0457545109 0.0101187862 0.00175978884 0.00219973596
      0.0259568859 0.0549934022 0.0127584692 0.00835899729 0.00967883877
      0.0127584692 0.00351957767 0.00791904982 0.00615926087
      0.0211174656 0.0105587328 0.00615926087 0.0369555652 0.0263968334
      0.0118785743 0.0101187862 0.00351957767 0.0391553007 0.049274087
      0.0321161449 0.000879894418</_>
    <_>
      0.0395627283 0.0244664252 0.00624674652 0.0135346176 0.0520562232
      0.0119729312 0.0239458624 0.0504945368 0.0406038538 0.0197813641
      0.0780843347 0. 0.0171785541 0.0109318066 0.0114523694
      0.0395627283 0. 0.00884955749 0.00104112446 0.0697553381
      0.0218636133 0.00208224892 0.0145757422 0.022384176 0.0203019269
      0.0442477912 0.00728787109 0.00208224892 0.00208224892
      0.0192608032 0.0333159827 0.00832899567 0.00780843338
      0.00520562241 0.0161374286 0.000520562229 0.00624674652
      0.012493493 0.0130140558 0.0156168668 0.0026028112 0.0296720471
      0.0114523694 0.012493493 0.0119729312 0.00416449783 0.0421655402
      0.0458094776 0.0442477912 0.00104112446</_>
    <_>
      0.045348838 0.0290697664 0.00465116277 0.015116279 0.0434108526
      0.0155038759 0.0286821704 0.0383720919 0.0364341065 0.01124031
      0.0523255803 0. 0.026356589 0.0294573642 0.0209302325 0.0317829475
      0.000775193796 0.00581395347 0. 0.0527131781 0.0267441869
      0.00310077518 0.0155038759 0.0213178284 0.0135658914 0.041860465
      0.0108527131 0.00116279069 0.00310077518 0.0201550387 0.0457364321
      0.00930232555 0.00736434106 0.0116279069 0.0178294573
      0.00271317828 0.0104651162 0.0120155038 0.0186046511 0.0147286821
      0.00271317828 0.0259689912 0.0325581394 0.0131782945 0.0135658914
      0.00348837208 0.0356589146 0.0468992256 0.030232558 0.</_>
    <_>
      0.0295550488 0.0214355309 0.0103929844 0.0129912309 0.0354011022
      0.00552127277 0.043520622 0.0552127287 0.0493666753 0.00682039605
      0.0698278621 0. 0.0318285152 0.01721338 0.0107177654 0.0311789531
      0.000324780762 0.00876908097 0.000974342285 0.0785969421
      0.0240337756 0.00324780773 0.0146151343 0.0155894766 0.0207859688
      0.0418967195 0.00682039605 0.00162390387 0.000649561523
      0.0146151343 0.0292302687 0.0139655732 0.0133160111 0.00324780773
      0.0139655732 0.000649561523 0.00941864215 0.0201364066
      0.0188372843 0.00617083441 0.00227346527 0.0324780755 0.0100682033
      0.0185125042 0.0107177654 0.00422214996 0.0415719375 0.0480675511
      0.0389736928 0.000649561523</_>
    <_>
      0.0371900834 0.0252066124 0.0123966942 0.0123966942 0.0417355374
      0.00495867757 0.0487603322 0.0475206599 0.0512396693 0.0115702478
      0.0851239637 0. 0.0256198347 0.0198347103 0.00867768563
      0.0293388423 0.000826446281 0.00785123929 0.000826446281
      0.0797520652 0.023966942 0.00165289256 0.0132231405 0.0157024786
      0.0223140493 0.023966942 0.00661157025 0.00165289256 0.00123966939
      0.0111570247 0.0301652886 0.0148760332 0.01446281 0.00165289256
      0.0185950417 0.00123966939 0.00743801659 0.016942149 0.0107438015
      0.00867768563 0.000826446281 0.0314049572 0.00619834708
      0.0140495868 0.0111570247 0.00247933879 0.04338843 0.052892562
      0.0396694206 0.000826446281</_>
    <_>
      0.0356803052 0.029495718 0.00951474719 0.00666032359 0.0470979996
      0.0123691717 0.0271170307 0.0371075161 0.0328258798 0.016650809
      0.0799238831 0. 0.0214081816 0.0137963844 0.0156993344
      0.0290199798 0.00190294953 0.00761179812 0.000475737383
      0.0803996176 0.0252140816 0.0033301618 0.018553758 0.0228353944
      0.018553758 0.0409134142 0.00713606086 0.00190294953 0.0033301618
      0.0156993344 0.0390104651 0.00761179812 0.0114176972 0.00856327266
      0.0190294944 0. 0.00618458586 0.00808753539 0.016650809
      0.00999048539 0.00570884859 0.0299714543 0.0114176972 0.012844909
      0.012844909 0.0023786868 0.0428163633 0.0518553741 0.0399619415
      0.00142721215</_>
    <_>
      0.0301075261 0.0340501778 0.0082437275 0.017921146 0.0369175598
      0.0118279569 0.0365591384 0.0354838707 0.0333333313 0.0182795692
      0.0637992844 0. 0.0236559138 0.0204301067 0.0154121863
      0.0315412171 0.00358422939 0.0082437275 0.00107526872 0.0673835129
      0.0232974906 0.0032258064 0.0121863792 0.0182795692 0.016487455
      0.0344085991 0.0103942649 0.00179211469 0.00250896043 0.0218637977
      0.0326164849 0.00931899622 0.00860214978 0.00681003556
      0.0222222209 0.0032258064 0.0136200711 0.0129032256 0.0118279569
      0.0125448024 0.00465949811 0.0369175598 0.0107526882 0.0161290318
      0.0172042996 0.00609318959 0.0376344062 0.0465949811 0.0458781347
      0.00215053745</_>
    <_>
      0.06334842 0.0550527908 0.0030165913 0.015837105 0.0214932133
      0.0384615399 0.0173454005 0.0241327304 0.0192307699 0.00565610873
      0.0207390655 0.000377073913 0.00829562638 0.0263951737
      0.0203619916 0.0192307699 0.000754147826 0.00113122177
      0.000754147826 0.0226244349 0.044494722 0.0150829563 0.0211161394
      0.012820513 0.0207390655 0.0546757169 0.0248868782 0.000377073913
      0.00452488707 0.0331825055 0.0452488698 0.00339366519 0.0131975869
      0.0230015088 0.0177224744 0.000377073913 0.0346908011
      0.00263951742 0.0248868782 0.00716440426 0.00490196096
      0.0610859729 0.03167421 0.0199849177 0.0131975869 0.00113122177
      0.012820513 0.0361990966 0.0282805432 0.00226244354</_>
    <_>
      0.0425688066 0.0598165132 0.00403669709 0.0198165141 0.0278899074
      0.0289908256 0.0176146775 0.0183486231 0.015045871 0.0183486231
      0.0359633006 0.000733944937 0.00513761444 0.0172477067
      0.0385321081 0.0187155958 0.000366972468 0.00330275227 0.
      0.043669723 0.0488073379 0.0121100917 0.0363302752 0.0161467884
      0.0135779809 0.0337614678 0.0176146775 0.00330275227 0.00256880722
      0.0385321081 0.0557798147 0.00477064215 0.0102752289 0.0176146775
      0.0231192652 0.000366972468 0.0271559618 0.000733944937
      0.020183485 0.00917431153 0.00256880722 0.0458715595 0.0300917421
      0.0073394496 0.0165137611 0.00403669709 0.00917431153 0.0385321081
      0.0326605514 0.00513761444</_>
    <_>
      0.0306369271 0.0510615446 0.00510615436 0.016930934 0.0225745775
      0.0341306105 0.0204246175 0.0201558731 0.0177371688 0.0102123087
      0.0395055115 0.000268744974 0.0102123087 0.0214995984 0.0255307723
      0.0204246175 0.0024187048 0.00214995979 0.000268744974
      0.0384305306 0.0448804125 0.00591238961 0.0249932818 0.0182746574
      0.0120935235 0.0491803288 0.0196183827 0.0026874498 0.00456866436
      0.0424617045 0.0276807323 0.00618113438 0.0110185435 0.0145122288
      0.0263370071 0.0013437249 0.025262028 0.000806234893 0.0298306923
      0.0112872887 0.00403117482 0.0669175014 0.0247245375 0.0158559531
      0.0155872088 0.00349368458 0.0225745775 0.0314431638 0.0432679392
      0.00349368458</_>
    <_>
      0.0376766101 0.048037678 0.00627943501 0.0150706433 0.024803767
      0.0458398759 0.0172684453 0.0285714287 0.0222919937 0.0156985875
      0.0279434845 0. 0.0122448979 0.0232339092 0.0263736267
      0.0207221359 0.000941915205 0.00125588698 0.000313971745
      0.041758243 0.0489795916 0.00565149123 0.0279434845 0.0235478804
      0.01255887 0.0405023545 0.0175824184 0.0021978023 0.00156985875
      0.0442700163 0.0307692308 0.00502354791 0.00910518039 0.0144427
      0.0178963896 0.000313971745 0.0238618534 0.0031397175 0.0219780225
      0.01255887 0.0031397175 0.0631083176 0.0332810059 0.0109890113
      0.0197802205 0.0021978023 0.0138147566 0.0326530598 0.0383045524
      0.00251177396</_>
    <_>
      0.0304556359 0.0467625894 0.00455635507 0.0148681058 0.0230215825
      0.0393285379 0.0191846527 0.021822542 0.0187050365 0.0141486814
      0.037410073 0. 0.00887290202 0.0309352521 0.0275779385
      0.0235011987 0.00215827348 0.00143884891 0.00119904079
      0.0345323756 0.0398081541 0.00575539563 0.0318944864 0.0170263797
      0.0115107913 0.0347721837 0.0223021582 0.000479616312
      0.00359712238 0.0393285379 0.0235011987 0.00311750593
      0.00983213447 0.0160671473 0.0251798555 0.00119904079 0.0376498811
      0.00143884891 0.0302158277 0.0129496409 0.00407673884 0.0666666701
      0.0357314162 0.0163069554 0.0146282976 0.00119904079 0.0141486814
      0.0342925675 0.0448441245 0.</_>
    <_>
      0.0470357649 0.0357667804 0.00146986765 0.012248897 0.0504654571
      0.038706515 0.0200881921 0.0215580594 0.0161685441 0.0137187652
      0.0445859842 0.00293973531 0.0107790297 0.0254777055 0.0127388528
      0.0289073978 0.000979911769 0.00195982354 0.00146986765
      0.0460558534 0.0529152341 0.00734933838 0.0161685441 0.0181283671
      0.0102890739 0.0548750609 0.0249877498 0.00244977931 0.00293973531
      0.0230279267 0.0538951457 0.00832924992 0.00832924992 0.0318471342
      0.0107790297 0. 0.0323370881 0.000489955884 0.0200881921
      0.00979911722 0.00587947061 0.0352768227 0.0347868688 0.014208721
      0.00685938261 0.00195982354 0.0215580594 0.0269475728 0.0293973535
      0.000979911769</_>
    <_>
      0.0308056865 0.0502369665 0.00355450227 0.0149289099 0.0189573467
      0.0462085307 0.0168246441 0.0175355449 0.0151658766 0.0125592416
      0.034360189 0.000236966822 0.00971563999 0.029146919 0.0293838866
      0.0170616116 0.00165876769 0.00308056874 0.000473933644
      0.0334123224 0.0409952588 0.00568720372 0.0317535549 0.0165876783
      0.0137440758 0.0310426541 0.0203791466 0.00189573457 0.00379146915
      0.0431279615 0.022037914 0.00473933667 0.0135071091 0.0132701416
      0.0260663498 0.00236966833 0.0338862538 0.00236966833 0.0329383872
      0.0106635066 0.00616113748 0.0760663524 0.0357819907 0.01943128
      0.0151658766 0.000947867287 0.0161137432 0.0345971547 0.0395734608
      0.</_>
    <_>
      0.0365764461 0.0409656167 0.00341380155 0.0158497933 0.0231650826
      0.0414533056 0.0185320657 0.0204828084 0.0173128508 0.0146305775
      0.0377956592 0.000487685931 0.00707144616 0.024140453 0.024140453
      0.0217020232 0.00195074372 0.00268227258 0.000487685931
      0.0392587185 0.0426725186 0.00731528876 0.0256035123 0.0204828084
      0.0138990488 0.0358449146 0.021214338 0.00219458668 0.00390148745
      0.0438917354 0.0263350401 0.00560838822 0.0117044626 0.0156059498
      0.0238966104 0.000487685931 0.0321872719 0.00195074372
      0.0370641313 0.0119483052 0.00560838822 0.0697390884 0.0326749571
      0.0158497933 0.0146305775 0.00390148745 0.0168251637 0.0280419402
      0.0360887572 0.000731528911</_>
    <_>
      0.0420248322 0.0453677177 0.00620821398 0.0105062081 0.0434574969
      0.0439350531 0.0214899704 0.0257879663 0.0200573057 0.0119388727
      0.037249282 0.00477554929 0.0114613175 0.0238777455 0.0157593116
      0.0248328559 0.000955109834 0.00191021967 0. 0.0386819467
      0.0659025759 0.00859598815 0.016714422 0.0191021971 0.0105062081
      0.0448901616 0.0143266479 0.000477554917 0.00382043933
      0.0267430749 0.0539637059 0.00668576872 0.0114613175 0.0276981853
      0.0157593116 0.000955109834 0.0253104102 0.00191021967
      0.0205348618 0.00907354336 0.00191021967 0.027220631 0.0334288441
      0.016714422 0.00764087867 0.00238777464 0.0200573057 0.0367717296
      0.0377268381 0.00143266469</_>
    <_>
      0.0376878604 0.0547976866 0.00578034669 0.0161849707 0.0212716758
      0.0342196524 0.0180346817 0.0221965313 0.0203468204 0.0154913291
      0.0344508663 0.000231213868 0.00763005763 0.0265895948
      0.0215028897 0.0150289014 0.00138728321 0.000693641603
      0.000231213868 0.0351445079 0.040231213 0.00531791896 0.0295953751
      0.0166473985 0.00971098244 0.0425433517 0.0196531788 0.00161849707
      0.00393063575 0.0448554903 0.0254335254 0.00416184962 0.0154913291
      0.0187283233 0.0215028897 0.00138728321 0.0360693634 0.00208092481
      0.0282080919 0.0124855489 0.00254335254 0.0679768771 0.0321387276
      0.015722543 0.019190751 0.00254335254 0.0178034678 0.0302890167
      0.0404624268 0.00277456641</_>
    <_>
      0.0494019724 0.048361931 0.00468018698 0.0119604776 0.053562142
      0.0218408722 0.0150806028 0.0254810192 0.0275611021 0.0135205407
      0.0379615165 0.00572022842 0.00884035323 0.0249609984 0.0140405614
      0.0395215787 0.00364014553 0.0015600624 0.00260010385 0.0379615165
      0.0587623492 0.00728029106 0.0197607893 0.016640665 0.00728029106
      0.0494019724 0.0317212678 0.00468018698 0.0015600624 0.0254810192
      0.0530421212 0.00468018698 0.00728029106 0.0197607893 0.0114404568
      0.00260010385 0.0442017652 0.00260010385 0.0135205407 0.0109204361
      0.00208008313 0.0234009344 0.0312012471 0.0140405614 0.00312012481
      0.00312012481 0.0228809137 0.0364014544 0.0202808101 0.00260010385</_>
    <_>
      0.0575368553 0.0323347598 0.00142653356 0.00855920091 0.0442225412
      0.038040895 0.0223490261 0.0213980041 0.0190204475 0.007608179
      0.0356633402 0. 0.0118877795 0.0213980041 0.0137898242 0.030432716
      0.000951022375 0.00332857831 0.000475511188 0.0404184498
      0.0570613444 0.00665715663 0.0190204475 0.0166428909 0.00713266805
      0.0466000959 0.0337612927 0.00142653356 0.00332857831 0.0247265808
      0.0565858297 0.00665715663 0.00618164521 0.0280551594
      0.00951022375 0.00190204475 0.038516406 0. 0.0204469804
      0.007608179 0.0038040895 0.0328102708 0.0446980521 0.0175939146
      0.00618164521 0.0052306233 0.0237755589 0.0299572051 0.0313837379
      0.00190204475</_>
    <_>
      0.0598676316 0.0418170877 0.00451263553 0.0228640195 0.0204572808
      0.043020457 0.0180505421 0.0279783402 0.0258724429 0.0180505421
      0.0379061364 0.000300842366 0.00932611339 0.0210589655
      0.0261732861 0.0273766555 0.0015042118 0.00270758127
      0.000300842366 0.0403128788 0.0388086662 0.00481347786
      0.0234657042 0.0210589655 0.0150421187 0.0403128788 0.0129362214
      0.00270758127 0.0015042118 0.0391095094 0.0481347777 0.00421179319
      0.00872442871 0.0183513835 0.0204572808 0.00120336947 0.0213598087
      0.00120336947 0.0234657042 0.0123345368 0.00300842361 0.052045729
      0.0309867635 0.0102286404 0.0171480142 0.00210589659 0.0168471728
      0.0252707582 0.0312876068 0.00240673893</_>
    <_>
      0.0642693192 0.0359602161 0.00688599842 0.0130068865 0.0474368781
      0.0160673298 0.0221882183 0.028309105 0.021423107 0.0114766639
      0.0742157623 0. 0.00918133184 0.0160673298 0.0122417752
      0.0451415442 0.000765110948 0.00382555462 0.0015302219
      0.0589135438 0.030604437 0.0015302219 0.0175975524 0.0260137729
      0.0114766639 0.0367253274 0.0145371081 0.000765110948
      0.00229533296 0.00994644221 0.0772762075 0.0130068865
      0.00459066592 0.0229533277 0.0114766639 0.00306044379
      0.00994644221 0.00382555462 0.00765110925 0.0168324411 0.
      0.0175975524 0.0566182099 0.00918133184 0.0114766639 0.00382555462
      0.0267788824 0.0298393276 0.0321346596 0.0015302219</_>
    <_>
      0.0801282078 0.02457265 0.00106837612 0.00854700897 0.0587606877
      0.00427350448 0.020299146 0.022435898 0.0170940179 0.0149572659
      0.0737179518 0. 0.022435898 0.0128205139 0.0170940179 0.0470085479
      0.00213675224 0.00427350448 0.00106837612 0.0833333358
      0.0523504317 0.00106837612 0.0181623939 0.020299146 0.00641025696
      0.0619658157 0.00320512848 0. 0.00106837612 0.011752137
      0.0833333358 0.00641025696 0.00427350448 0.011752137 0.010683761
      0.00106837612 0.00427350448 0.0170940179 0.00427350448
      0.0138888899 0. 0.0149572659 0.0384615399 0.00534188049
      0.011752137 0.00320512848 0.0288461559 0.022435898 0.02457265
      0.00106837612</_>
    <_>
      0.097271651 0.0154211158 0.00355871907 0.0047449586 0.0628707036
      0.0142348763 0.0189798344 0.0296559911 0.0320284702 0.0118623963
      0.0581257418 0. 0.0177935939 0.00711743813 0.0166073553
      0.0450771078 0.00118623965 0.0023724793 0.00118623965 0.0652431771
      0.0438908674 0.00118623965 0.00830367766 0.0201660749 0.0106761567
      0.0806642994 0.00711743813 0. 0.00355871907 0.0094899172
      0.0794780552 0.0106761567 0.0047449586 0.0154211158 0.00593119813
      0. 0.00593119813 0.0296559911 0.00711743813 0.0118623963 0.
      0.00593119813 0.0581257418 0.00355871907 0.00830367766
      0.0047449586 0.0237247925 0.0130486358 0.0213523135 0.</_>
    <_>
      0.0362929329 0.0123136742 0.00388852879 0.00777705759 0.0537913144
      0.0110174976 0.0278677884 0.0362929329 0.0349967591 0.0155541152
      0.0797148347 0. 0.0259235241 0.0174983796 0.0149060264
      0.0401814617 0. 0.0071289693 0.000648088113 0.090732336
      0.042125728 0.0019442644 0.0123136742 0.0207388196 0.0136098508
      0.0511989594 0.00648088101 0. 0.000648088113 0.0136098508
      0.0278677884 0.00453661662 0.00842514541 0.0149060264 0.0110174976
      0.000648088113 0.00453661662 0.0162022021 0.0136098508
      0.0116655864 0.00324044051 0.0168502908 0.0187945552 0.00972132199
      0.00907323323 0.00259235245 0.0518470481 0.0427738167 0.0524951369
      0.</_>
    <_>
      0.102402024 0.0139064481 0.00379266776 0.00505689019 0.0404551215
      0.015170671 0.0189633388 0.0429835655 0.0429835655 0.0126422253
      0.0530973487 0. 0.00632111263 0.00505689019 0.0113780033
      0.0581542365 0.00126422255 0.00758533552 0.00126422255
      0.0568900146 0.0429835655 0.00126422255 0.00632111263 0.0202275608
      0.0139064481 0.0935524702 0.00758533552 0. 0. 0.0139064481
      0.0884955749 0.00758533552 0.0025284451 0.016434893 0.0101137804
      0.0025284451 0.00632111263 0.0101137804 0.00505689019 0.0101137804
      0.00379266776 0.0126422253 0.0290771183 0.00884955749
      0.00505689019 0.00126422255 0.0303413421 0.0202275608 0.0303413421
      0.</_>
    <_>
      0.10084033 0.0180072021 0. 0.00240096031 0.044417765 0.0144057618
      0.0156062422 0.0288115237 0.0372148864 0.00840336084 0.0612244867
      0. 0.0264105629 0.00360144046 0.00960384123 0.0336134434
      0.00120048015 0.012004802 0. 0.0588235259 0.0588235259
      0.00120048015 0.00960384123 0.0228091236 0.00840336084
      0.0852340907 0.00360144046 0. 0. 0.0108043216 0.0984393731
      0.00480192062 0.00840336084 0.00840336084 0.00360144046
      0.00120048015 0.00360144046 0.0228091236 0.006002401 0.00960384123
      0.00120048015 0.012004802 0.0384153649 0.00960384123 0.00480192062
      0. 0.0432172865 0.0168067217 0.0300120041 0.</_>
    <_>
      0.0401721671 0.0150645627 0.00717360107 0.00502152089 0.0509325676
      0.0164992828 0.0265423246 0.0358680077 0.0236728843 0.012912482
      0.0695839301 0. 0.0222381633 0.0164992828 0.0136298425
      0.0401721671 0. 0.00932568125 0.000717360119 0.0753228143
      0.0609756112 0.00286944048 0.0143472021 0.0215208028 0.0164992828
      0.0509325676 0.00860832166 0.000717360119 0.00358680054
      0.0215208028 0.0430416055 0.00860832166 0.00860832166
      0.00573888095 0.0100430418 0.00215208041 0.00860832166
      0.00860832166 0.0157819223 0.0157819223 0.00143472024 0.0222381633
      0.0265423246 0.0114777619 0.0107604014 0.00215208041 0.050215207
      0.0294117648 0.0351506472 0.000717360119</_>
    <_>
      0.0850403532 0.0155183123 0.00806952268 0.00434512738 0.0428305417
      0.0142768472 0.0204841718 0.0434512757 0.0453134701 0.0124146501
      0.0583488531 0. 0.0173805095 0.00993171986 0.0136561152
      0.0273122303 0.00124146498 0.00186219742 0. 0.0670391098
      0.0304158926 0.00310366252 0.0124146501 0.0279329624 0.00931098778
      0.0670391098 0.00186219742 0. 0.00124146498 0.00744878966
      0.132836759 0.00931098778 0.011173185 0.00372439483 0.0186219756
      0. 0.00248292997 0.011793917 0.00869025476 0.00806952268
      0.000620732491 0.0198634397 0.00558659248 0.011173185
      0.00993171986 0.00186219742 0.0279329624 0.0360024832 0.0297951587
      0.00124146498</_>
    <_>
      0.0920852348 0.0197869111 0.00380517496 0.00532724522 0.0395738222
      0.0114155253 0.0175038055 0.0220700148 0.0273972601 0.00837138481
      0.0700152218 0. 0.0144596649 0.0159817357 0.00380517496
      0.0319634713 0. 0.00380517496 0.000761035015 0.0639269426
      0.0631659031 0. 0.0167427696 0.0273972601 0.0167427696
      0.0738203973 0.00228310516 0. 0. 0.00684931502 0.130898029
      0.00304414006 0.00380517496 0.0114155253 0.00989345554
      0.000761035015 0.00456621032 0.00684931502 0.00837138481
      0.0121765602 0. 0.0182648413 0.0312024355 0.00684931502
      0.0121765602 0. 0.0281582959 0.0273972601 0.0251141563 0.</_>
    <_>
      0.116687573 0.0169385187 0.00690087816 0.0081555834 0.0370138027
      0.0106649939 0.0219573397 0.0432873257 0.0439146794 0.00690087816
      0.0552070253 0. 0.0200752821 0.0163111668 0.0119196987
      0.0288582183 0. 0.00752823055 0.000627352565 0.0646173134
      0.0363864489 0.00439146813 0.0125470515 0.020702634 0.0156838149
      0.0633626059 0.00250941026 0. 0.00313676288 0.0125470515
      0.109786697 0.00627352577 0.00564617291 0.00690087816
      0.00752823055 0.00125470513 0.0081555834 0.0112923458
      0.00752823055 0.00752823055 0.00376411527 0.0138017563
      0.0131744035 0.00752823055 0.00501882052 0.00313676288
      0.0345043913 0.0319949798 0.025721455 0.000627352565</_>
    <_>
      0.0694029853 0.0208955221 0.00298507465 0.00671641808 0.0388059691
      0.0164179113 0.0253731348 0.031343285 0.0291044787 0.0119402986
      0.055970151 0. 0.0126865674 0.010447761 0.0119402986 0.0343283601
      0.00149253733 0.00522388052 0.000746268663 0.0656716451
      0.0537313446 0.00223880587 0.0171641801 0.0268656723 0.0156716425
      0.0604477599 0.00895522349 0.000746268663 0. 0.0141791049
      0.104477614 0.00373134343 0.00820895564 0.0171641801 0.0134328362
      0.00149253733 0.00522388052 0.00223880587 0.00895522349
      0.0126865674 0.00298507465 0.0186567158 0.0380597003 0.010447761
      0.0126865674 0.00223880587 0.0261194035 0.0276119411 0.0320895538
      0.</_>
    <_>
      0.0598006621 0.0232558139 0.00249169441 0.00747508276 0.0473421924
      0.0166112948 0.0257475078 0.0307308957 0.0257475078 0.0124584716
      0.0714285672 0. 0.0124584716 0.0124584716 0.0116279069
      0.0390365422 0.000830564764 0.00415282371 0.00166112953
      0.068936877 0.0581395328 0.00166112953 0.0166112948 0.0232558139
      0.0199335553 0.0681063086 0.00581395347 0.000830564764
      0.000830564764 0.0240863785 0.0697674379 0.00664451811
      0.00498338882 0.0141196009 0.00913621206 0.00166112953
      0.00830564741 0.00415282371 0.00996677764 0.0199335553
      0.00415282371 0.0224252492 0.0274086371 0.00830564741 0.0107973423
      0.000830564764 0.0265780725 0.0240863785 0.032392025
      0.000830564764</_>
    <_>
      0.0519083962 0.0351145044 0.00305343512 0.0068702288 0.0419847332
      0.0259541981 0.0183206107 0.0320610702 0.0312977098 0.00916030537
      0.0473282449 0. 0.0106870234 0.00839694683 0.0053435117
      0.0374045819 0. 0.00152671756 0.000763358781 0.0656488538
      0.0679389313 0.00152671756 0.0114503819 0.0282442756 0.0198473278
      0.0954198465 0.00763358781 0. 0.000763358781 0.0160305351
      0.0763358772 0.00763358781 0.0137404576 0.0175572522 0.0114503819
      0.000763358781 0.00381679391 0.00152671756 0.0106870234
      0.0122137405 0.00305343512 0.0152671756 0.0442748107 0.0122137405
      0.00763358781 0.00229007634 0.0229007639 0.0267175566 0.0282442756
      0.</_>
    <_>
      0.0572519079 0.0114503819 0.0068702288 0.00305343512 0.0381679386
      0.00916030537 0.0229007639 0.0404580161 0.0419847332 0.0106870234
      0.0679389313 0. 0.0190839693 0.012977099 0.012977099 0.0366412215
      0. 0.00916030537 0.00152671756 0.0702290088 0.0473282449
      0.00229007634 0.0198473278 0.0206106864 0.00763358781 0.0816793889
      0.00229007634 0. 0.00381679391 0.0160305351 0.0748091638
      0.00839694683 0.00305343512 0.00992366392 0.00763358781 0.
      0.00916030537 0.0122137405 0.0145038171 0.00839694683 0.0106870234
      0.0137404576 0.0221374054 0.0106870234 0.00763358781
      0.000763358781 0.0358778611 0.0473282449 0.0290076341 0.</_>
    <_>
      0.0739157051 0.0189370811 0.00671960926 0.00733048283 0.0415394008
      0.0171044599 0.026878437 0.043982897 0.0433720239 0.0103848502
      0.0653634742 0. 0.0152718388 0.00671960926 0.0158827119
      0.0323763005 0. 0.00549786212 0. 0.0781918168 0.0384850353
      0.00122174714 0.0140500925 0.0244349428 0.0152718388 0.0629199743
      0.00244349428 0.00122174714 0.000610873569 0.0116065983
      0.100794137 0.00855222996 0.00733048283 0.00366524141 0.0103848502
      0. 0.00305436784 0.00794135593 0.00794135593 0.0116065983
      0.00122174714 0.0335980467 0.0128283445 0.0109957242 0.0103848502
      0.00183262071 0.026878437 0.0287110582 0.0287110582 0.00183262071</_>
    <_>
      0.0935593247 0.0135593219 0.0047457628 0.00677966094 0.0352542363
      0.0183050856 0.0196610168 0.031186441 0.0277966112 0.0135593219
      0.0454237275 0. 0.0135593219 0.00881355908 0.0122033898
      0.0379661024 0.00135593221 0.00542372884 0.000677966105
      0.065084748 0.0542372875 0.00271186442 0.0122033898 0.0230508484
      0.0135593219 0.0637288168 0.0047457628 0. 0.00135593221
      0.0142372884 0.111186445 0.00677966094 0.0108474577 0.014915254
      0.00949152559 0.000677966105 0.0047457628 0.00271186442
      0.0122033898 0.014915254 0.00271186442 0.0298305079 0.031186441
      0.0122033898 0.00881355908 0.00203389837 0.0244067796 0.0250847451
      0.0298305079 0.000677966105</_>
    <_>
      0.036249999 0.0131249996 0.00687499996 0.00749999983 0.0437499993
      0.0131249996 0.0318749994 0.0549999997 0.0387500003 0.0106250001
      0.0606249981 0. 0.022499999 0.020624999 0.020624999 0.036249999 0.
      0.00687499996 0. 0.0562499985 0.0524999984 0.00624999963
      0.0168749988 0.0231250003 0.0149999997 0.0587499999 0.00687499996
      0. 0.000624999986 0.0231250003 0.046875 0.0131249996 0.00875000004
      0.0118749999 0.00687499996 0. 0.0106250001 0.0168749988
      0.0175000001 0.0112499995 0.00187499996 0.0218749996 0.022499999
      0.00937499944 0.0118749999 0.00312499981 0.0356249996 0.0337499976
      0.0324999988 0.</_>
    <_>
      0.0394067802 0.0279661007 0.0046610171 0.0131355934 0.0491525419
      0.0279661007 0.0334745757 0.0394067802 0.0309322029 0.0114406776
      0.0470338985 0. 0.0152542368 0.0199152548 0.0194915254
      0.0313559324 0.00423728814 0.00550847454 0.000423728809
      0.0436440669 0.0741525441 0.00550847454 0.0211864412 0.0194915254
      0.0161016956 0.0588983037 0.0101694912 0.0012711864 0.00338983047
      0.0258474573 0.0470338985 0.0114406776 0.00762711838 0.0135593219
      0.011864407 0.00211864407 0.0148305083 0.00720338989 0.00889830478
      0.00635593198 0.00169491523 0.0233050846 0.030084746 0.0080508478
      0.00889830478 0.00381355919 0.0326271169 0.0338983051 0.0228813551
      0.00338983047</_>
    <_>
      0.0360772349 0.0198170729 0.0101626012 0.00457317056 0.0447154455
      0.0203252025 0.0294715427 0.0594512187 0.0528455265 0.016260162
      0.0452235751 0. 0.0198170729 0.0208333321 0.0238821134 0.032520324
      0.00254065031 0.00863821059 0.000508130062 0.0523373969
      0.0584349558 0.00254065031 0.0238821134 0.0177845526 0.0137195121
      0.0528455265 0.0111788614 0.00254065031 0.000508130062
      0.0208333321 0.0426829234 0.0111788614 0.00863821059 0.0137195121
      0.00965447165 0.00152439019 0.0152439019 0.016260162 0.00863821059
      0.0121951215 0.0040650405 0.0213414617 0.0203252025 0.0106707308
      0.00711382087 0.00203252025 0.0401422754 0.0238821134 0.024390243
      0.00203252025</_>
    <_>
      0.0471753068 0.0180547461 0.0110658128 0.00873616803 0.0500873625
      0.0139778685 0.0221316256 0.0471753068 0.0471753068 0.0128130466
      0.0419336036 0. 0.0232964475 0.0262085032 0.0273733251
      0.0285381489 0.000582411187 0.00582411187 0. 0.0349446721
      0.0873616785 0.00291205593 0.0221316256 0.0139778685 0.0157251023
      0.054164242 0.00815375708 0.00116482237 0.00174723356 0.0221316256
      0.0646476448 0.0128130466 0.0133954575 0.0145602794 0.00640652329
      0.000582411187 0.0104834009 0.00582411187 0.0075713452
      0.00990098994 0.00291205593 0.0215492137 0.0198019799 0.0104834009
      0.00698893424 0.00174723356 0.0349446721 0.0314502046 0.0267909151
      0.000582411187</_>
    <_>
      0.11659389 0.0187772922 0.00655021844 0.00655021844 0.0371179059
      0.0170305688 0.0174672492 0.0340611376 0.0323144123 0.0187772922
      0.0445414856 0. 0.0218340624 0.0165938865 0.0179039314 0.030567687
      0.000873362471 0.0043668123 0.00174672494 0.0506550223
      0.0423580781 0.00262008747 0.0170305688 0.0183406118 0.0135371182
      0.0497816615 0.0043668123 0.00131004374 0.00174672494 0.0218340624
      0.112227075 0.0117903929 0.00698689977 0.0174672492 0.00742358109
      0.00305676856 0.0100436686 0.0104803499 0.00611353712 0.0144104809
      0.000436681235 0.0174672492 0.0292576421 0.00393013097
      0.00655021844 0.00174672494 0.0323144123 0.0179039314 0.0227074251
      0.000436681235</_>
    <_>
      0.0218910109 0.0279459711 0.00465766154 0.0139729856 0.0372612923
      0.017699115 0.0340009294 0.0503027476 0.0493712164 0.00931532308
      0.0517000444 0. 0.0223567765 0.0209594779 0.0209594779
      0.0181648806 0.00186306471 0.00884955749 0.000465766178
      0.0554261766 0.0465766191 0.00652072672 0.0172333494 0.0153702842
      0.0172333494 0.0479739159 0.00745225884 0.00186306471
      0.000931532355 0.0279459711 0.0428504869 0.0102468561
      0.00978108961 0.00745225884 0.0158360507 0.00279459707
      0.0116441548 0.0242198408 0.0153702842 0.0102468561 0.00279459707
      0.0344666988 0.0195621792 0.0111783883 0.0107126217 0.00232883077
      0.0363297611 0.040521659 0.0340009294 0.00139729853</_>
    <_>
      0.0377574377 0.0190694127 0.00533943577 0.011441648 0.0415713191
      0.0221205186 0.0331807807 0.034324944 0.0408085436 0.00991609506
      0.0450038165 0.000381388265 0.0144927539 0.0240274612 0.024408849
      0.0255530141 0.00266971788 0.00266971788 0.00076277653
      0.0419527106 0.0793287605 0.005720824 0.0205949657 0.0274599548
      0.0129672009 0.0579710156 0.00839054212 0.00228832965
      0.00381388259 0.0263157897 0.0495804735 0.0110602593 0.00724637695
      0.00724637695 0.0137299774 0.00228832965 0.0156369191 0.0102974828
      0.0167810842 0.011441648 0.00419527106 0.0221205186 0.0198321901
      0.0122044245 0.0110602593 0.00343249436 0.034324944 0.0377574377
      0.0259344019 0.00152555306</_>
    <_>
      0.0858442336 0.0142126214 0.00739056291 0.0113700973 0.0318362713
      0.0130756116 0.0181921553 0.027288232 0.0261512231 0.00568504864
      0.0454803891 0.000568504853 0.0193291642 0.0085275732 0.0193291642
      0.0244457088 0.00113700971 0.00284252432 0. 0.0511654355
      0.12222854 0.00113700971 0.0255827177 0.0210346803 0.0108015919
      0.109721437 0.00284252432 0.000568504853 0.0017055145 0.0216031838
      0.0909607783 0.006822058 0.0017055145 0.0119386017 0.0119386017
      0.00284252432 0.0017055145 0.00227401941 0.00568504864
      0.00795906782 0.00113700971 0.0193291642 0.0278567374
      0.00397953391 0.00625355355 0.000568504853 0.0227401946
      0.0233086981 0.0187606607 0.00113700971</_>
    <_>
      0.0844594613 0.015202703 0.00450450461 0.00619369373 0.0360360369
      0.0180180185 0.0191441439 0.0360360369 0.033783786 0.00450450461
      0.0360360369 0. 0.0163288284 0.015202703 0.0259009022 0.0219594594
      0.000563063077 0.00675675692 0. 0.0399774797 0.103603609 0.
      0.020833334 0.0202702712 0.00788288284 0.110360362 0.0028153155
      0.00337837846 0.0028153155 0.0326576568 0.0810810849 0.00619369373
      0.0028153155 0.0135135138 0.0084459465 0.00168918923 0.00506756781
      0.00619369373 0.00675675692 0.00506756781 0.00225225231
      0.0298423432 0.0253378376 0.00731982011 0.00731982011
      0.00225225231 0.0180180185 0.0230855867 0.0213963967 0.00112612615</_>
    <_>
      0.0697544664 0.0139508937 0.00502232183 0.00948660728 0.0345982164
      0.0189732146 0.01953125 0.03125 0.0267857164 0.00167410728
      0.0390625 0.000558035739 0.0161830373 0.00390625 0.0200892873
      0.0262276791 0.00111607148 0.00446428591 0.00111607148
      0.0424107164 0.115513399 0.00223214296 0.0234375019 0.0167410728
      0.0100446437 0.116629466 0.00167410728 0. 0.00334821455
      0.0234375019 0.101004466 0.0145089291 0.00558035728 0.0167410728
      0.00948660728 0.00111607148 0.00892857183 0.00334821455
      0.0111607146 0.00502232183 0.00167410728 0.0239955373 0.0228794646
      0.00613839319 0.00892857183 0.00334821455 0.01953125 0.015625
      0.0200892873 0.00167410728</_>
    <_>
      0.0687070638 0.0199875087 0.00811992586 0.0068707061 0.0249843858
      0.0212367289 0.0181136802 0.0393504091 0.0318550915 0.00624609645
      0.0237351656 0. 0.013116803 0.0124921929 0.0149906315 0.0149906315
      0.00187382894 0.00936914422 0.00187382894 0.0249843858 0.126795754
      0.00124921929 0.0149906315 0.0281074345 0.0162398517 0.109931298
      0.00562148681 0.000624609645 0.00124921929 0.029981263 0.08557152
      0.00749531575 0.00874453504 0.0106183644 0.00936914422
      0.00312304823 0.00624609645 0.00562148681 0.00936914422
      0.0068707061 0.00249843858 0.0287320428 0.0362273604 0.00624609645
      0.00874453504 0.00312304823 0.0181136802 0.0268582143 0.0187382884
      0.</_>
    <_>
      0.0459965952 0.0405451469 0.00715502584 0.0146507677 0.0303236805
      0.021465078 0.0299829654 0.0330494046 0.0299829654 0.0102214655
      0.0517887585 0. 0.0221465081 0.0228279401 0.0180579219
      0.0241908021 0.0020442931 0.00477001723 0.00102214655 0.0528109036
      0.0350936987 0.00613287929 0.0224872231 0.0265758112 0.0126064736
      0.0340715498 0.0139693357 0.00238500861 0.00136286207 0.0238500871
      0.0439523011 0.00681431033 0.00715502584 0.0132879056 0.0211243629
      0.00306643965 0.0139693357 0.00442930171 0.0190800689 0.0122657586
      0.00613287929 0.0483816043 0.0265758112 0.0112436116 0.00988074951
      0.00340715516 0.0289608184 0.0374787077 0.0388415679 0.00238500861</_>
    <_>
      0.0319051966 0.0340322107 0.00729261618 0.0203585532 0.0264357328
      0.0194469765 0.0352476463 0.0312974788 0.0255241562 0.0148890913
      0.0522637479 0. 0.0176238231 0.0203585532 0.0227894261
      0.0224855673 0.00486174412 0.0054694619 0.000607718015
      0.0537830442 0.0334244892 0.00395016698 0.0243087206 0.023093285
      0.017927682 0.0358553641 0.015496809 0.0033424492 0.0033424492
      0.0227894261 0.0404132493 0.0124582192 0.00881191157 0.0106350649
      0.0203585532 0.00182315405 0.013065937 0.00516560301 0.0176238231
      0.0118505014 0.00729261618 0.0583409294 0.0243087206 0.0145852324
      0.0145852324 0.00607718015 0.0237010028 0.0395016707 0.0352476463
      0.00395016698</_>
    <_>
      0.0277972445 0.0200887639 0.0165849105 0.0091100214 0.011212334
      0.0446157455 0.0200887639 0.0420462526 0.0548937172 0.00397103466
      0.0177528616 0.000233590283 0.0130810561 0.0597991124 0.024994161
      0.0121466946 0.000467180565 0.00350385415 0.000467180565
      0.0177528616 0.103246905 0.00210231263 0.0327026397 0.00981079228
      0.00700770831 0.0649380982 0.0336370021 0.019387994 0.00327026402
      0.0280308332 0.0397103466 0.00560616702 0.00794206932 0.011913104
      0.015650548 0.00140154175 0.0221910775 0.00747488905 0.017519271
      0.00233590277 0.000934361131 0.0191544034 0.0567624383
      0.0189208128 0.00327026402 0.00350385415 0.0144825978 0.019387994
      0.0165849105 0.0105115632</_>
    <_>
      0.0670339763 0.0247933883 0.00826446246 0.0101010101 0.0505050495
      0.0192837473 0.0229568407 0.0211202931 0.0238751154 0.015610652
      0.0707070678 0. 0.0183654726 0.0183654726 0.0128558306
      0.0486685038 0. 0.00550964195 0. 0.0661156997 0.0413223132
      0.00183654728 0.0137741044 0.0183654726 0.0110192839 0.0449954085
      0.0064279153 0. 0.00367309456 0.00826446246 0.0927456394
      0.0064279153 0.00550964195 0.015610652 0.0137741044 0.000918273639
      0.0064279153 0.00918273628 0.015610652 0.0174471997 0.
      0.0229568407 0.0165289249 0.00918273628 0.00918273628
      0.00183654728 0.0459136814 0.0247933883 0.032139577 0.</_>
    <_>
      0.0382293761 0.0176056325 0.00402414473 0.00804828946 0.0311871208
      0.0196177047 0.0342052318 0.0397384278 0.0437625721 0.0110663977
      0.0412474833 0. 0.0196177047 0.0160965789 0.0150905428
      0.0266599581 0. 0.00452716276 0.000503018091 0.0442655906
      0.0543259531 0.00301810866 0.0176056325 0.0281690136 0.0211267602
      0.0829979852 0.0115694162 0.00150905433 0.00150905433 0.0407444648
      0.0528169014 0.00553319883 0.00653923536 0.0186116695 0.0105633801
      0.000503018091 0.00503018079 0.0125754522 0.00955734402
      0.00804828946 0.0025150904 0.0206237417 0.0578470789 0.00855130795
      0.0110663977 0.00553319883 0.0306841042 0.0281690136 0.0266599581
      0.000503018091</_>
    <_>
      0.0361952856 0.0180976428 0.00883838348 0.0126262624 0.0223063976
      0.0231481474 0.0328282826 0.0475589223 0.0429292917 0.00968013424
      0.0391414128 0. 0.0239898991 0.02104377 0.0155723905 0.0172558911
      0.000841750822 0.00968013424 0.000841750822 0.0382996611
      0.0547138043 0.0029461279 0.0168350171 0.0244107731 0.02104377
      0.0858585835 0.0113636358 0. 0.0029461279 0.031144781 0.04208754
      0.00757575734 0.0109427609 0.0159932654 0.00547138043
      0.000420875411 0.00631313119 0.0239898991 0.0117845116
      0.00715488195 0.00505050505 0.027777778 0.0521885492 0.00841750856
      0.013888889 0.00378787867 0.0294612795 0.0345117822 0.0202020202
      0.000841750822</_>
    <_>
      0.0624752864 0.0260972716 0.00869909022 0.00593119813 0.0284697507
      0.0142348753 0.0253064446 0.0391459055 0.0419137999 0.0118623963
      0.0454725176 0. 0.0162119418 0.0142348753 0.0142348753
      0.0284697507 0.00158165279 0.00632661115 0.000790826394
      0.0458679311 0.0482404083 0.00474495813 0.0292605758 0.0284697507
      0.0110715693 0.0672202408 0.00869909022 0.00158165279
      0.000395413197 0.0332147069 0.0723606125 0.00830367673
      0.00869909022 0.0122578088 0.0122578088 0.000395413197
      0.00751285069 0.0106761567 0.0166073535 0.0142348753 0.00197706604
      0.0308422297 0.0225385521 0.0130486358 0.0110715693 0.00237247907
      0.0288651641 0.0249110311 0.0304468162 0.000395413197</_>
    <_>
      0.055332303 0.0253477581 0.00803709403 0.010819165 0.0327666141
      0.0185471401 0.0244204011 0.034312211 0.035548687 0.0191653781
      0.044204019 0. 0.0225656871 0.0151468311 0.013601236 0.0222565681
      0.00216383301 0.00463678502 0.000309119001 0.0408037081
      0.0578052551 0.00525502302 0.0222565681 0.0250386391 0.011437403
      0.0704791322 0.00741885602 0.000618238002 0.00309119001
      0.0259659961 0.0797526985 0.012055641 0.00741885602 0.00989180803
      0.013292117 0.00185471401 0.00680061802 0.010200927 0.014837712
      0.014837712 0.00370942801 0.0253477581 0.0312210191 0.00865533203
      0.012673879 0.00309119001 0.0315301381 0.0287480671 0.0244204011
      0.000309119001</_>
    <_>
      0.0644351467 0.0213389136 0.00669456087 0.00502092065 0.0271966532
      0.0142259421 0.0259414241 0.0430962369 0.0451882854 0.0125523014
      0.0464435145 0. 0.0167364031 0.0150627624 0.0100418413
      0.0259414241 0.000836820109 0.00543933082 0.000836820109
      0.044351466 0.0531380773 0.00167364022 0.0259414241 0.0251046028
      0.0108786616 0.0723849386 0.00585774053 0.000418410054
      0.00125523016 0.0305439346 0.0761506334 0.00669456087
      0.00878661126 0.0117154811 0.0112970714 0.000836820109
      0.00460251048 0.0171548128 0.0117154811 0.0142259421
      0.000836820109 0.0297071133 0.0255230125 0.00878661126
      0.0100418413 0.00376569061 0.0309623443 0.0347280353 0.0330543928
      0.000836820109</_>
    <_>
      0.0381367467 0.022882048 0.00626532268 0.013075456 0.0356850997
      0.0133478614 0.0286025591 0.0359575041 0.0351402871 0.0157995094
      0.0479433388 0.000272405334 0.0166167244 0.0166167244 0.0157995094
      0.033505857 0.00108962134 0.00381367467 0.00108962134 0.0566603094
      0.0473985299 0.00217924267 0.0187959671 0.0201579947 0.0174339414
      0.0716426 0.00626532268 0.000544810668 0.00217924267 0.0310542081
      0.0686461478 0.0144374827 0.011441024 0.00926178135 0.0157995094
      0.00108962134 0.011441024 0.00435848534 0.013892672 0.017978752
      0.00299645867 0.027785344 0.0215200223 0.0128030507 0.0111686187
      0.00272405334 0.0253336951 0.0370471254 0.033505857 0.000817216001</_>
    <_>
      0.0268907566 0.0147058824 0.0134453783 0.0100840339 0.0348739512
      0.0113445381 0.0474789925 0.0588235296 0.0642857179 0.00714285718
      0.0558823533 0. 0.0243697483 0.0205882359 0.0130252102
      0.0315126069 0.00210084044 0.0151260504 0.000840336143
      0.0512605049 0.0252100844 0.00378151261 0.0155462185 0.0176470596
      0.0184873957 0.0411764719 0.01092437 0.00126050424 0.00336134457
      0.0130252102 0.0289915968 0.0138655463 0.0126050422 0.00588235306
      0.0134453783 0.00126050424 0.0168067235 0.0390756316 0.0155462185
      0.0063025211 0.00756302522 0.0294117648 0.00672268914 0.0168067235
      0.0096638659 0.00252100849 0.0382352956 0.0478991605 0.032773111
      0.000420168071</_>
    <_>
      0.0261465926 0.0102871843 0.0132876122 0.0115730818 0.0458636954
      0.00900128577 0.0488641225 0.0540077165 0.0621517338 0.0124303475
      0.044577796 0. 0.0312901847 0.0240034293 0.0124303475 0.0265752245
      0.000428632658 0.0141448779 0.00171453063 0.0467209592
      0.0295756534 0.00257179607 0.0180025715 0.0188598372 0.022288898
      0.0432919003 0.00685812254 0.000428632658 0.00214316323
      0.0180025715 0.0291470215 0.016716674 0.00900128577 0.0081440201
      0.0124303475 0.000857265317 0.016716674 0.0467209592 0.0141448779
      0.0107158162 0.0047149593 0.0214316323 0.00857265294 0.0171453059
      0.0124303475 0.00171453063 0.0407201014 0.0428632647 0.0282897558
      0.</_>
    <_>
      0.0682793632 0.0238002352 0.00897385925 0.00819352362 0.0304330867
      0.0152165433 0.0265314095 0.0476004705 0.0472103022 0.0132657047
      0.0429184549 0. 0.0171673819 0.0144362077 0.0140460404
      0.0280920807 0.000780335569 0.00702302018 0.000390167785
      0.0394069478 0.0487709716 0.00429184549 0.0249707382 0.0277019124
      0.0117050335 0.0647678524 0.00819352362 0.000780335569
      0.00156067114 0.028482249 0.0745220482 0.00819352362 0.00780335581
      0.0105345305 0.0113148661 0.000780335569 0.0101443622 0.0113148661
      0.0140460404 0.0105345305 0.00117050332 0.0238002352 0.0319937579
      0.0109246979 0.0093640266 0.00351151009 0.0300429203 0.023410067
      0.0312134232 0.000390167785</_>
    <_>
      0.057805907 0.026160337 0.00548523199 0.0067510549 0.0350210965
      0.0118143465 0.0320675112 0.0489451475 0.0506329127 0.0143459914
      0.0548523217 0. 0.0194092821 0.0105485236 0.010970464 0.0282700416
      0.00126582279 0.00928270072 0. 0.0447257385 0.0468354449
      0.00506329117 0.0202531647 0.0257383976 0.0130801685 0.0641350225
      0.00464135036 0. 0.00126582279 0.0286919829 0.0759493709
      0.0122362869 0.0118143465 0.00886075944 0.010970464 0.000843881862
      0.00590717327 0.0113924053 0.0105485236 0.0135021098
      0.000421940931 0.0257383976 0.0198312234 0.0101265823 0.0126582282
      0.00210970454 0.0324894525 0.0265822783 0.0291139241
      0.000843881862</_>
    <_>
      0.0205479451 0.0145044317 0.0104754232 0.00926672015 0.0455278009
      0.0100725219 0.0515713133 0.0487510078 0.0523771159 0.0108783236
      0.0519742146 0. 0.0342465751 0.0269943587 0.0120870266
      0.0278001614 0. 0.0161160361 0.000402900885 0.044319097
      0.036261078 0.00120870268 0.0173247382 0.0197421443 0.0205479451
      0.0382755846 0.00725221587 0.000402900885 0.00443190988
      0.0141015314 0.0269943587 0.0108783236 0.00966962148 0.0104754232
      0.00966962148 0.00241740537 0.0128928283 0.0644641444 0.0149073331
      0.0104754232 0.00483481074 0.0185334403 0.0116841253 0.0189363416
      0.00805801805 0.00362610794 0.0423045941 0.0390813872 0.0326349735
      0.</_>
    <_>
      0.0361570232 0.0327995867 0.00645661121 0.0126549583 0.0384814031
      0.011880165 0.0245351233 0.0315082632 0.0320247933 0.011880165
      0.057076443 0.000258264452 0.0129132224 0.01911157 0.0222107433
      0.0309917349 0.00180785113 0.00490702456 0.000516528904
      0.0544937998 0.0462293364 0.00284090894 0.0185950398 0.0260847099
      0.0185950398 0.0666322261 0.00568181789 0.00180785113
      0.00284090894 0.0242768582 0.0619834699 0.0126549583 0.0111053716
      0.00903925579 0.0204028916 0.00129132229 0.00903925579
      0.00387396687 0.0183367766 0.0134297516 0.00258264458 0.035640493
      0.0149793383 0.0129132224 0.0144628091 0.00232437998 0.0242768582
      0.0366735533 0.0384814031 0.000258264452</_>
    <_>
      0.0594616309 0.0237042997 0.00723182037 0.00522298133 0.0297308154
      0.0136601049 0.0281237457 0.0458015278 0.0518280454 0.0120530333
      0.0458015278 0. 0.0180795509 0.0128565691 0.0148654077
      0.0224989951 0.000401767786 0.00843712315 0.00120530336
      0.0449979901 0.0526315793 0.00361591019 0.0237042997 0.0301325843
      0.0128565691 0.0658899173 0.00683005247 0.000401767786
      0.000401767786 0.0297308154 0.0678987578 0.00723182037
      0.0104459627 0.00964242686 0.0108477306 0.00120530336
      0.00964242686 0.0140618728 0.0172760151 0.0144636407
      0.000803535571 0.031337887 0.0241060667 0.00924065895 0.0108477306
      0.00241060671 0.0281237457 0.0253113713 0.0325431898
      0.000401767786</_>
    <_>
      0.0550581887 0.0232766327 0.00805729628 0.00581915816 0.0308863018
      0.0161145926 0.024619516 0.0537153073 0.0572963282 0.0143240821
      0.0425246172 0. 0.0223813783 0.0116383163 0.0120859444
      0.0232766327 0.000447627564 0.0102954339 0.00179051026 0.045658011
      0.0452103838 0.00223813788 0.0232766327 0.0259623993 0.0156669654
      0.0550581887 0.00492390338 0. 0.00268576527 0.0273052808
      0.088630259 0.00805729628 0.00716204103 0.0107430611 0.0152193373
      0.000447627564 0.00626678579 0.00760966865 0.0125335716
      0.0143240821 0.00223813788 0.0277529098 0.0232766327 0.00716204103
      0.00984780677 0.00447627576 0.0326768123 0.0299910475 0.0299910475
      0.</_>
    <_>
      0.055555556 0.0219198801 0.00604686327 0.00755857909 0.0291005298
      0.0170068033 0.0234315954 0.0340136066 0.035525322 0.0136054419
      0.0491307639 0. 0.0241874531 0.0162509456 0.0128495842 0.026832955
      0.00113378686 0.00680272095 0.00151171582 0.0457294025 0.057823129
      0.00302343164 0.0226757377 0.0264550261 0.0124716554 0.0687830672
      0.00831443723 0.000755857909 0.00302343164 0.028722601
      0.0910808817 0.00793650839 0.00907029491 0.015495087 0.0136054419
      0.00188964477 0.0102040814 0.00415721862 0.0117157977 0.015495087
      0.00188964477 0.026832955 0.0272108838 0.0120937265 0.00831443723
      0.00415721862 0.0298563875 0.0230536666 0.0256991684 0.</_>
    <_>
      0.0188143402 0.0457933955 0.00709975138 0.0145544903 0.0223642178
      0.0308839194 0.0269790553 0.0365637206 0.0298189558 0.0131345401
      0.0397586077 0. 0.01739439 0.0223642178 0.0216542408 0.0237841681
      0.00212992541 0.00674476381 0.00177493785 0.0472133458 0.116080932
      0.00354987569 0.020589279 0.0241391547 0.01739439 0.0425985083
      0.0145544903 0.00177493785 0.00390486326 0.0273340419 0.0124245649
      0.00638977624 0.00745473895 0.0145544903 0.0163294282
      0.00141995028 0.0127795525 0.00745473895 0.0166844167 0.0134895276
      0.00425985083 0.0252041183 0.0443734452 0.00851970166 0.0117145898
      0.00248491298 0.0237841681 0.0326588564 0.0365637206
      0.000709975138</_>
    <_>
      0.0740546286 0.021008404 0.00577731105 0.00840336177 0.0341386572
      0.0173319336 0.0157563034 0.0351890773 0.0346638672 0.00682773162
      0.0315126069 0. 0.0162815135 0.0131302532 0.0231092442
      0.0288865566 0. 0.00420168089 0. 0.042542018 0.0940126106
      0.00367647083 0.0183823537 0.0189075638 0.010504202 0.0609243736
      0.00420168089 0.00105042022 0.00105042022 0.0346638672 0.100840345
      0.00892857183 0.00735294167 0.00735294167 0.0157563034
      0.0026260505 0.0126050431 0.00630252156 0.011029412 0.00945378188
      0.00420168089 0.0241596643 0.0304621868 0.00577731105 0.0115546221
      0.000525210111 0.0173319336 0.0288865566 0.032563027 0.00210084044</_>
    <_>
      0.0513853915 0.0216624681 0.00604534009 0.0141057931 0.0332493708
      0.0241813604 0.0166246854 0.0438287146 0.0372795984 0.00806045346
      0.0342569277 0.000503778341 0.0166246854 0.0161209069 0.0196473561
