<?xml version="1.0"?>
<opencv_storage>
<opencv_ml_svm>
  <format>3</format>
  <svmType>C_SVC</svmType>
  <kernel>
    <type>RBF</type>
    <gamma>0.50625000000000009</gamma></kernel>
  <C>312.5</C>
  <term_criteria><epsilon>1.1920928955078125e-07</epsilon>
    <iterations>1000</iterations></term_criteria>
  <var_count>50</var_count>
  <class_count>2</class_count>
  <class_labels type_id="opencv-matrix">
    <rows>2</rows>
    <cols>1</cols>
    <dt>i</dt>
    <data>
      0 1</data></class_labels>
  <sv_total>641</sv_total>
  <support_vectors>
    <_>
      0.037029244 0.0349253118 0.0193561967 0.0252472125 0.00631180312
      0.047338523 0.0134651801 0.00231432775 0.00420786859 0.0448138006
      0.0204081628 0.0300862622 0.00105196715 0.00883652456 0.0406059325
      0.0178834423 0.0100988848 0.0256679989 0.012413213 0.0206185561
      0.0140963607 0.0130443936 0.00778455706 0.0149379345 0.00883652456
      0.0347149186 0.0218809173 0.00589101622 0.011361246 0.0197769832
      0.0549126863 0.0105196722 0.00757416384 0.0187250152 0.0260887872
      0.0126236062 0.0176730491 0.0427098684 0.0385020003 0.0117820324
      0.0145171471 0.0220913105 0.0132547868 0.0467073433 0.00441826228
      0.000841573754 0.0262991805 0.00378708192 0.0397643596
      0.0122028198</_>
    <_>
      0.0224291161 0.0545916185 0.00677105365 0.0342784598 0.00465509947
      0.0338552669 0.0330088884 0.00550148124 0.00338552683 0.0562843829
      0.019043589 0.0317393132 0.00211595418 0.0122725349 0.0414727032
      0.019043589 0.00761743542 0.0148116797 0.00380871771 0.00973339006
      0.0177740157 0.00677105365 0.0101565802 0.00677105365
      0.00888700783 0.0236986876 0.0173508245 0.00931019895
      0.00465509947 0.0266610235 0.0457046106 0.00761743542
      0.00465509947 0.0203131605 0.0165044442 0.0105797714 0.0194667801
      0.0292001683 0.0804062635 0.0122725349 0.00804062653 0.028353788
      0.0181972068 0.0672873482 0.00423190836 0.00169276341 0.0448582321
      0.00169276341 0.022005925 0.00846381672</_>
    <_>
      0.0330578499 0.0672963411 0.0106257377 0.0206611566 0.0106257377
      0.038961038 0.0135773318 0.00767414365 0.00354191242 0.0731995255
      0.0171192437 0.0460448638 0.000590318756 0.0147579685 0.029515937
      0.0147579685 0.00649350649 0.0171192437 0.00590318767
      0.00885478128 0.0147579685 0.00885478128 0.00472255005
      0.0171192437 0.00354191242 0.0383707173 0.0177095626 0.00944510009
      0.00354191242 0.0159386061 0.0525383689 0.0112160565 0.00826446246
      0.0141676497 0.0206611566 0.0147579685 0.0147579685 0.0289256182
      0.0324675329 0.012987013 0.0159386061 0.0289256182 0.0230224319
      0.0371900834 0.0118063753 0.00295159384 0.0354191251 0.00767414365
      0.0365997627 0.0153482873</_>
    <_>
      0.0358227082 0.0710382462 0.00728597399 0.0352155417 0.00546448072
      0.0455373377 0.0139647843 0.0060716453 0.00364298699 0.0655737668
      0.0151791126 0.0255009104 0.000607164518 0.0127504552 0.0327868834
      0.011536126 0.00364298699 0.0182149354 0.00667880988 0.0127504552
      0.014571948 0.00485731615 0.00485731615 0.0139647843 0.00850030314
      0.0382513665 0.0182149354 0.00485731615 0.011536126 0.0151791126
      0.0588949583 0.00728597399 0.00789313857 0.011536126 0.0358227082
      0.011536126 0.0163934417 0.0376442 0.0352155417 0.00789313857
      0.014571948 0.0285367332 0.0297510605 0.0358227082 0.0182149354
      0.00121432904 0.0242865812 0.00364298699 0.0388585292 0.0109289614</_>
    <_>
      0.0237425808 0.041549515 0.00374882855 0.0362386778 0.0059356452
      0.0328022502 0.0237425808 0.00124960952 0.00312402379 0.0549828187
      0.0174945332 0.0390502959 0.000312402379 0.00905966945
      0.0356138721 0.0268666036 0.00874726661 0.0178069361 0.0043736333
      0.00937207136 0.0124960952 0.00406123092 0.00874726661
      0.00749765709 0.00531084044 0.0215557646 0.0134333018
      0.00843486376 0.0059356452 0.0193689466 0.0509215891 0.00937207136
      0.0156201189 0.0224929713 0.0146829113 0.00905966945 0.0149953142
      0.0424867235 0.0909090936 0.010309279 0.00624804758 0.0209309589
      0.0168697275 0.084973447 0.00312402379 0.00156201189 0.0449859425
      0.00187441427 0.028428616 0.00749765709</_>
    <_>
      0.022619674 0.0520778522 0.00946870074 0.0289321411 0.00789058395
      0.0336664915 0.0163072068 0.00473435037 0.00263019465 0.083640188
      0.0126249343 0.0620725937 0.00157811679 0.0178853236 0.022619674
      0.0126249343 0.00368227251 0.0168332458 0.00736454502 0.0136770122
      0.0236717518 0.00841662288 0.00368227251 0.0131509732
      0.00578642823 0.0347185694 0.0241977908 0.0131509732 0.00631246716
      0.0210415572 0.052603893 0.00841662288 0.00473435037 0.0184113625
      0.022619674 0.0157811679 0.0120988954 0.0410310365 0.0352446064
      0.0142030511 0.0184113625 0.0368227251 0.015255129 0.0326144136
      0.0110468175 0.00263019465 0.0247238297 0.00736454502 0.0278800633
      0.0110468175</_>
    <_>
      0.0425404459 0.0641102493 0.01497903 0.0221689641 0.00898741838
      0.0437387675 0.01018574 0.00359496707 0.00239664479 0.0665068924
      0.0179748368 0.0389454775 0.00239664479 0.0137807075 0.0317555442
      0.0119832242 0.00539245084 0.0287597366 0.00479328958 0.01018574
      0.00898741838 0.00898741838 0.00419412833 0.012582385 0.0059916121
      0.0359496735 0.0167765133 0.00838825665 0.0131815467 0.0167765133
      0.0503295399 0.012582385 0.00718993414 0.0131815467 0.0263630934
      0.0113840625 0.0185739975 0.0269622542 0.0377471559 0.0137807075
      0.0119832242 0.0317555442 0.0215698034 0.0377471559 0.012582385
      0.00179748354 0.0335530266 0.00838825665 0.0377471559 0.0077890954</_>
    <_>
      0.0346749239 0.0637770891 0.0105263162 0.0247678012 0.00990712084
      0.0439628474 0.013003096 0.00247678021 0.00371517031 0.0681114569
      0.0117647061 0.0377708972 0.000619195052 0.013003096 0.0352941193
      0.0111455107 0.00619195029 0.0142414859 0.00928792544 0.0148606813
      0.0117647061 0.0117647061 0.00681114569 0.013003096 0.00866873097
      0.0414860696 0.021671826 0.00804953557 0.0105263162 0.0253869966
      0.0575851388 0.00804953557 0.00804953557 0.0160990711 0.026006192
      0.0111455107 0.0167182665 0.0297213625 0.0291021671 0.0117647061
      0.0117647061 0.0266253874 0.0191950463 0.0513931885 0.0105263162
      0.00185758516 0.0266253874 0.00495356042 0.0334365331 0.0111455107</_>
    <_>
      0.0275344178 0.0506883599 0.00438047573 0.0322277844 0.00531914923
      0.0416145176 0.0184605755 0.00125156448 0.00406758441 0.073842302
      0.0175219029 0.0303504393 0.00187734677 0.0103254067 0.0378598273
      0.0181476846 0.00688360445 0.0147058824 0.0084480606 0.0131414272
      0.0137672089 0.00688360445 0.00719649578 0.00719649578
      0.00406758441 0.0281602014 0.0100125158 0.0075093871 0.00969962496
      0.0156445559 0.0450563207 0.00719649578 0.0118898628 0.0206508134
      0.0184605755 0.00813516881 0.013454318 0.0425531939 0.07540676
      0.0118898628 0.00719649578 0.0250312891 0.0156445559 0.0782227814
      0.00500625791 0.00125156448 0.0513141453 0.000938673387
      0.0247183982 0.00719649578</_>
    <_>
      0.0278223641 0.0540395901 0.00695559103 0.0224719085 0.00481540896
      0.0497592278 0.0219368637 0.00428036368 0.00214018184 0.0529695004
      0.0155163184 0.039593365 0.000535045459 0.0101658637 0.0428036377
      0.011771 0.00695559103 0.0165864099 0.0080256816 0.0112359542
      0.011771 0.00695559103 0.00428036368 0.00749063632 0.00642054528
      0.0481540896 0.0251471363 0.00642054528 0.0107009094 0.023542
      0.0486891381 0.00856072735 0.00642054528 0.0139111821 0.0288924556
      0.0090957731 0.0171214547 0.0363830924 0.0411984995 0.0107009094
      0.0171214547 0.037453182 0.0278223641 0.0481540896 0.0171214547
      0.00160513632 0.0224719085 0.00214018184 0.0315676816 0.0123060457</_>
    <_>
      0.0395833366 0.138541669 0.0145833343 0.0135416677 0.00104166672
      0.0510416701 0.00937500037 0.00729166716 0. 0.166666672
      0.00937500037 0.0447916687 0. 0.0145833343 0.015625 0.00208333344
      0.00312500028 0.0187500007 0.00729166716 0.00729166716
      0.0145833343 0.0166666675 0.00312500028 0.00937500037
      0.00104166672 0.0343750007 0.00312500028 0. 0.0114583336
      0.00416666688 0.0708333403 0.0416666679 0.0135416677 0.00625000056
      0.0177083351 0.00416666688 0.00625000056 0.0583333373
      0.00520833349 0.00104166672 0.010416667 0.010416667 0.0114583336
      0.00729166716 0.0114583336 0. 0.00833333377 0. 0.0489583351
      0.00416666688</_>
    <_>
      0.0290581174 0.157314628 0.00801603217 0.0120240487 0.00100200402
      0.0370741487 0.00701402826 0.00100200402 0.00100200402 0.170340687
      0.00801603217 0.0380761512 0. 0.0120240487 0.02004008
      0.00300601218 0.00200400804 0.0140280565 0.00701402826
      0.00501001999 0.0110220443 0.0180360731 0.00100200402 0.01002004
      0.00100200402 0.0330661312 0.00801603217 0. 0.0120240487
      0.00601202436 0.0851703435 0.0410821661 0.0290581174 0.00300601218
      0.0180360731 0.00300601218 0.00801603217 0.0521042086
      0.00501001999 0.00601202436 0.0110220443 0.00400801608
      0.0230460931 0.00501001999 0.00601202436 0. 0.00100200402
      0.00200400804 0.0571142286 0.00701402826</_>
    <_>
      0.0434977561 0.0766816139 0.0206278022 0.0233183857 0.00493273512
      0.0439461879 0.011210762 0.00179372192 0.00224215235 0.0955156907
      0.00896860939 0.016591927 0. 0.00807174854 0.0251121074
      0.0143497754 0.00717488769 0.0269058291 0.0103139011 0.0174887888
      0.011210762 0.0228699539 0.00627802685 0.0156950671 0.00582959643
      0.0502242148 0.0121076228 0.005381166 0.0134529145 0.00986547023
      0.0506726429 0.0318385623 0.002690583 0.0152466362 0.0210762322
      0.0103139011 0.00986547023 0.0322869942 0.0188340805 0.0116591929
      0.0174887888 0.0300448425 0.0224215239 0.0255605374 0.00358744385
      0.00224215235 0.0188340805 0.00582959643 0.0457399078 0.0121076228</_>
    <_>
      0.0327868834 0.0628415272 0.0154826958 0.0295992717 0.00455373386
      0.0514571927 0.0141165759 0.00227686693 0.00182149361 0.0755919814
      0.0195810571 0.0191256832 0. 0.0122950822 0.0291438978
      0.0159380697 0.00819672085 0.0264116582 0.0132058291 0.0118397083
      0.0186703093 0.0245901644 0.00774134789 0.0145719489 0.00774134789
      0.0446265936 0.0177595634 0.00455373386 0.0159380697 0.0163934417
      0.0332422592 0.0154826958 0.00637522759 0.0127504552 0.0305100176
      0.00910746772 0.013661202 0.0327868834 0.0245901644 0.0195810571
      0.0159380697 0.0250455365 0.0264116582 0.0282331519 0.00500910729
      0.00273224036 0.0195810571 0.00273224036 0.042349726 0.0150273219</_>
    <_>
      0.0422273763 0.0640371218 0.0208816696 0.0218097437 0.0102088163
      0.0482598618 0.0190255214 0.00417633401 0.000928074238
      0.0635730848 0.0116009284 0.0218097437 0.000928074238
      0.00649651978 0.0296983756 0.0120649654 0.0106728533 0.0296983756
      0.00788863096 0.00835266802 0.0116009284 0.0171693731 0.0102088163
      0.0134570766 0.0074245939 0.0389791168 0.0227378197 0.00556844566
      0.0185614843 0.0194895584 0.0482598618 0.0199535955 0.00464037107
      0.0120649654 0.0320185609 0.0102088163 0.0134570766 0.0385150798
      0.0176334102 0.0171693731 0.0185614843 0.0301624127 0.0218097437
      0.0232018568 0.00881670509 0.00139211142 0.0139211137
      0.00464037107 0.0510440841 0.0129930396</_>
    <_>
      0.0385949686 0.0672159567 0.0268863831 0.0182133559 0.00477016484
      0.0377276689 0.0160450991 0.000867302704 0.00260190805
      0.0936686918 0.017779706 0.0160450991 0.000867302704 0.00433651358
      0.0351257585 0.0108412839 0.0104076322 0.0307892468 0.0121422382
      0.0134431915 0.00910667796 0.017779706 0.00563746737 0.0195143111
      0.00390286208 0.041196879 0.014310495 0.00260190805 0.0156114483
      0.0112749347 0.0659150034 0.0242844764 0.00477016484 0.0164787509
      0.0203816127 0.00693842163 0.0121422382 0.0312228967 0.0225498695
      0.0108412839 0.0186470076 0.0242844764 0.0229835212 0.0268863831
      0.00520381611 0.00216825679 0.0190806594 0.00303555955
      0.0498699062 0.0130095407</_>
    <_>
      0.0415145978 0.0556569323 0.0109489048 0.0255474448 0.00364963501
      0.0447080284 0.018704379 0.00501824822 0.0031934306 0.0702554733
      0.0155109484 0.0214416049 0.0013686131 0.0104927011 0.0296532847
      0.0141423354 0.00684306584 0.0241788328 0.0109489048 0.0127737224
      0.013229927 0.0164233577 0.00866788346 0.0104927011 0.00501824822
      0.0428832099 0.0173357669 0.00364963501 0.0141423354 0.0200729929
      0.0410583951 0.0136861317 0.00410583941 0.0104927011 0.0296532847
      0.00912408717 0.0114051094 0.0424270071 0.0241788328 0.0177919716
      0.0168795623 0.0369525552 0.0360401459 0.0328467153 0.00912408717
      0.000456204376 0.0155109484 0.0027372262 0.0515510961 0.0155109484</_>
    <_>
      0.0437266082 0.0256056711 0.0234390385 0.0269844383 0.00413630065
      0.0451053753 0.0120149693 0.00216663373 0.00433326745 0.0364388414
      0.0244238712 0.0214693714 0.00157573365 0.00886350218 0.0362418741
      0.0165452026 0.00590900099 0.0252117384 0.00787866861 0.0126058692
      0.00984833576 0.0175300371 0.00787866861 0.01437857 0.00649990141
      0.0614536107 0.0214693714 0.00630293461 0.01437857 0.022454204
      0.0496356115 0.0110301357 0.0159543026 0.0220602714 0.0177270044
      0.00827260129 0.0183179043 0.0295450054 0.0261965711 0.00906046852
      0.0171361025 0.0350600742 0.0326964743 0.0425448082 0.00649990141
      0.000787866826 0.0240299385 0.00275753392 0.0516052768
      0.0122119356</_>
    <_>
      0.0377484933 0.025016753 0.0390886776 0.0279204827 0.00357382186
      0.0402054973 0.0136251962 0.00178691093 0.00312709413 0.0303774849
      0.0236765705 0.0194326565 0.000223363866 0.00692427997
      0.0299307574 0.0158588346 0.00848782714 0.0285905749 0.00893455464
      0.00848782714 0.00848782714 0.0122850128 0.00804109871
      0.0183158368 0.006477552 0.0623185188 0.0163055621 0.00580746029
      0.0138485599 0.0261335727 0.0502568707 0.00893455464 0.0140719237
      0.024123298 0.0187625643 0.00871119089 0.0243466608 0.0312709399
      0.0375251286 0.0109448293 0.0185392015 0.0335045792 0.029260667
      0.0471297763 0.00580746029 0.00111681933 0.0261335727
      0.00223363866 0.0498101413 0.006477552</_>
    <_>
      0.0510030612 0.0523631424 0.0282216929 0.0292417537 0.00782046933
      0.0482828952 0.00782046933 0.00544032641 0.003400204 0.0819449201
      0.0176810604 0.0357021429 0. 0.0204012245 0.0261815712
      0.00952057168 0.00510030612 0.0323019363 0.0115606934
      0.00884053018 0.0159809589 0.0149608981 0.00714042829 0.0183611009
      0.00680040801 0.0404624268 0.0112206731 0.00408024481 0.013600816
      0.0132607957 0.0581434891 0.0105406325 0.00612036698 0.0210812651
      0.0241414476 0.00680040801 0.0176810604 0.0329819806 0.0210812651
      0.00680040801 0.012240734 0.0197211839 0.0173410401 0.0319619179
      0.00544032641 0.0010200612 0.0241414476 0.0013600816 0.0448826924
      0.00782046933</_>
    <_>
      0.0507658646 0.0238512047 0.0422319472 0.0177242886 0.00503282296
      0.0444201306 0.0120350113 0.00109409192 0.00612691464 0.0319474861
      0.0249452963 0.0124726482 0.000218818386 0.00547045982
      0.0345733054 0.0120350113 0.00940919016 0.0295404829 0.00678336993
      0.0122538293 0.00765864365 0.0185995623 0.00722100679 0.0194748361
      0.00481400453 0.0590809658 0.016192561 0.00284463912 0.0155361053
      0.0177242886 0.052516412 0.0118161924 0.0109409196 0.0201312918
      0.0150984684 0.00962800905 0.0240700226 0.0308533926 0.0332603939
      0.0124726482 0.022757113 0.0347921252 0.0240700226 0.0485776812
      0.00590809621 0.000875273545 0.0218818393 0.00240700226
      0.0555798709 0.0102844639</_>
    <_>
      0.046632126 0.0269430056 0.0504317805 0.0169257335 0.00207253895
      0.0504317805 0.00932642538 0.00138169259 0.00379965454
      0.0324697755 0.0279792752 0.0165803116 0.000690846296
      0.00449050078 0.0421416238 0.0210708119 0.0041450779 0.0248704664
      0.00759930909 0.00932642538 0.00587219372 0.0189982727
      0.00552677037 0.0179620031 0.00449050078 0.0656303987 0.0183074269
      0.00310880831 0.0183074269 0.0217616577 0.0614853203 0.00967184827
      0.00449050078 0.0196891204 0.0120898103 0.00587219372 0.0255613122
      0.0203799661 0.033506047 0.00552677037 0.0158894639 0.0341968909
      0.0369602777 0.0431778952 0.00449050078 0.00241796207 0.0200345423
      0.00276338519 0.0507772043 0.0117443874</_>
    <_>
      0.0411697887 0.018739352 0.0326519012 0.0212947186 0.00567859132
      0.050255537 0.0184554234 0.00454287324 0.00340715493 0.0349233374
      0.0176036339 0.0258375909 0.00113571831 0.0053946618 0.0371947736
      0.0127768312 0.0053946618 0.0261215214 0.0130607607 0.0144804083
      0.0079500284 0.0212947186 0.00567859132 0.0227143653 0.0073821689
      0.0428733677 0.018171493 0.00511073228 0.0167518444 0.0201590005
      0.0684270263 0.0107893236 0.00653038034 0.0150482673 0.0170357749
      0.0119250426 0.0141964788 0.0249858033 0.039182283 0.0130607607
      0.0235661548 0.029244747 0.0312322527 0.0425894372 0.00567859132
      0.00170357747 0.0258375909 0.00141964783 0.0437251553 0.0156161264</_>
    <_>
      0.0455848612 0.0160550456 0.0358371548 0.0186353195 0.00688073365
      0.0493119247 0.0163417421 0.00602064189 0.00286697224 0.0289564207
      0.0217889901 0.029816512 0.000286697235 0.00774082541 0.0421444923
      0.0177752282 0.00716743106 0.0306766033 0.00831422023 0.0163417421
      0.0100344028 0.0212155953 0.00831422023 0.0194954127 0.00888761412
      0.0478784367 0.0197821092 0.00487385318 0.0137614673 0.0246559624
      0.0470183454 0.00602064189 0.003727064 0.0192087144 0.00888761412
      0.0123279812 0.0226490814 0.0280963294 0.0366972461 0.0143348621
      0.020355504 0.0275229346 0.0232224762 0.0518921986 0.00401376141
      0.00286697224 0.0280963294 0.00430045836 0.0395642184 0.0117545864</_>
    <_>
      0.0500573181 0.02865877 0.0351547599 0.015284678 0.00458540302
      0.0496752001 0.014520444 0.00152846775 0.00420328649 0.0508215539
      0.020634314 0.030951472 0.00114635075 0.00878868997 0.034772642
      0.011845625 0.00726022199 0.030951472 0.00917080604 0.014138327
      0.011081391 0.0191058461 0.00687810499 0.017195262 0.00420328649
      0.0500573181 0.012609859 0.006495988 0.014902561 0.011845625
      0.061902944 0.011081391 0.005731754 0.019487964 0.0225449
      0.00802445598 0.01872373 0.028276654 0.0305693559 0.00917080604
      0.021780666 0.029040888 0.025983952 0.0256018341 0.00955292303
      0.00229270151 0.031715706 0.00191058475 0.0470003821 0.011081391</_>
    <_>
      0.0448314175 0.0285290852 0.0226009637 0.0192663949 0.00703964429
      0.0526120774 0.0122267511 0.00481659872 0.00592812151 0.062615782
      0.0166728422 0.0292700995 0.00111152278 0.0111152278 0.035568729
      0.0170433484 0.00889218226 0.0211189333 0.0133382734 0.0107447207
      0.0122267511 0.0174138565 0.00555761391 0.0188958868 0.0085216742
      0.0500185266 0.011485735 0.00259355316 0.0125972582 0.0185253806
      0.0566876605 0.0125972582 0.00963319745 0.0151908118 0.0244535021
      0.0148203038 0.015561319 0.0281585772 0.0181548726 0.0129677653
      0.0163023341 0.0266765468 0.0296406075 0.0281585772 0.011485735
      0.00148203038 0.0222304557 0.00407558354 0.0566876605 0.011856243</_>
    <_>
      0.0371923931 0.0528523475 0.00671140943 0.0276845638 0.0069910516
      0.032718122 0.0128635345 0.00447427295 0.00475391513 0.0687919483
      0.0178970918 0.04082774 0.0013982103 0.0125838928 0.0226510074
      0.0148210293 0.00671140943 0.0170581657 0.00810961984 0.0089485459
      0.0167785231 0.00727069378 0.00727069378 0.0120246084
      0.00531319901 0.035514541 0.0212527961 0.00755033549 0.00838926155
      0.0237695742 0.0640380308 0.0050335573 0.0089485459 0.0251677856
      0.0128635345 0.0142617449 0.0123042502 0.0411073826 0.0592841171
      0.00950783025 0.00950783025 0.0254474282 0.0131431771 0.0483780764
      0.0120246084 0.000559284119 0.0377516784 0.00167785236
      0.0338366888 0.0139821032</_>
    <_>
      0.0142857134 0.041860465 0.00564784044 0.0212624576 0.0053156144
      0.0312292352 0.0162790697 0.00365448487 0.0006644518 0.0614617914
      0.0109634548 0.0431893654 0. 0.0122923581 0.0318936855
      0.0159468427 0.00598006602 0.00996677671 0.00498338835
      0.0192691013 0.0182724241 0.00930232555 0.00697674369 0.0053156144
      0.00631229207 0.0441860445 0.0196013283 0.0053156144 0.00830564741
      0.0265780725 0.0538205951 0.00830564741 0.0129568102 0.0219269097
      0.0212624576 0.0109634548 0.00797342137 0.0455149487 0.0707641169
      0.011960132 0.00664451811 0.0385382026 0.0215946827 0.0564784035
      0.0146179395 0.0006644518 0.0428571403 0.0013289036 0.0332225896
      0.0122923581</_>
    <_>
      0.0305853747 0.0380798057 0.00688677328 0.0239011534 0.00789953396
      0.0358517319 0.0168118291 0.00324083446 0.00303828227 0.0613733009
      0.0198501106 0.032610897 0.000405104307 0.0121531291 0.0269394368
      0.0155965155 0.00830463786 0.0226858407 0.0058740126 0.0111403689
      0.0103301601 0.00850719027 0.0058740126 0.00688677328
      0.00688677328 0.0514482483 0.0178245902 0.00648166891
      0.00850719027 0.0214705281 0.06947539 0.0101276077 0.00749442959
      0.0403078794 0.0137735466 0.0123556815 0.0151914116 0.0449665785
      0.0394976698 0.00951995142 0.0117480252 0.0374721475 0.023293497
      0.0486125164 0.00546890823 0.000810208614 0.0291675106
      0.00182296941 0.0388900116 0.0125582339</_>
    <_>
      0.0342052318 0.0449362844 0.0295103937 0.019114688 0.0083836345
      0.0348759219 0.0114017436 0.00134138158 0.00167672697 0.0523138829
      0.0150905428 0.0425888635 0.00167672697 0.0147551969 0.0248155594
      0.0187793411 0.0083836345 0.0214621052 0.00972501654 0.0144198518
      0.0214621052 0.0154258879 0.00603621732 0.0130784707 0.0053655263
      0.0409121364 0.0100603616 0.00771294395 0.0083836345 0.0147551969
      0.0533199161 0.0124077797 0.0103957076 0.0251509044 0.0204560682
      0.0114017436 0.0134138158 0.0663983896 0.0402414463 0.0110663977
      0.0140845068 0.0241448693 0.0201207232 0.0342052318 0.00737759843
      0. 0.0285043586 0.00234741764 0.0442655906 0.00804828946</_>
    <_>
      0.0152173918 0.0586956553 0.00434782635 0.0235507246 0.00326086977
      0.0344202928 0.0177536234 0.00471014529 0.00181159424 0.0721014515
      0.013405798 0.0376811624 0.000362318853 0.00724637695 0.0351449288
      0.0166666675 0.00652173953 0.0101449275 0.00326086977 0.0144927539
      0.0130434791 0.00760869589 0.00579710165 0.00507246377
      0.00688405801 0.0376811624 0.0184782613 0.00326086977
      0.00615942059 0.0224637687 0.0554347858 0.00942029059
      0.00869565271 0.027173914 0.0217391308 0.0101449275 0.00797101483
      0.0467391312 0.0739130452 0.00869565271 0.00905797165 0.0322463773
      0.0202898551 0.0612318851 0.0123188412 0.000362318853 0.0373188406
      0.00217391318 0.0355072469 0.0123188412</_>
    <_>
      0.0311284047 0.0443579778 0.0158236064 0.0212710761 0.00907911826
      0.0326848254 0.0093385214 0.00389105058 0.00259403372 0.0702983141
      0.0223086905 0.0311284047 0.000259403372 0.0129701681 0.0259403363
      0.0129701681 0.00985732861 0.0215304792 0.00570687419 0.0166018158
      0.0142671857 0.00959792454 0.00752269756 0.010635538 0.00440985709
      0.0474708155 0.0199740604 0.00518806744 0.0103761349 0.0220492873
      0.0614785999 0.0111543452 0.00881971419 0.0368352793 0.0181582365
      0.00985732861 0.0178988334 0.0391699076 0.0319066159 0.00830090791
      0.0116731515 0.0313878097 0.0293125808 0.0430609584 0.00622568093
      0.00129701686 0.0342412442 0.00103761349 0.0345006473 0.0124513619</_>
    <_>
      0.0345566571 0.0522368066 0.0184837934 0.0249129385 0.00562550221
      0.0380391106 0.0136619341 0.00241092942 0.00241092942 0.0712563619
      0.0195553172 0.0308063217 0. 0.0158049818 0.0235735327 0.014197696
      0.00991159864 0.0246450566 0.00750066945 0.0152692199 0.013929815
      0.0117867664 0.00669702655 0.0131261721 0.00401821593 0.0492901132
      0.0176801495 0.00562550221 0.00964371767 0.0233056527 0.0605411194
      0.0160728637 0.00776855042 0.0291990358 0.0171443876 0.00482185883
      0.0179480314 0.0297347978 0.0332172513 0.00910795573 0.0171443876
      0.0300026778 0.0203589611 0.0415215641 0.00642914511
      0.000535762112 0.0289311539 0.000267881056 0.0372354686
      0.0120546473</_>
    <_>
      0.03017544 0.0463157929 0.0185964927 0.0192982461 0.00701754401
      0.0456140377 0.0133333337 0.00245614047 0.00315789483 0.0614035092
      0.0175438598 0.0403508805 0.000350877206 0.0129824569 0.03017544
      0.0147368424 0.00385964918 0.0196491238 0.00877192989 0.0119298249
      0.0221052635 0.0133333337 0.00245614047 0.0122807026 0.00947368424
      0.0442105271 0.0112280706 0.00491228094 0.0112280706 0.014035088
      0.0512280725 0.010877193 0.0122807026 0.0277192984 0.0252631586
      0.00666666683 0.0157894734 0.0585964918 0.0431578979 0.0119298249
      0.0122807026 0.0333333351 0.0203508772 0.03017544 0.00912280753
      0.000701754412 0.0291228089 0.00491228094 0.0350877196
      0.00842105318</_>
    <_>
      0.0317113176 0.0519409478 0.0188627653 0.0229633674 0.00519409496
      0.0382722765 0.0106615629 0.00382722775 0.00546746841 0.0721705779
      0.0180426445 0.0256971009 0. 0.0142154172 0.0237834863
      0.0169491526 0.00874794926 0.0213231258 0.0103881899 0.015035538
      0.0177692715 0.015035538 0.0071077086 0.0133952973 0.00410060119
      0.0390923992 0.0158556588 0.00410060119 0.0123018036 0.0229633674
      0.0677966103 0.0180426445 0.00765445549 0.0328048095 0.0172225256
      0.00683433516 0.0158556588 0.0379989035 0.0319846906 0.00984144304
      0.0123018036 0.0278840885 0.0199562591 0.0371787846 0.00546746841
      0.000273373415 0.0333515555 0.00164024043 0.0388190262 0.010114816</_>
    <_>
      0.0308988765 0.078651689 0.0205992516 0.0191947576 0.00421348307
      0.043071162 0.00889513083 0.00280898879 0.000936329598 0.110486895
      0.0051498129 0.0379213504 0.0014044944 0.00842696615 0.0327715352
      0.0149812736 0.00374531839 0.021535581 0.0107677905 0.0145131089
      0.0163857676 0.0168539323 0.00421348307 0.0121722845 0.00608614227
      0.0468164794 0.0145131089 0.00561797759 0.0121722845 0.0117041199
      0.0514981262 0.017322097 0.00889513083 0.0177902617 0.0243445691
      0.00983146112 0.00889513083 0.0510299616 0.0234082397
      0.00842696615 0.0168539323 0.0210674163 0.0191947576 0.021535581
      0.00608614227 0.0014044944 0.0182584263 0.0018726592 0.044475656
      0.0102996258</_>
    <_>
      0.0363726951 0.0757349283 0.0249128062 0.0204285011 0.00697558559
      0.0393622331 0.010961635 0.00548081752 0. 0.110114604
      0.00597907323 0.0303936228 0. 0.00747384178 0.0293971114
      0.0144494278 0.0034877928 0.0264075752 0.00797209796 0.00847035367
      0.00847035367 0.0179372206 0.00398604898 0.0134529155
      0.00548081752 0.044344794 0.0189337321 0.0034877928 0.0114598908
      0.0114598908 0.0682610869 0.0139511712 0.0104633784 0.0124564031
      0.0274040867 0.00697558559 0.00896861032 0.0563029423 0.0174389649
      0.00797209796 0.0144494278 0.0189337321 0.0174389649 0.0184354763
      0.00647732941 0.00249128067 0.0199302454 0.00199302449
      0.0572994538 0.00896861032</_>
    <_>
      0.0362116992 0.084958218 0.0204271115 0.0241411328 0.00510677788
      0.0399257205 0.0157845858 0.00278551527 0.00139275764 0.0923862532
      0.00882079825 0.0427112356 0.000928505091 0.00603528321
      0.0241411328 0.016248839 0.00696378807 0.0264623947 0.0129990708
      0.0106778089 0.0157845858 0.0167130921 0.00278551527 0.0111420611
      0.0064995354 0.0436397381 0.0148560815 0.0064995354 0.0129990708
      0.0139275761 0.0571030639 0.0129990708 0.00835654605 0.0106778089
      0.0222841222 0.0111420611 0.00742804073 0.0524605364 0.0236768797
      0.00974930357 0.0134633239 0.0204271115 0.0227483753 0.0218198691
      0.00510677788 0.000928505091 0.0208913647 0.00185701018
      0.0427112356 0.0102135558</_>
    <_>
      0.0428273641 0.0267197285 0.052491948 0.0168656446 0.00814856961
      0.0403638445 0.015539133 0.00322152744 0.00606405176 0.0348682962
      0.0244457088 0.0172446463 0.00113700971 0.00379003235 0.0386583284
      0.0138336178 0.00720106158 0.0367633142 0.0128861098 0.0183816571
      0.00966458209 0.0231191982 0.0111805955 0.0293727499 0.00606405176
      0.028235741 0.0142126214 0.00644305488 0.0176236499 0.0238772035
      0.0335417874 0.00966458209 0.00227401941 0.0142126214 0.0125071071
      0.0125071071 0.0274777338 0.0202766731 0.0464278981 0.013644116
      0.0361948088 0.0212241821 0.0140231196 0.0560924783 0.000947508088
      0.00075800647 0.0320257731 0.00284252432 0.041690357 0.0104225893</_>
    <_>
      0.0485155694 0.043084722 0.0706010163 0.00977552496 0.00434467755
      0.0401882678 0.0101375813 0.00289645186 0.00289645186 0.0691527873
      0.0148443161 0.0246198401 0.000724112964 0.00868935511
      0.0278783496 0.0112237511 0.00579290371 0.0405503251 0.00760318618
      0.0133960899 0.0166545976 0.0217233896 0.00506879063 0.0202751625
      0.00615496002 0.0347574204 0.00760318618 0.00362056494
      0.0199131072 0.0130340336 0.0380159318 0.0144822598 0.00615496002
      0.0126719773 0.0217233896 0.00977552496 0.0148443161 0.0394641571
      0.0409123823 0.00941346865 0.0253439546 0.0246198401 0.0126719773
      0.0387400426 0.00651701679 0.00108616939 0.0300506875
      0.00362056494 0.0351194777 0.00905141234</_>
    <_>
      0.0513532236 0.0360860489 0.0222068001 0.0180430245 0.00936849415
      0.035045106 0.0117973629 0.00312283123 0.00346981245 0.0534351133
      0.0138792498 0.0308813322 0.00242886879 0.0135322688 0.022900762
      0.0166551005 0.00520471856 0.035045106 0.0100624561 0.0100624561
      0.0145732127 0.0159611367 0.00659264391 0.0215128381 0.0117973629
      0.0381679386 0.0142262317 0.00624566246 0.0183900055 0.0124913249
      0.0860513523 0.0173490625 0.0104094371 0.0211658571 0.0267175566
      0.0138792498 0.0138792498 0.035392087 0.0301873684 0.0128383059
      0.0183900055 0.022900762 0.0145732127 0.0263705757 0.00659264391
      0.00104094378 0.0284524634 0.00277585001 0.035045106 0.011450381</_>
    <_>
      0.0509572066 0.0436373875 0.011261262 0.0270270277 0.0149211716
      0.0470157675 0.00703828828 0.0115427934 0.000844594615 0.048141893
      0.0278716218 0.0343468487 0.0025337839 0.0132319825 0.0247747749
      0.0177364871 0.00788288284 0.0247747749 0.0106981983 0.0135135138
      0.027308559 0.0171734244 0.00900900923 0.0123873875 0.00985360425
      0.03125 0.0121058561 0.00675675692 0.0171734244 0.010416667
      0.0664414465 0.010416667 0.00900900923 0.0228040554 0.0177364871
      0.0171734244 0.0211148653 0.0371621624 0.03125 0.0163288284
      0.0233671181 0.0182995498 0.0109797297 0.0301238745 0.00450450461
      0.00225225231 0.0253378376 0.00337837846 0.0304054059
      0.00872747786</_>
    <_>
      0.0510829613 0.0551695973 0.0241111573 0.03105844 0.00776461
      0.0388230495 0.00858193729 0.00286064576 0.00408663694
      0.0584389046 0.0200245194 0.0232938305 0.000408663676 0.0126685742
      0.0277891308 0.0130772376 0.00776461 0.0302411113 0.0138945654
      0.0196158569 0.0110339196 0.0196158569 0.00776461 0.0143032288
      0.00776461 0.03105844 0.0171638746 0.00367797306 0.0216591749
      0.0110339196 0.0576215796 0.0212505106 0.00408663694 0.0237024929
      0.0277891308 0.00939926412 0.0175725389 0.0445443392 0.0237024929
      0.0122599099 0.0187985282 0.0200245194 0.0171638746 0.0294237845
      0.00367797306 0.000817327353 0.0224765018 0.00449530035
      0.0326930955 0.0126685742</_>
    <_>
      0.0443181805 0.0411931798 0.0184659082 0.0244318172 0.0136363637
      0.0389204547 0.0124999993 0.0181818176 0.00284090894 0.0562499985
      0.0150568178 0.0360795446 0.0042613633 0.0107954545 0.0204545446
      0.0221590903 0.00596590899 0.0315340906 0.0122159086 0.0102272723
      0.0184659082 0.0173295457 0.00624999963 0.0142045449 0.0133522721
      0.025284091 0.0153409084 0.00482954551 0.0147727272 0.011931818
      0.0630681813 0.0136363637 0.00596590899 0.0176136363 0.021590909
      0.0159090906 0.0144886356 0.034943182 0.0460227244 0.0235795453
      0.0264204536 0.0167613626 0.0133522721 0.025284091 0.00482954551
      0.00312499981 0.0357954539 0.00482954551 0.0221590903
      0.00937499944</_>
    <_>
      0.0492074005 0.02972259 0.0155217974 0.0250990763 0.00924702827
      0.0402906239 0.0132100396 0.00297225895 0.00198150612 0.0574636757
      0.0128797889 0.0343461037 0.000990753062 0.0115587851 0.0257595778
      0.019154558 0.00660501979 0.0287318379 0.0128797889 0.0155217974
      0.0175033025 0.015852049 0.00726552214 0.0161822997 0.0135402912
      0.0429326296 0.0138705419 0.00627476908 0.014861295 0.0161822997
      0.0643989444 0.014861295 0.00759577285 0.0234478209 0.0287318379
      0.0145310443 0.0122192875 0.0363276117 0.0310435947 0.0138705419
      0.0257595778 0.0204755627 0.0171730518 0.0264200792 0.00693527097
      0.00231175707 0.0293923393 0.00264200801 0.0330251008 0.0112285344</_>
    <_>
      0.0519845486 0.052335795 0.0245872866 0.0158061124 0.00983491447
      0.0361784361 0.0108886547 0.00245872862 0.00210748171 0.0804355517
      0.013698631 0.0333684608 0.00140498776 0.00948366709 0.0217773095
      0.0172111001 0.00772743253 0.0302072372 0.0108886547 0.00772743253
      0.0158061124 0.0224798042 0.00702493871 0.0140498774 0.0108886547
      0.0372321755 0.0112399021 0.00561995106 0.0168598536 0.0119423959
      0.0604144745 0.0189673342 0.00878117327 0.0221285578 0.0217773095
      0.00983491447 0.0158061124 0.0467158444 0.029153496 0.00842992682
      0.0224798042 0.0228310507 0.0165086053 0.0270460136 0.00351246935
      0. 0.0200210754 0.00421496341 0.0375834219 0.0105374083</_>
    <_>
      0.051242236 0.0525362343 0.00983436871 0.0300207045 0.0119047621
      0.0419254676 0.00828157365 0.0077639753 0.00232919259 0.0546066277
      0.0188923404 0.0414078683 0.00155279506 0.017598344 0.0207039341
      0.0181159414 0.0106107667 0.0263975151 0.0134575572 0.0131987575
      0.016045548 0.0188923404 0.00879917201 0.0155279506 0.00879917201
      0.027173914 0.015269151 0.00569358189 0.0157867502 0.0119047621
      0.0597826093 0.0121635608 0.0108695654 0.0204451345 0.0282091107
      0.0119047621 0.0170807466 0.0427018628 0.0253623202 0.0129399588
      0.0219979305 0.0204451345 0.0106107667 0.0266563147 0.0085403733
      0.00077639753 0.0302795041 0.00258799177 0.0284679085 0.0119047621</_>
    <_>
      0.0415207632 0.0580290183 0.0460230112 0.0120060034 0.00350175099
      0.035017509 0.0115057528 0.00400200114 0.00200100057 0.0870435238
      0.0135067534 0.0130065037 0. 0.0100050028 0.0295147579
      0.0165082552 0.0100050028 0.0305152591 0.0105052534 0.0175087545
      0.00200100057 0.0170085058 0.00450225128 0.0240120068
      0.00400200114 0.0380190089 0.0105052534 0.00400200114 0.0115057528
      0.0215107556 0.0575287677 0.0185092557 0.00500250142 0.0190095045
      0.0215107556 0.0060030017 0.0160080045 0.0485242642 0.0310155079
      0.0100050028 0.0160080045 0.0225112569 0.0155077539 0.0365182608
      0.00200100057 0.00100050028 0.026513258 0.00250125071 0.0490245149
      0.00650325185</_>
    <_>
      0.0457555689 0.0704394951 0.0174593627 0.0108368453 0.00842865743
      0.0463576168 0.0126429861 0.00180614088 0.00180614088 0.0969295576
      0.0114388922 0.0343166776 0.000602046959 0.0174593627 0.0313064419
      0.00903070439 0.00722456351 0.0246839263 0.0132450331 0.0180614088
      0.0156532209 0.0132450331 0.00903070439 0.016255267 0.00361228175
      0.0331125818 0.0114388922 0.00421432871 0.00963275135 0.0102347983
      0.0602046959 0.0180614088 0.0102347983 0.0222757384 0.0222757384
      0.00541842263 0.0126429861 0.0686333552 0.0126429861 0.00722456351
      0.00963275135 0.0114388922 0.030102348 0.0186634548 0.00481637567
      0.000602046959 0.0198675506 0.00421432871 0.0487658046
      0.00602046959</_>
    <_>
      0.0358126722 0.0556473844 0.0424242429 0.00826446339 0.00826446339
      0.041322317 0.0192837473 0.00220385683 0.00550964195 0.0809917375
      0.015426998 0.0176308546 0. 0.01046832 0.0325068869 0.0132231414
      0.00606060633 0.0225895327 0.0126721766 0.015426998 0.00881542731
      0.0192837473 0.00661157072 0.0187327825 0.00440771366 0.0341597795
      0.015426998 0.00826446339 0.0148760332 0.0143250693 0.0721763074
      0.0165289268 0.00330578536 0.0159779619 0.0247933902 0.01046832
      0.0148760332 0.0584022067 0.0148760332 0.00936639123 0.00881542731
      0.0148760332 0.0198347121 0.0347107463 0.00220385683 0.00110192841
      0.0242424253 0.00495867804 0.051239673 0.00661157072</_>
    <_>
      0.0460122675 0.0371932499 0.0207055211 0.0283742324 0.0107361963
      0.0406441726 0.0141871162 0.00191717781 0.00268404908 0.0483128838
      0.0126533741 0.036809817 0.000766871148 0.0126533741 0.027223926
      0.0237730052 0.00805214699 0.0299079753 0.00805214699 0.0134202447
      0.0107361963 0.0122699384 0.00575153343 0.0145705519 0.00881901849
      0.0345092006 0.0141871162 0.00575153343 0.00843558274 0.0122699384
      0.0893404856 0.0118865026 0.00383435562 0.0260736197 0.0249233115
      0.0118865026 0.0149539877 0.0398772992 0.0375766866 0.00920245424
      0.017638037 0.0172546003 0.0103527606 0.0394938625 0.00421779137
      0.000383435574 0.0452453978 0.00268404908 0.032208588
      0.00958588906</_>
    <_>
      0.0364195965 0.0392408296 0.0133367535 0.0328289308 0.00384714035
      0.0418055914 0.0174403694 0.00282123615 0.00538599631 0.050525777
      0.0218004622 0.0353936926 0.000512952043 0.0182097983 0.0312900729
      0.025134651 0.00615542475 0.0182097983 0.00743780471 0.0112849446
      0.0207745582 0.0125673255 0.00615542475 0.0120543726 0.0107719926
      0.0276994109 0.0184662733 0.00282123615 0.0107719926 0.0169274174
      0.0628366247 0.0079507567 0.00948961265 0.0182097983 0.024621699
      0.00923313666 0.0184662733 0.0428314954 0.0520646311 0.0141061815
      0.00974608865 0.0223134141 0.0159015134 0.0451397784 0.0117978966
      0.00102590409 0.0389843546 0.00282123615 0.0276994109
      0.00666837674</_>
    <_>
      0.0305487961 0.0456880219 0.00919167325 0.0224384964 0.00973236002
      0.0440659635 0.0175723154 0.00459583662 0.00405514985 0.0502838604
      0.0213571228 0.047850769 0.00162205996 0.017301973 0.0389294401
      0.0178426597 0.00811029971 0.0232495256 0.0121654496 0.0118951062
      0.0243308991 0.0116247628 0.0105433902 0.0135171665 0.0102730468
      0.0359556638 0.0175723154 0.00621789647 0.0108137336 0.0216274671
      0.0370370373 0.00838064309 0.0100027034 0.0213571228 0.0300081093
      0.0118951062 0.0167612862 0.027034333 0.0359556638 0.0148688834
      0.01459854 0.0275750197 0.0183833465 0.0464990512 0.00540686678
      0.0013517167 0.0235198699 0.00243309001 0.034063261 0.0118951062</_>
    <_>
      0.032451164 0.0557655916 0.0182734709 0.0176433511 0.00724637648
      0.0485192165 0.0207939502 0.00378071819 0.00378071819 0.053245116
      0.0198487714 0.0330812857 0.00031505985 0.0132325133 0.0419029593
      0.0141776931 0.00567107741 0.0220541898 0.00787649583 0.010712035
      0.0189035907 0.0138626331 0.00756143639 0.0126023944 0.00913673546
      0.0374921225 0.0182734709 0.00504095759 0.00976685528 0.0185885318
      0.0469439179 0.00850661565 0.00441083778 0.0126023944 0.0226843096
      0.010712035 0.0185885318 0.0239445493 0.0478890985 0.00882167555
      0.0116572147 0.0356017612 0.0248897281 0.0500945151 0.00598613732
      0.00157529931 0.0233144294 0.00567107741 0.0422180183 0.0122873345</_>
    <_>
      0.0190529041 0.0355160944 0.0055493894 0.024602294 0.00425453205
      0.0405105427 0.0172031075 0.00314465421 0.0022197559 0.0492045879
      0.0151683316 0.0710321888 0.00184979651 0.0225675181 0.037365891
      0.0207177214 0.00591934891 0.011283759 0.00906400289 0.0103588607
      0.0247872733 0.00795412529 0.00573436916 0.0094339624 0.0168331489
      0.0336662978 0.0186829455 0.0055493894 0.0044395118 0.0190529041
      0.0514243431 0.00776914554 0.0129485754 0.0155382911 0.0188679248
      0.0138734737 0.0155382911 0.0392156877 0.0532741398 0.0238623749
      0.0083240848 0.0362560116 0.020347761 0.0390307084 0.00795412529
      0.00184979651 0.0325564183 0.00295967446 0.034406215 0.011283759</_>
    <_>
      0.0177541059 0.0415002219 0.00443852646 0.0270750113 0.00621393695
      0.0415002219 0.0148690641 0.00310696848 0.00221926323 0.0437194854
      0.0170883276 0.0798934773 0.000887705304 0.0215268545 0.0312916115
      0.0168664008 0.0059920107 0.00887705293 0.00621393695 0.0104305372
      0.0297381282 0.00665778993 0.00532623194 0.00665778993
      0.0157567691 0.0350643583 0.0204172228 0.00421660021 0.00510430569
      0.0181979593 0.043275632 0.00732356869 0.00909897964 0.0146471374
      0.0224145595 0.0153129166 0.0168664008 0.0306258332 0.0645805597
      0.0224145595 0.0110963164 0.0441633388 0.0228584111 0.0388371088
      0.00909897964 0.00288504222 0.0332889482 0.00244118948
      0.0268530846 0.0133155799</_>
    <_>
      0.034557905 0.0420298874 0.0239726026 0.0236612689 0.00435865484
      0.0386052281 0.0152552919 0.00404732255 0.0018679949 0.0504358634
      0.0205479451 0.0407845564 0.000311332493 0.0133872973 0.0280199237
      0.0152552919 0.00809464511 0.0230386052 0.00809464511 0.0146326274
      0.0152552919 0.0130759645 0.00716064731 0.0112079699 0.00684931502
      0.0395392254 0.016500622 0.00435865484 0.0105853043 0.0202366114
      0.0625778288 0.0127646318 0.00996263977 0.0199252795 0.0211706087
      0.00965130702 0.0133872973 0.0470112078 0.0382938981 0.0146326274
      0.0174346194 0.0305105839 0.0177459512 0.0426525511 0.00778331235
      0.000622664986 0.0264632627 0.0037359898 0.0358032361 0.0121419672</_>
    <_>
      0.0552234575 0.0418445803 0.0273270719 0.0259037875 0.00910902396
      0.0401366353 0.00740108173 0.00711642485 0.00455451198
      0.0577853695 0.0213492755 0.0315969251 0.00142328499 0.0233418737
      0.0199259892 0.0202106461 0.00825505331 0.0310276132 0.0108169662
      0.0102476515 0.0165101066 0.0165101066 0.00825505331 0.0187873617
      0.0105323093 0.0281810425 0.0136635359 0.0042698551 0.0207799617
      0.00967833772 0.0603472851 0.0159407929 0.0136635359 0.0182180479
      0.0244805012 0.0111016231 0.0162254497 0.0395673215 0.0247651581
      0.0122402506 0.0185027048 0.0182180479 0.0162254497 0.022487903
      0.00910902396 0.00227725599 0.0233418737 0.00512382574
      0.0372900665 0.00910902396</_>
    <_>
      0.0540603772 0.0311256722 0.0470395498 0.0194242913 0.00748888357
      0.0400187224 0.00982915983 0.00444652466 0.00561666256
      0.0463374667 0.0154458219 0.0297215059 0.00070208282 0.00959513243
      0.0301895626 0.0168499872 0.00561666256 0.0411888584 0.0105312429
      0.0149777671 0.0126374913 0.0222326238 0.00819096621 0.0243388712
      0.00561666256 0.0301895626 0.00865902193 0.0021062484 0.0222326238
      0.012403463 0.0683360621 0.0154458219 0.00631874567 0.018020127
      0.0215305407 0.00819096621 0.0170840155 0.0402527489 0.0262110922
      0.0114673525 0.0205944292 0.0205944292 0.0135736018 0.033465948
      0.00889304932 0.00117013801 0.0318277553 0.00374444178
      0.0351041406 0.00936110411</_>
    <_>
      0.049999997 0.0410256386 0.0458974354 0.0223076921 0.00794871803
      0.0387179479 0.0107692303 0.00333333318 0.00564102549 0.0405128188
      0.0158974361 0.037179485 0.000256410247 0.011282051 0.0258974358
      0.0171794873 0.0105128204 0.0387179479 0.0110256402 0.0164102558
      0.0174358971 0.0202564094 0.00974358898 0.0158974361 0.00923076924
      0.0351282023 0.0115384609 0.00487179449 0.0197435897 0.0117948717
      0.0661538467 0.0128205121 0.00461538462 0.0174358971 0.0166666657
      0.0115384609 0.0151282046 0.0333333313 0.027179487 0.0130769229
      0.0264102556 0.0182051267 0.0130769229 0.0287179481 0.00769230723
      0.00179487176 0.0315384604 0.00358974352 0.0346153826 0.0102564096</_>
    <_>
      0.0475020483 0.0475020483 0.0376740396 0.0182910189 0.0114660114
      0.0352170356 0.00928200968 0.00464100484 0.00273000263
      0.0611520633 0.0125580123 0.0444990434 0.000273000274 0.0128310127
      0.0270270277 0.0139230136 0.00737100746 0.0379470363 0.0114660114
      0.0147420149 0.0133770136 0.0180180185 0.00600600615 0.0199290197
      0.0057330057 0.0322140306 0.00764400791 0.00409500394 0.0193830188
      0.0136500141 0.0775320753 0.0120120123 0.00791700836 0.0166530162
      0.0223860219 0.00873600878 0.014196014 0.0352170356 0.0278460272
      0.00928200968 0.0210210215 0.017745018 0.0103740105 0.0259350259
      0.00600600615 0.000546000549 0.0341250338 0.00327600329
      0.0406770408 0.0103740105</_>
    <_>
      0.0492497124 0.0511735305 0.032704886 0.0138514815 0.005001924
      0.0538668744 0.0111581376 0.00307810702 0.000384763378
      0.0858022347 0.0230858028 0.0373220481 0.000769526756
      0.00884955749 0.037706811 0.00884955749 0.00153905351 0.0257791467
      0.0134667186 0.0161600616 0.0142362453 0.0196229331 0.0057714507
      0.0223162752 0.00769526744 0.0465563685 0.0153905349 0.0042323973
      0.0119276643 0.0123124281 0.0338591784 0.0146210082 0.00384763372
      0.00846479461 0.0134667186 0.0111581376 0.0188534055 0.0261639096
      0.0284724906 0.0142362453 0.020007696 0.020007696 0.0323201232
      0.0265486725 0.00115429016 0.00153905351 0.0257791467 0.0042323973
      0.0438630246 0.0115429014</_>
    <_>
      0.0493224934 0.0466124639 0.0449864492 0.0135501353 0.00650406489
      0.0525745228 0.017344173 0.00271002715 0.00108401082 0.0639566407
      0.0151761509 0.0102981031 0.000542005408 0.00596205937
      0.0308943074 0.00921409205 0.00650406489 0.0401084013 0.0102981031
      0.0140921408 0.00325203245 0.0222222209 0.0151761509 0.0238482375
      0.00325203245 0.0444444418 0.0184281841 0.008130081 0.0151761509
      0.016260162 0.0639566407 0.0227642264 0.00108401082 0.017344173
      0.0102981031 0.00379403774 0.0151761509 0.0276422761 0.0200542007
      0.00596205937 0.017344173 0.0200542007 0.0319783203 0.0292682927
      0.00271002715 0.00216802163 0.0168021675 0.00162601622
      0.0688346848 0.00921409205</_>
    <_>
      0.0586135089 0.0306456406 0.0666468292 0.0104135675 0.00386789651
      0.0470098183 0.0130913416 0.00148765254 0.00505801849 0.0487949997
      0.0196370129 0.0104135675 0.00178518298 0.00267777452 0.0288604572
      0.00922344532 0.00773579301 0.0481999405 0.0148765249 0.0196370129
      0.00148765254 0.0291579887 0.0110086286 0.0294555184 0.00535554904
      0.0419518016 0.0107110981 0.00386789651 0.0240999702 0.0172567684
      0.0490925312 0.0193394814 0.0032728354 0.0169592388 0.0151740555
      0.00743826246 0.0175542999 0.0175542999 0.0190419517 0.0104135675
      0.0297530498 0.0121987499 0.0294555184 0.0360011905 0.00208271341
      0.00119012198 0.0208271351 0.00446295738 0.0583159775
      0.00684320135</_>
    <_>
      0.0544444434 0.0292592589 0.068148151 0.0107407412 0.00333333341
      0.0566666648 0.0129629625 0.0025925925 0.00370370364 0.0466666669
      0.0122222221 0.01037037 0.000740740739 0.00444444455 0.0374074057
      0.0111111114 0.00962962955 0.0381481498 0.00777777797 0.0203703698
      0.0025925925 0.0344444439 0.00777777797 0.0251851846 0.00444444455
      0.0448148139 0.0151851848 0.00444444455 0.0222222228 0.0162962954
      0.0459259264 0.0185185187 0.00111111114 0.0129629625 0.0122222221
      0.00962962955 0.0170370378 0.0137037039 0.0203703698 0.0088888891
      0.0303703696 0.0188888889 0.0337037034 0.0370370373 0.00185185182
      0.00037037037 0.0248148143 0.00148148148 0.0637037009
      0.00925925933</_>
    <_>
      0.0559964702 0.0365961194 0.0268959422 0.0264550261 0.00617283955
      0.0524691343 0.00881834142 0.00264550257 0.00573192211
      0.0586419739 0.0255731922 0.0286596119 0. 0.0114638442
      0.0264550261 0.014991181 0.0101410933 0.042328041 0.014991181
      0.0119047612 0.00617283955 0.0189594347 0.00749559049 0.0343915336
      0.00705467351 0.029100528 0.00881834142 0.00661375653 0.0154320979
      0.01366843 0.0462962948 0.0171957668 0.00352733675 0.0260141082
      0.0180776007 0.0114638442 0.0304232799 0.0352733657 0.0242504403
      0.00881834142 0.014991181 0.0171957668 0.01366843 0.0313051119
      0.00132275128 0.000440917094 0.0339506157 0.00440917071
      0.0392416231 0.00749559049</_>
    <_>
      0.056676276 0.0297790598 0.0630803704 0.0131284026 0.00384245929
      0.0582772978 0.0160102472 0.00224143453 0.00416266406 0.0502721742
      0.0166506562 0.00480307406 0.000320204941 0.00320204953
      0.0349023379 0.0105667626 0.0105667626 0.0467499197 0.00864553358
      0.0217739362 0.00192122965 0.0317002907 0.00960614812 0.0272174198
      0.00576368906 0.0461095124 0.0166506562 0.00544348406 0.0236951653
      0.0188920908 0.047070127 0.0166506562 0.00256163953 0.0118475826
      0.0105667626 0.00544348406 0.0201729108 0.0131284026 0.0179314762
      0.00992635358 0.0284982398 0.0137688126 0.0288184453 0.0371437743
      0.000960614823 0.00128081976 0.0249759853 0.00256163953
      0.0569964796 0.00704450859</_>
    <_>
      0.0566839874 0.0425129905 0.0278696269 0.0269248933 0.00330656581
      0.0510155857 0.00566839846 0.00377893238 0.00614076527
      0.0732168183 0.0283419937 0.022201227 0.00141709961 0.010864431
      0.0269248933 0.0170051958 0.00708549842 0.049598489 0.01369863
      0.00944733061 0.0103920642 0.0188946612 0.00377893238 0.0259801596
      0.00708549842 0.0373169556 0.0179499295 0.00566839846 0.010864431
      0.0127538964 0.0491261221 0.0141709968 0.0118091637 0.0170051958
      0.022201227 0.00944733061 0.0240906943 0.0396787897 0.0231459606
      0.00519603211 0.0184222963 0.0118091637 0.0146433627 0.0311761927
      0.00566839846 0.000472366548 0.0264525265 0.00330656581
      0.0292867254 0.00850259792</_>
    <_>
      0.0406816937 0.0467289723 0.0401319414 0.0120945573 0.00384826818
      0.064321056 0.0126443105 0.00164925784 0.00164925784 0.0626717955
      0.0241891146 0.0148433205 0. 0.00824628957 0.0423309505
      0.0104452996 0.00879604183 0.0329851583 0.0109950528 0.0208905991
      0.00494777365 0.0164925791 0.00329851569 0.02308961 0.0071467841
      0.0533260033 0.00989554729 0.00384826818 0.00989554729
      0.0170423314 0.0450797155 0.0203408469 0.00274876319 0.0203408469
      0.0170423314 0.00659703137 0.0186915882 0.032435406 0.0192413423
      0.011544805 0.015942825 0.0148433205 0.03188565 0.0346344151
      0.00164925784 0.00109950523 0.0241891146 0.00109950523
      0.0560747683 0.0153930727</_>
    <_>
      0.0432066657 0.037480481 0.0458094776 0.0156168668 0.00832899567
      0.0551795959 0.0119729312 0.00312337326 0.00156168663 0.0780843347
      0.0171785541 0.0140551804 0.00104112446 0.00780843338 0.0400832929
      0.012493493 0.00728787109 0.0406038538 0.0182196777 0.0182196777
      0.00520562241 0.0208224896 0.00208224892 0.0218636133
      0.00676730881 0.0510150976 0.0145757422 0.00520562241
      0.00728787109 0.0166579913 0.0390421674 0.0208224896 0.00416449783
      0.0150963049 0.0187402405 0.00728787109 0.0130140558 0.0327954218
      0.0203019269 0.00832899567 0.0187402405 0.0218636133 0.0281103607
      0.0317542963 0.0057261847 0.000520562229 0.0213430505
      0.00104112446 0.0536179096 0.00884955749</_>
    <_>
      0.0503875986 0.0476744175 0.0387596898 0.0162790697 0.00503875967
      0.0550387576 0.0100775193 0.00465116277 0.00310077518 0.0686046481
      0.0220930241 0.0375969 0.000387596898 0.0120155038 0.0344961248
      0.0108527131 0.00581395347 0.0286821704 0.0120155038 0.0120155038
      0.0147286821 0.0170542635 0.00697674416 0.0186046511 0.00387596898
      0.0399224795 0.0143410852 0.00697674416 0.0139534883 0.0170542635
      0.0368217044 0.0162790697 0.00387596898 0.0139534883 0.0186046511
      0.0127906976 0.0189922489 0.0317829475 0.0290697664 0.0147286821
      0.0217054263 0.0174418613 0.0197674409 0.0232558139 0.00310077518
      0.00116279069 0.0290697664 0.00348837208 0.0445736423 0.0104651162</_>
    <_>
      0.0591100976 0.0337771997 0.0633322522 0.0123416688 0.00649561547
      0.052289702 0.0139655732 0.00227346527 0.00357258832 0.0561870709
      0.0136407921 0.0129912309 0.000649561523 0.00259824609
      0.0324780755 0.0120168878 0.00811951887 0.0402728133 0.0139655732
      0.0198116265 0.00389736914 0.0269568041 0.00811951887 0.0253328998
      0.00227346527 0.0409223773 0.0129912309 0.00422214996 0.0240337756
      0.0149399154 0.0519649237 0.0188372843 0.00194868457 0.0204611886
      0.0116921077 0.00746995769 0.01721338 0.0250081178 0.0168885998
      0.0097434232 0.0298798308 0.0116921077 0.0266320221 0.0347515419
      0.00292302691 0.000974342285 0.0207859688 0.00357258832
      0.0571614131 0.00682039605</_>
    <_>
      0.0475206599 0.0355371907 0.0611570254 0.0111570247 0.00247933879
      0.0553718992 0.0136363637 0.00289256196 0.00247933879 0.0644628108
      0.011983471 0.00991735514 0.000413223141 0.00330578513
      0.0392562002 0.00702479342 0.00950413197 0.0421487615 0.0132231405
      0.016942149 0.00165289256 0.0305785127 0.0090909088 0.0231404956
      0.0045454544 0.0466942154 0.0157024786 0.00330578513 0.0256198347
      0.0198347103 0.0400826447 0.0223140493 0.00247933879 0.00950413197
      0.0128099173 0.0045454544 0.0148760332 0.0107438015 0.0157024786
      0.0111570247 0.0338842981 0.0161157027 0.0322314054 0.0363636352
      0.00123966939 0.00123966939 0.026446281 0.0045454544 0.0632231385
      0.00991735514</_>
    <_>
      0.0447193123 0.0442435779 0.0323501416 0.0133206472 0.00380589906
      0.0618458614 0.0199809708 0.0033301618 0.0033301618 0.0694576576
      0.0190294944 0.0114176972 0. 0.00475737359 0.0380589887
      0.0142721217 0.00523311133 0.0342530906 0.0118934345 0.0199809708
      0.0109419599 0.0176022835 0.00523311133 0.0266412944 0.00570884859
      0.0466222651 0.0142721217 0.00666032359 0.0156993344 0.0133206472
      0.0432921015 0.0195052326 0.00475737359 0.0123691717 0.0161750708
      0.00761179812 0.0137963844 0.0290199798 0.025689818 0.00903900992
      0.0190294944 0.0237868689 0.0280685052 0.0328258798 0.0028544243
      0.000951474765 0.0180780198 0.00380589906 0.0618458614
      0.00951474719</_>
    <_>
      0.0451612882 0.0383512527 0.0419354811 0.0103942649 0.0064516128
      0.0559139773 0.0139784943 0.00465949811 0.00394265214 0.0598566271
      0.017921146 0.0154121863 0.00107526872 0.00788530428 0.040501792
      0.0114695337 0.00788530428 0.035842292 0.0103942649 0.0139784943
      0.00716845877 0.0258064512 0.00609318959 0.0232974906
      0.00716845877 0.0426523276 0.0193548389 0.00716845877 0.0161290318
      0.0186379924 0.0354838707 0.0172042996 0.00286738342 0.0193548389
      0.0175627228 0.00788530428 0.0125448024 0.0229390673 0.0243727583
      0.0132616479 0.0243727583 0.0258064512 0.0308243725 0.0333333313
      0.00250896043 0.00143369171 0.0279569887 0.00358422939
      0.0526881702 0.00752688153</_>
    <_>
      0.0257475078 0.0473421924 0.0112126246 0.0365448482 0.0107973423
      0.0440199338 0.0112126246 0.0107973423 0.00539867114 0.0581395328
      0.0166112948 0.0440199338 0. 0.0336378738 0.0286544841
      0.0161960125 0.00830564741 0.0124584716 0.00332225906 0.0116279069
      0.0473421924 0.00581395347 0.00705980044 0.00789036509
      0.0112126246 0.0211794022 0.0220099669 0.00705980044 0.00373754138
      0.0132890362 0.0589700975 0.00705980044 0.01038206 0.0290697664
      0.0191029888 0.00747508276 0.00872092973 0.0336378738 0.0510797314
      0.0207641199 0.00830564741 0.0182724241 0.00830564741 0.0485880375
      0.00581395347 0.000415282382 0.0456810631 0.00249169441
      0.0257475078 0.00747508276</_>
    <_>
      0.0176146775 0.0524770617 0.0055045872 0.0458715595 0.0124770636
      0.045137614 0.023486238 0.0128440363 0.0036697248 0.0605504587
      0.0187155958 0.0352293551 0.0018348624 0.0198165141 0.0249541271
      0.0124770636 0.00403669709 0.00844036695 0.0073394496 0.0128440363
      0.0249541271 0.00844036695 0.00513761444 0.0073394496
      0.00844036695 0.0282568801 0.0289908256 0.0106422016 0.0036697248
      0.0190825686 0.0473394468 0.00880733877 0.00697247684 0.0242201835
      0.0168807339 0.0110091744 0.0161467884 0.0311926603 0.0565137602
      0.0168807339 0.0172477067 0.0374311917 0.0190825686 0.0326605514
      0.00844036695 0.000366972468 0.0344954133 0.00110091735
      0.0333944932 0.00954128429</_>
    <_>
      0.0237410069 0.0213429257 0.00503597129 0.0280575547 0.00623501185
      0.0513189472 0.0124700237 0.0100719426 0.00479616318 0.0443645082
      0.0304556359 0.0431654677 0.00167865714 0.0338129513 0.0350119919
      0.0247002393 0.00815347768 0.0119904075 0.00455635507 0.0115107913
      0.0196642689 0.0117505994 0.00911271013 0.00815347768 0.0124700237
      0.0381294973 0.0244604312 0.00503597129 0.00743405288 0.0148681058
      0.0505995192 0.00503597129 0.0100719426 0.0261390898 0.0136690652
      0.0122302156 0.0235011987 0.0213429257 0.0484412462 0.0208633095
      0.00911271013 0.0362110324 0.0227817744 0.0628297403 0.00503597129
      0.00167865714 0.0292565953 0.00239808159 0.0266187061
      0.00863309391</_>
    <_>
      0.0222748816 0.0225118473 0.00663507078 0.0334123224 0.00616113748
      0.0438388623 0.0144549757 0.00687203789 0.00568720372 0.0419431292
      0.029146919 0.0395734608 0.00142180093 0.0367298573 0.0300947856
      0.0251184832 0.00971563999 0.00995260663 0.00165876769
      0.0130331749 0.020142179 0.00900473911 0.0142180091 0.00876777247
      0.0113744074 0.0348341241 0.0260663498 0.00639810413 0.0040284358
      0.0177725125 0.0509478673 0.00497630332 0.00829383917 0.0279620849
      0.0161137432 0.0106635066 0.0274881516 0.0258293841 0.0464454964
      0.0168246441 0.00734597165 0.036966823 0.0177725125 0.0727488175
      0.00663507078 0.00142180093 0.0327014215 0.00331753539
      0.0263033174 0.00639810413</_>
    <_>
      0.0269041304 0.0485032201 0.00416824548 0.0344827585 0.0132625997
      0.0443349741 0.0174308456 0.0151572563 0.0053050397 0.0557029173
      0.0155361872 0.0413035229 0.00227358844 0.0291777179 0.0325881019
      0.0170519128 0.00644183392 0.0109890103 0.00227358844
      0.00833649095 0.0386510044 0.00947328471 0.00719969673
      0.00757862814 0.0147783253 0.0234937482 0.0204622969 0.00985221658
      0.00719969673 0.0136415306 0.0629026145 0.00492610829
      0.00682076532 0.0303145126 0.0170519128 0.0113679422 0.012125805
      0.0420613848 0.0443349741 0.0181887075 0.0109890103 0.0166729819
      0.00606290251 0.052671466 0.00227358844 0.000378931407
      0.0466085635 0.00151572563 0.0250094719 0.00416824548</_>
    <_>
      0.0234089252 0.0265788827 0.00487685949 0.0297488421 0.00658376003
      0.0419409908 0.0146305775 0.00950987544 0.00414533028 0.0490124375
      0.0299926847 0.0341380164 0.00121921487 0.0292611551 0.0268227253
      0.0199951231 0.00755913183 0.0153621072 0.00560838822 0.0117044626
      0.0229212381 0.00926603284 0.0090221893 0.00829066057 0.0121921487
      0.0363326035 0.0270665698 0.00633991696 0.00536454516 0.0163374785
      0.0492562801 0.00609607436 0.0087783467 0.0292611551 0.0195074379
      0.0090221893 0.0295049995 0.0297488421 0.0419409908 0.0170690082
      0.0109729338 0.0348695442 0.0209704954 0.0646183863 0.00633991696
      0.000975371862 0.0336503275 0.00219458668 0.0287734699
      0.0112167764</_>
    <_>
      0.0300859604 0.0491881557 0.00573065877 0.0191021971 0.00668576872
      0.047755491 0.0253104102 0.00907354336 0.00382043933 0.0620821379
      0.0205348618 0.039637059 0.00620821398 0.0229226351 0.0296084043
      0.0171919763 0.00811843388 0.0152817573 0.00907354336
      0.00716332393 0.0496657118 0.0114613175 0.00907354336 0.0109837633
      0.00859598815 0.0367717296 0.0195797514 0.00382043933
      0.00859598815 0.00907354336 0.0725883469 0.00764087867
      0.00525310403 0.0224450808 0.0219675265 0.00716332393 0.0157593116
      0.0410697237 0.0243553016 0.0195797514 0.0143266479 0.0234001912
      0.00620821398 0.0353390649 0.00907354336 0.000477554917
      0.0248328559 0.00573065877 0.0334288441 0.00716332393</_>
    <_>
      0.0224277452 0.0254335254 0.00578034669 0.0272832364 0.00739884377
      0.0409248546 0.0138728321 0.00994219631 0.00300578028 0.0457803458
      0.0291329473 0.034913294 0.00115606934 0.0272832364 0.0302890167
      0.0231213868 0.010404624 0.0138728321 0.00670520216 0.00924855471
      0.0249710977 0.0078612715 0.0131791905 0.0078612715 0.00994219631
      0.0386127159 0.0256647393 0.00693641603 0.00901734084 0.0164161846
      0.0550289005 0.00439306349 0.00670520216 0.0319075137 0.0108670518
      0.00994219631 0.0215028897 0.0342196524 0.0485549122 0.0173410401
      0.012254335 0.0351445079 0.0189595371 0.0691329464 0.00924855471
      0.00115606934 0.0284393057 0.00277456641 0.0249710977
      0.00901734084</_>
    <_>
      0.0452418067 0.0540821627 0.0124804992 0.0208008308 0.00780031178
      0.0639625564 0.0254810192 0.0135205407 0.00208008313 0.0733229294
      0.0187207479 0.0436817445 0.0114404568 0.0208008308 0.016640665
      0.0140405614 0.00780031178 0.0176807065 0.00676027033 0.0083203325
      0.0208008308 0.00624024961 0.00780031178 0.0150806028 0.0083203325
      0.0306812264 0.0161206443 0.00676027033 0.00728029106
      0.00416016625 0.0691627637 0.00676027033 0.00624024961
      0.0182007272 0.0213208515 0.00988039467 0.0161206443 0.0369214751
      0.0213208515 0.0306812264 0.0156006236 0.0280811228 0.0114404568
      0.0270410813 0.00260010385 0.00364014553 0.0249609984
      0.00468018698 0.0306812264 0.00676027033</_>
    <_>
      0.0318592489 0.053732764 0.00190204475 0.0223490261 0.0109367575
      0.0575368553 0.0128388023 0.0142653361 0.00332857831 0.0737042353
      0.0247265808 0.0489776507 0. 0.0285306722 0.0266286265 0.015216358
      0.0123632904 0.0199714694 0.00951022375 0.00570613425 0.0370898731
      0.00808368996 0.00570613425 0.0114122685 0.00998573471
      0.0294816941 0.0166428909 0.00142653356 0.00665715663
      0.00713266805 0.0651450306 0.0128388023 0.00618164521 0.0194959585
      0.022824537 0.0133143133 0.0194959585 0.0389919169 0.0218735151
      0.0261531156 0.0171184018 0.015216358 0.0118877795 0.0323347598
      0.007608179 0.00142653356 0.0204469804 0.00190204475 0.030432716
      0.007608179</_>
    <_>
      0.0276774969 0.0490373075 0.00722021703 0.0231648628 0.00962695573
      0.0391095094 0.0111311674 0.00722021703 0.00330926594 0.0761131197
      0.0168471728 0.036702767 0.000601684733 0.0264741275 0.0204572808
      0.0204572808 0.00872442871 0.0138387484 0.00391095085 0.0126353791
      0.0303850789 0.0105294827 0.00812274404 0.00722021703
      0.00541516254 0.0373044536 0.0219614934 0.00752105936
      0.00722021703 0.0174488574 0.0538507849 0.00872442871
      0.00752105936 0.0291817095 0.0150421187 0.00992779806 0.0156438034
      0.0309867635 0.0433213003 0.0126353791 0.00691937422 0.0415162481
      0.0228640195 0.0469314083 0.00661853189 0.000300842366
      0.0391095094 0.00180505426 0.0300842375 0.00962695573</_>
    <_>
      0.0252486616 0.0788064301 0.0191277731 0.0198928844 0.00765110925
      0.0566182099 0.0107115535 0.00535577675 0.00229533296 0.091813311
      0.00994644221 0.0573833212 0.0015302219 0.0107115535 0.028309105
      0.00612088758 0.00688599842 0.0244835503 0.00994644221
      0.0114766639 0.0267788824 0.0145371081 0.00382555462 0.0114766639
      0.0130068865 0.0451415442 0.0114766639 0.000765110948 0.0107115535
      0.0153022185 0.0374904349 0.030604437 0.00688599842 0.0114766639
      0.0260137729 0.00765110925 0.00918133184 0.0229533277 0.023718439
      0.0153022185 0.00765110925 0.0244835503 0.0260137729 0.0145371081
      0.00994644221 0.00459066592 0.021423107 0.00612088758 0.0482019894
      0.00841622055</_>
    <_>
      0.0352564119 0.0897435918 0.0320512839 0.0138888899 0.00320512848
      0.0480769239 0.0128205139 0. 0. 0.137820527 0.0138888899
      0.0384615399 0. 0.00106837612 0.020299146 0.00427350448
      0.00320512848 0.020299146 0.010683761 0.00747863296 0.00961538497
      0.011752137 0.00427350448 0.0138888899 0.00641025696 0.0384615399
      0.010683761 0.00106837612 0.0128205139 0.0128205139 0.0512820557
      0.023504274 0.00427350448 0.00534188049 0.0160256419 0.00534188049
      0.00961538497 0.0587606877 0.0192307699 0.00534188049 0.010683761
      0.0256410278 0.0384615399 0.010683761 0.00961538497 0.00106837612
      0.010683761 0.00427350448 0.0630341917 0.0128205139</_>
    <_>
      0.0379596688 0.0877817348 0.0486358255 0.00830367766 0.00118623965
      0.0450771078 0.0094899172 0. 0.00118623965 0.145907477
      0.00593119813 0.0581257418 0.00118623965 0.0023724793 0.0189798344
      0.00355871907 0.0023724793 0.0213523135 0.0118623963 0.0118623963
      0.0118623963 0.0142348763 0.00118623965 0.0047449586 0.0094899172
      0.0308422316 0.00355871907 0.00118623965 0.0106761567 0.0047449586
      0.0593119822 0.0260972716 0.00830367766 0.00355871907 0.0166073553
      0.00593119813 0.0130486358 0.0759193376 0.0201660749 0.0106761567
      0.0142348763 0.0154211158 0.0320284702 0.00830367766 0.0154211158
      0.00118623965 0.0106761567 0.0047449586 0.0355871879 0.00711743813</_>
    <_>
      0.0505508743 0.029163966 0.0382371992 0.0142579386 0.00259235245
      0.068049252 0.0110174976 0.000648088113 0.00388852879 0.0745301321
      0.0149060264 0.0220349953 0. 0.0051847049 0.0466623455
      0.00777705759 0.00583279319 0.0375891104 0.0110174976 0.0136098508
      0.00842514541 0.0187945552 0.0051847049 0.0246273484 0.00388852879
      0.045366168 0.00388852879 0.000648088113 0.0155541152 0.0149060264
      0.0596241057 0.0200907309 0.0116655864 0.012961762 0.0149060264
      0.00648088101 0.012961762 0.0369410217 0.0110174976 0.00648088101
      0.0278677884 0.019442644 0.0388852879 0.0246273484 0.00777705759
      0. 0.0174983796 0.00324044051 0.061568372 0.0071289693</_>
    <_>
      0.0252844505 0.0986093581 0.050568901 0.00632111263 0.
      0.0455120131 0.00505689019 0. 0.0025284451 0.156763598
      0.00505689019 0.0379266776 0.00126422255 0.00632111263
      0.0240202285 0.00505689019 0.00379266776 0.0265486743 0.015170671
      0.00884955749 0.00884955749 0.016434893 0.00126422255 0.0139064481
      0.0025284451 0.0316055641 0.00505689019 0. 0.0139064481
      0.00379266776 0.0594184585 0.015170671 0.00884955749 0.00379266776
      0.0214917827 0.00379266776 0.00505689019 0.0884955749 0.016434893
      0.0101137804 0.00758533552 0.0214917827 0.0265486743 0.0101137804
      0.0139064481 0.00126422255 0.0240202285 0.00126422255 0.032869786
      0.00632111263</_>
    <_>
      0.0420168042 0.0924369693 0.0552220866 0.00960384123 0.00120048015
      0.0420168042 0.012004802 0.00120048015 0.00240096031 0.135654256
      0.006002401 0.0408163257 0. 0.00840336084 0.0324129649
      0.00360144046 0.00360144046 0.0276110433 0.00720288092 0.012004802
      0.00720288092 0.00720288092 0.00360144046 0.0144057618
      0.00240096031 0.0360144041 0.00360144046 0. 0.00960384123
      0.00240096031 0.0732292905 0.0228091236 0.006002401 0.00480192062
      0.0144057618 0.006002401 0.00720288092 0.0816326514 0.012004802
      0.00360144046 0.0144057618 0.0180072021 0.0312124845 0.0108043216
      0.0132052815 0. 0.00960384123 0.00360144046 0.0420168042
      0.00360144046</_>
    <_>
      0.0459110476 0.0401721671 0.0301291253 0.0222381633 0.00286944048
      0.0638450533 0.0114777619 0.00286944048 0.00215208041 0.0760401711
      0.0136298425 0.0243902449 0. 0.00645624101 0.0358680077
      0.00430416083 0.00502152089 0.0380200855 0.0114777619 0.0186513625
      0.0107604014 0.0157819223 0.00645624101 0.0215208028 0.00502152089
      0.0416068882 0.00573888095 0.00215208041 0.00860832166
      0.0100430418 0.0645624101 0.0222381633 0.00502152089 0.0143472021
      0.0251076035 0.00932568125 0.0114777619 0.050215207 0.0107604014
      0.0100430418 0.0229555238 0.0200860836 0.0322812051 0.0215208028
      0.00860832166 0.000717360119 0.0172166433 0.00358680054
      0.0566714481 0.0100430418</_>
    <_>
      0.0415890776 0.142768472 0.045934204 0.0142768472 0.00310366252
      0.0391061455 0.011793917 0.00248292997 0.00186219742 0.114214778
      0.011173185 0.00496585993 0. 0.00806952268 0.0341402888
      0.00682805758 0.00496585993 0.0273122303 0.00806952268
      0.0105524519 0.00248292997 0.0180012416 0.00744878966 0.0142768472
      0.00496585993 0.0304158926 0.00806952268 0.00248292997
      0.0124146501 0.011793917 0.0490378663 0.0155183123 0.00372439483
      0.00682805758 0.0198634397 0.00434512738 0.00931098778
      0.0589695871 0.0211049039 0.00806952268 0.0148975793 0.0136561152
      0.0217256378 0.022967102 0.00434512738 0. 0.0142768472
      0.00248292997 0.0515207984 0.011793917</_>
    <_>
      0.0476787947 0.120451689 0.0376411527 0.0169385187 0.00250941026
      0.0395232104 0.0125470515 0.00250941026 0.00376411527 0.151819319
      0.00941028818 0.0131744035 0. 0.00941028818 0.0282308646
      0.00941028818 0.00564617291 0.0326223336 0.0106649939 0.0138017563
      0.00376411527 0.0150564611 0.00313676288 0.0156838149
      0.00501882052 0.0269761607 0.00627352577 0.00250941026
      0.0163111668 0.0106649939 0.0520702638 0.0131744035 0.00376411527
      0.0081555834 0.0244667493 0.00627352577 0.00878293626 0.0526976138
      0.0119196987 0.00376411527 0.0144291092 0.0119196987 0.0163111668
      0.0138017563 0.00564617291 0.00125470513 0.020702634 0.00188205764
      0.0483061485 0.00752823055</_>
    <_>
      0.0274086371 0.0722591355 0.0107973423 0.0174418595 0.00498338882
      0.0365448482 0.00996677764 0.00166112953 0.00332225906
      0.0888704285 0.0132890362 0.0232558139 0. 0.0132890362
      0.0307308957 0.0157807302 0.00498338882 0.0265780725 0.0141196009
      0.0199335553 0.0182724241 0.0124584716 0.00415282371 0.0141196009
      0.00498338882 0.0498338863 0.00830564741 0.00166112953
      0.00913621206 0.0132890362 0.080564782 0.0182724241 0.00332225906
      0.0224252492 0.0240863785 0.00664451811 0.00747508276 0.0672757477
      0.0199335553 0.0107973423 0.0141196009 0.0199335553 0.0299003311
      0.0232558139 0.000830564764 0.000830564764 0.0141196009
      0.00332225906 0.0548172742 0.00664451811</_>
    <_>
      0.0238095243 0.105222732 0.00768049154 0.0153609831 0.00384024577
      0.0437788032 0.0115207378 0.00153609831 0.00537634408 0.132872507
      0.0130568352 0.0284178182 0.000768049154 0.00537634408 0.03763441
      0.0130568352 0.00537634408 0.017665131 0.00998463854 0.0168970823
      0.0153609831 0.0145929344 0.00460829493 0.0145929344 0.00384024577
      0.0506912433 0.0161290318 0.00230414746 0.00921658985
      0.00921658985 0.0829493105 0.0168970823 0.00691244239 0.0115207378
      0.0253456216 0.00307219662 0.00844854116 0.046850998 0.00998463854
      0. 0.0153609831 0.017665131 0.0192012284 0.0230414756
      0.000768049154 0.000768049154 0.0130568352 0.000768049154
      0.0506912433 0.00691244239</_>
    <_>
      0.0358778611 0.0793893114 0.0145038171 0.00839694683 0.00305343512
      0.048854962 0.00839694683 0.00229007634 0.00305343512 0.0877862573
      0.00992366392 0.0419847332 0. 0.0175572522 0.0251908395
      0.0053435117 0.0053435117 0.0190839693 0.00992366392 0.0175572522
      0.00916030537 0.0114503819 0.00763358781 0.00916030537
      0.0053435117 0.0412213728 0.00992366392 0.00152671756
      0.00305343512 0.00916030537 0.0786259547 0.0190839693 0.0122137405
      0.0145038171 0.0335877873 0.00610687025 0.00839694683 0.0900763348
      0.0221374054 0.00839694683 0.0152671756 0.0198473278 0.0190839693
      0.0190839693 0.00305343512 0.000763358781 0.0198473278
      0.00381679391 0.0450381674 0.00992366392</_>
    <_>
      0.0458015278 0.0893129781 0.0419847332 0.0198473278 0.00229007634
      0.0458015278 0.00992366392 0.00229007634 0.00916030537
      0.0862595439 0.0106870234 0.0259541981 0.000763358781
      0.00610687025 0.0259541981 0.00839694683 0.00610687025
      0.0297709927 0.0145038171 0.0145038171 0.0106870234 0.0229007639
      0.00229007634 0.0305343512 0.00916030537 0.0351145044
      0.00992366392 0.00229007634 0.00916030537 0.00610687025
      0.0549618304 0.0198473278 0.00305343512 0.0114503819 0.0160305351
      0.0053435117 0.0122137405 0.073282443 0.0160305351 0.00763358781
      0.0167938937 0.0145038171 0.0259541981 0.0198473278 0.000763358781
      0.000763358781 0.0145038171 0. 0.0473282449 0.00610687025</_>
    <_>
      0.0452046432 0.115455106 0.0329871736 0.0201588273 0.00366524141
      0.0427611507 0.0116065983 0.00183262071 0.00183262071 0.110568114
      0.00733048283 0.0116065983 0. 0.0109957242 0.0250458159
      0.0103848502 0.00610873569 0.0250458159 0.00671960926 0.0158827119
      0.00427611498 0.0116065983 0.00427611498 0.0134392185
      0.00122174714 0.0421502776 0.0128283445 0.00366524141 0.0122174714
      0.0146609657 0.0574221164 0.017715333 0.00305436784 0.0103848502
      0.0164935868 0.00305436784 0.00610873569 0.0574221164 0.0201588273
      0.00733048283 0.0213805754 0.0134392185 0.0232131965 0.0293219313
      0.00610873569 0. 0.0189370811 0.00122174714 0.0543677472
      0.00733048283</_>
    <_>
      0.0291525424 0.115254238 0.0108474577 0.0108474577 0.00406779675
      0.0447457619 0.00745762698 0.00271186442 0.00406779675 0.125423729
      0.0155932205 0.0244067796 0. 0.0108474577 0.0271186437
      0.0108474577 0.00881355908 0.0196610168 0.00949152559 0.0135593219
      0.0216949154 0.0101694912 0.00542372884 0.0183050856 0.00881355908
      0.0420338996 0.0047457628 0. 0.00745762698 0.00881355908
      0.0799999982 0.0183050856 0.0047457628 0.0155932205 0.0210169498
      0.00542372884 0.00745762698 0.0522033907 0.0128813563
      0.00610169489 0.0128813563 0.0210169498 0.0216949154 0.0291525424
      0.00271186442 0. 0.0155932205 0.00271186442 0.0433898307
      0.0047457628</_>
    <_>
      0.0456249975 0.0493749976 0.0456249975 0.0218749996 0.00562499976
      0.0399999991 0.00875000004 0.00437500002 0.00124999997
      0.0668749958 0.015625 0.0249999985 0. 0.00499999989 0.03125
      0.0143749993 0.00437500002 0.0356249996 0.0118749999 0.0112499995
      0.0131249996 0.0218749996 0.00562499976 0.0212500002 0.00687499996
      0.0425000004 0.00687499996 0.00437500002 0.0149999997 0.0149999997
      0.0731249973 0.0231250003 0.00624999963 0.0143749993 0.0268749986
      0.00749999983 0.0168749988 0.0437499993 0.0199999996 0.00999999978
      0.0193750001 0.0199999996 0.0175000001 0.022499999 0.00312499981
      0.000624999986 0.0281249993 0.00187499996 0.0443749987
      0.00437500002</_>
    <_>
      0.0444915257 0.0525423735 0.023728814 0.0254237279 0.00847457629
      0.0427966081 0.0131355934 0.00381355919 0.00211864407 0.0644067824
      0.0105932206 0.0385593213 0.000423728809 0.0169491526 0.0220338982
      0.0152542368 0.00508474559 0.0288135596 0.0080508478 0.0161016956
      0.0161016956 0.0203389823 0.00593220349 0.0216101687 0.0122881355
      0.0275423732 0.0101694912 0.00423728814 0.0135593219 0.0110169491
      0.0915254205 0.0139830504 0.00635593198 0.0139830504 0.0250000004
      0.0122881355 0.00889830478 0.0453389809 0.0258474573 0.0131355934
      0.0203389823 0.023728814 0.0148305083 0.0203389823 0.00550847454
      0.0012711864 0.0258474573 0.00423728814 0.0330508463 0.00889830478</_>
    <_>
      0.0564024374 0.0462398343 0.040650405 0.0294715427 0.00609756075
      0.0442073159 0.0111788614 0.00355691044 0.00660569081 0.0619918667
      0.0152439019 0.0284552835 0. 0.00914634112 0.0223577227
      0.0157520324 0.00762195094 0.0411585346 0.0132113816 0.0121951215
      0.0152439019 0.016260162 0.00508130062 0.0167682916 0.00254065031
      0.0340447128 0.00711382087 0.00508130062 0.016260162 0.00762195094
      0.0848577172 0.016260162 0.00660569081 0.0147357713 0.0259146336
      0.0106707308 0.0127032511 0.0386178866 0.0233739838 0.0132113816
      0.016260162 0.0279471539 0.0167682916 0.0218495931 0.0040650405
      0.00101626012 0.0279471539 0.00254065031 0.0330284536 0.0040650405</_>
    <_>
      0.0564938858 0.0582411177 0.0297029708 0.0349446721 0.00291205593
      0.0384391397 0.0075713452 0.00174723356 0.00349446712 0.0669772848
      0.0157251023 0.0250436813 0. 0.00698893424 0.0262085032
      0.0133954575 0.00698893424 0.0407687835 0.0180547461 0.0116482237
      0.0139778685 0.0116482237 0.00873616803 0.018637158 0.00349446712
      0.0302853808 0.00349446712 0.00232964475 0.0180547461 0.0110658128
      0.0943506137 0.0232964475 0.0110658128 0.0198019799 0.0227140356
      0.00407687854 0.0122306347 0.0419336036 0.0238788594 0.0128130466
      0.0180547461 0.0209668018 0.0075713452 0.0250436813 0.00174723356
      0.00116482237 0.0337798484 0.00407687854 0.0285381489
      0.00582411187</_>
    <_>
      0.0436681248 0.111790396 0.0279475991 0.0209606998 0.00218340615
      0.0314410478 0.00960698724 0.00218340615 0. 0.138427958
      0.00917030592 0.0301310048 0.000436681235 0.00960698724
      0.0213973802 0.0117903929 0.0043668123 0.0310043674 0.0126637556
      0.0109170312 0.0148471622 0.0144104809 0.00349344988 0.0109170312
      0.00655021844 0.0371179059 0.00655021844 0.00480349362
      0.0148471622 0.00960698724 0.0506550223 0.0152838435 0.0126637556
      0.0117903929 0.0288209617 0.0100436686 0.00655021844 0.0379912667
      0.0213973802 0.0100436686 0.0117903929 0.0288209617 0.0152838435
      0.0152838435 0.0043668123 0.00174672494 0.0144104809 0.00218340615
      0.039737992 0.00829694327</_>
    <_>
      0.0503027476 0.0414531901 0.0484396815 0.0242198408 0.00512342807
      0.0465766191 0.0111783883 0.00605496019 0.00232883077 0.0437820219
      0.0153702842 0.0242198408 0.000465766178 0.0130414534 0.0326036327
      0.00791802537 0.00558919413 0.0367955267 0.00931532308
      0.0144387512 0.0116441548 0.0186306462 0.0107126217 0.0195621792
      0.00512342807 0.0377270617 0.0125756869 0.00745225884 0.0149045177
      0.0139729856 0.0656730309 0.0186306462 0.00558919413 0.0125756869
      0.0209594779 0.00931532308 0.0158360507 0.039590124 0.0260829069
      0.00791802537 0.0232883096 0.0163018163 0.0111783883 0.0344666988
      0.00279459707 0.000465766178 0.0367955267 0.00139729853
      0.0503027476 0.00931532308</_>
    <_>
      0.0491990857 0.0480549224 0.0320366137 0.0305110607 0.00343249436
      0.0385202132 0.011441648 0.00533943577 0.00381388259 0.0633104518
      0.018688025 0.0297482852 0.00114416482 0.0125858132 0.0217391308
      0.0152555304 0.00915331859 0.0339435562 0.00915331859
      0.00915331859 0.00724637695 0.0198321901 0.0045766593 0.0202135779
      0.00839054212 0.0339435562 0.00991609506 0.00343249436 0.017162472
      0.0118230358 0.0819984749 0.0160183068 0.00648360047 0.0163996946
      0.0305110607 0.00839054212 0.0156369191 0.0472921431 0.0236460716
      0.0122044245 0.0217391308 0.0179252476 0.0102974828 0.024408849
      0.00800915342 0.0019069413 0.0369946621 0.00152555306 0.0305110607
      0.00533943577</_>
    <_>
      0.032973282 0.0932347924 0.016486641 0.0363843106 0.00284252432
      0.0346787944 0.00568504864 0.000568504853 0.00113700971
      0.108015925 0.00795906782 0.0238772035 0.000568504853
      0.00568504864 0.0176236499 0.0108015919 0.00227401941 0.0181921553
      0.0119386017 0.0113700973 0.006822058 0.0108015919 0.003411029
      0.00909607764 0.00739056291 0.0295622516 0.006822058 0.00284252432
      0.0108015919 0.006822058 0.117680505 0.0244457088 0.0142126214
      0.0159181356 0.0278567374 0.00454803882 0.00227401941 0.100056857
      0.0204661749 0.00397953391 0.0108015919 0.00966458209
      0.00739056291 0.0193291642 0.00966458209 0.00113700971 0.032973282
      0.00284252432 0.0352472998 0.00284252432</_>
    <_>
      0.0320945941 0.0816441476 0.0253378376 0.0349099115 0.00619369373
      0.0292792805 0.00731982011 0.000563063077 0.00168918923
      0.105292797 0.0123873875 0.0247747749 0. 0.0146396402 0.0242117122
      0.0084459465 0.00506756781 0.0213963967 0.011261262 0.0084459465
      0.00788288284 0.0123873875 0.00112612615 0.015202703 0.00450450461
      0.0253378376 0.0106981983 0.005630631 0.0101351356 0.00957207195
      0.111486487 0.0219594594 0.0135135138 0.0236486495 0.0197072085
      0.0028153155 0.00731982011 0.0951576605 0.0259009022
      0.000563063077 0.011261262 0.0118243247 0.00450450461 0.0275900904
      0.00506756781 0.000563063077 0.0219594594 0.0028153155
      0.0298423432 0.00506756781</_>
    <_>
      0.0329241082 0.101562507 0.0212053582 0.0301339291 0.00446428591
      0.0251116082 0.0078125 0.00223214296 0.000558035739 0.0937500075
      0.00613839319 0.0256696437 0.00167410728 0.0128348218 0.0239955373
      0.0128348218 0.00502232183 0.01953125 0.00892857183 0.0100446437
      0.0106026791 0.015625 0.00613839319 0.0117187509 0.00446428591
      0.0223214291 0.00725446455 0.00167410728 0.0111607146 0.0078125
      0.121651791 0.0200892873 0.0122767864 0.0150669646 0.0217633937
      0.00502232183 0.0100446437 0.0987723246 0.0212053582 0.00334821455
      0.0117187509 0.00948660728 0.00892857183 0.0228794646
      0.00446428591 0.00111607148 0.0279017873 0.00167410728
      0.0323660746 0.00502232183</_>
    <_>
      0.0419080071 0.0463373102 0.0170357749 0.0248722322 0.00647359481
      0.0531516224 0.0149914827 0.00647359481 0.00511073275 0.0586030707
      0.0156729147 0.0316865444 0.000681431033 0.0149914827 0.0344122685
      0.0170357749 0.00545144826 0.0272572413 0.0105621815 0.0122657586
      0.0143100517 0.021805793 0.00442930171 0.0115843276 0.00681431033
      0.0425894409 0.0173764918 0.0102214655 0.0139693357 0.0146507677
      0.0463373102 0.0122657586 0.00579216378 0.0143100517 0.0235093702
      0.0105621815 0.0180579219 0.021805793 0.0350936987 0.0102214655
      0.0170357749 0.0279386714 0.0163543448 0.0480408892 0.00442930171
      0.00102214655 0.0340715498 0.00170357758 0.0381601378 0.0105621815</_>
    <_>
      0.0379823744 0.0410209671 0.0209662709 0.0246125795 0.00911577046
      0.0531753264 0.0176238231 0.00425402634 0.00486174412 0.0486174412
      0.0161045268 0.0276511703 0.000607718015 0.0118505014 0.0316013359
      0.0139775146 0.00790033396 0.0255241562 0.0124582192 0.013065937
      0.0124582192 0.0185353998 0.0054694619 0.0133697968 0.00698875729
      0.0401093885 0.0164083857 0.00820419285 0.0139775146 0.0161045268
      0.0419325419 0.0133697968 0.00455788523 0.0167122446 0.0237010028
      0.0112427836 0.0221817084 0.0288666058 0.0343360677 0.0121543603
      0.0209662709 0.0258280151 0.0145852324 0.0513521731 0.00486174412
      0.00151929504 0.0391978137 0.00455788523 0.0404132493 0.013065937</_>
    <_>
      0.0359729044 0.0380752161 0.0177528616 0.0336370021 0.0123802852
      0.0170520898 0.00420462526 0.00420462526 0.00280308351
      0.0385423973 0.0364400856 0.064470917 0.00163513201 0.015650548
      0.0198551733 0.0149497781 0.00747488905 0.0289651956 0.00677411817
      0.00467180554 0.0151833687 0.0137818269 0.0044382154 0.00934361108
      0.00700770831 0.0114459237 0.0121466946 0.0327026397 0.00747488905
      0.00327026402 0.104181267 0.00630693743 0.0102779726 0.0128474655
      0.0263957027 0.0306003261 0.0221910775 0.0640037358 0.024994161
      0.010044382 0.0091100214 0.0121466946 0.00654052803 0.00957720168
      0.0207895357 0.000233590283 0.0836253241 0.00233590277
      0.0151833687 0.00630693743</_>
    <_>
      0.037649218 0.089990817 0.0247933883 0.0101010101 0.00275482098
      0.0459136814 0.0064279153 0.000918273639 0.000918273639
      0.114784203 0.0119375577 0.0202020202 0.000918273639 0.0119375577
      0.0303030293 0.00459136814 0.00367309456 0.037649218 0.0174471997
      0.00734618912 0.0183654726 0.0211202931 0.00734618912 0.015610652
      0.0064279153 0.0514233224 0.0119375577 0.00183654728 0.0174471997
      0.0110192839 0.052341599 0.026629936 0.000918273639 0.00826446246
      0.015610652 0.00459136814 0.0119375577 0.0422405861 0.015610652
      0.0119375577 0.0110192839 0.0202020202 0.026629936 0.0220385678
      0.00550964195 0.00183654728 0.0192837473 0.00367309456
      0.0486685038 0.00826446246</_>
    <_>
      0.0437625721 0.0533199161 0.0417505018 0.0558350086 0.00503018079
      0.0331991948 0.00402414473 0.00301810866 0.00201207236
      0.0593561344 0.00704225339 0.0482897386 0.000503018091
      0.0125754522 0.0216297787 0.0115694162 0.00402414473 0.0326961763
      0.0100603616 0.0140845068 0.0176056325 0.018108651 0.00553319883
      0.0160965789 0.0025150904 0.0367203206 0.00754527142 0.0025150904
      0.0160965789 0.0125754522 0.0679074451 0.0120724346 0.0125754522
      0.00855130795 0.0311871208 0.0100603616 0.0130784707 0.0643863156
      0.0206237417 0.00804828946 0.0160965789 0.018108651 0.0171026159
      0.0196177047 0.00553319883 0.00100603618 0.0316901393
      0.00201207236 0.0352112651 0.00603621732</_>
    <_>
      0.0496632978 0.0433501676 0.052609425 0.0475589223 0.00505050505
      0.0357744098 0.00841750856 0.00252525252 0.00631313119 0.048400674
      0.013888889 0.0441919193 0. 0.0122053865 0.0189393926 0.0122053865
      0.00420875428 0.0378787853 0.00715488195 0.013888889 0.0109427609
      0.0214646459 0.00799663272 0.0218855217 0.00336700329 0.0214646459
      0.00715488195 0.00210437714 0.0197811443 0.0130471373 0.0677609444
      0.0117845116 0.0122053865 0.00968013424 0.0324074067 0.00968013424
      0.013888889 0.0677609444 0.0172558911 0.00968013424 0.0197811443
      0.0155723905 0.0134680131 0.0231481474 0.00715488195 0.00168350164
      0.0336700343 0.00210437714 0.0324074067 0.00547138043</_>
    <_>
      0.041122973 0.0778964013 0.0316330567 0.0328192972 0.00237247907
      0.0320284702 0.0106761567 0.00276789232 0.00118623953 0.0822459459
      0.0150257014 0.023329379 0. 0.00988532975 0.0260972716 0.017002767
      0.00830367673 0.0288651641 0.0122578088 0.0114669828 0.0130486358
      0.0189798325 0.00514037162 0.0166073535 0.00593119813 0.0351917744
      0.00909450371 0.00395413209 0.0142348753 0.0118623963 0.0624752864
      0.0146302879 0.00672202418 0.0253064446 0.0304468162 0.00553578464
      0.0154211149 0.0537761934 0.0162119418 0.00790826418 0.0150257014
      0.0229339655 0.0114669828 0.0312376432 0.00514037162 0.00197706604
      0.023329379 0.000790826394 0.0383550785 0.0102807432</_>
    <_>
      0.0463678502 0.0772797465 0.031839259 0.0259659961 0.00587326102
      0.0401854701 0.00989180803 0.00370942801 0.00278207101
      0.0707882494 0.012055641 0.0346213281 0.000618238002 0.012982998
      0.0191653781 0.012673879 0.00896445103 0.0309119001 0.00989180803
      0.00989180803 0.013910355 0.0182380211 0.00587326102 0.011128284
      0.00587326102 0.0361669213 0.010200927 0.00309119001 0.014528593
      0.011746522 0.0748067945 0.0166924261 0.00587326102 0.0194744971
      0.0234930441 0.00494590402 0.011128284 0.0581143722 0.0194744971
      0.00741885602 0.014837712 0.0281298291 0.014219474 0.0272024721
      0.00587326102 0.00154559501 0.0182380211 0.00278207101 0.036785163
      0.011746522</_>
    <_>
      0.0422594137 0.0803347304 0.0414225943 0.0301255248 0.00418410078
      0.0368200839 0.0096234316 0.00209205039 0.000836820109
      0.0853556544 0.0117154811 0.0259414241 0.000418410054
      0.00920502096 0.0284518842 0.0142259421 0.00836820155 0.035146445
      0.0096234316 0.0096234316 0.0117154811 0.0175732225 0.00543933082
      0.0125523014 0.00502092065 0.0359832644 0.010460251 0.00251046033
      0.0133891217 0.0100418413 0.0669456124 0.0175732225 0.00502092065
      0.0267782435 0.0355648547 0.00836820155 0.012970712 0.0556485355
      0.0125523014 0.00753138121 0.0121338917 0.0196652729 0.0117154811
      0.0301255248 0.00251046033 0.00292887026 0.0200836826
      0.00125523016 0.0317991637 0.00836820155</_>
    <_>
      0.0384091511 0.0672841147 0.0215200223 0.017978752 0.00435848534
      0.0435848534 0.0117134294 0.00190683734 0.00354126934 0.0618360117
      0.013075456 0.0264233164 0.000544810668 0.00844456535 0.0280577503
      0.0168891307 0.00817216001 0.0223372374 0.0103514027 0.013892672
      0.00953418668 0.015527104 0.00817216001 0.017978752 0.00572051201
      0.0416780151 0.0133478614 0.00217924267 0.0136202667 0.0144374827
      0.067011714 0.0157995094 0.00544810668 0.0234268587 0.0185235627
      0.00898937602 0.015527104 0.0566603094 0.0247888863 0.013075456
      0.0160719156 0.0247888863 0.013075456 0.0310542081 0.00517570134
      0.00136202667 0.0264233164 0.00435848534 0.0506673902 0.0152546987</_>
    <_>
      0.0508403368 0.0289915968 0.0966386572 0.0138655463 0.0063025211
      0.0495798327 0.00756302522 0.00336134457 0.0063025211 0.0516806729
      0.0184873957 0.00672268914 0.000840336143 0.00714285718
      0.0268907566 0.0168067235 0.00588235306 0.0373949595 0.0142857144
      0.0163865555 0.0117647061 0.0252100844 0.00840336177 0.0340336151
      0.00798319373 0.032773111 0.0130252102 0.00462184893 0.0260504205
      0.0117647061 0.0508403368 0.0193277318 0.00252100849 0.0117647061
      0.021428572 0.0117647061 0.0163865555 0.021428572 0.0155462185
      0.00882352982 0.0306722689 0.0126050422 0.0176470596 0.0256302524
      0.00756302522 0.00126050424 0.0315126069 0.00294117653 0.042857144
      0.00588235306</_>
    <_>
      0.0694384873 0.0287183877 0.0870124325 0.0141448779 0.00600085733
      0.0488641225 0.0064294897 0.00342906127 0.0047149593 0.0492927544
      0.0210030004 0.0115730818 0. 0.00342906127 0.0282897558
      0.016716674 0.00771538774 0.0454350635 0.0124303475 0.016716674
      0.0102871843 0.0312901847 0.00857265294 0.0274324901 0.0081440201
      0.0295756534 0.0081440201 0.00257179607 0.0265752245 0.0128589794
      0.0531504489 0.0188598372 0.00685812254 0.0128589794 0.0227175318
      0.0094299186 0.0158594083 0.024860695 0.0175739396 0.0137162451
      0.0235747956 0.0171453059 0.0184312034 0.0188598372 0.00600085733
      0.00171453063 0.024860695 0.00385769387 0.0381483063 0.0047149593</_>
    <_>
      0.042138122 0.0799843967 0.0386266112 0.0331642628 0.00273117446
      0.0327740945 0.00780335581 0.0039016779 0.00156067114 0.0850565806
      0.0163870472 0.0292625837 0. 0.00975419488 0.0265314095
      0.0136558721 0.00663285237 0.029652752 0.0136558721 0.0113148661
      0.0132657047 0.0156067116 0.00624268455 0.015996879 0.00585251674
      0.0331642628 0.0113148661 0.00234100665 0.0109246979 0.0109246979
      0.0682793632 0.014826376 0.007413188 0.0273117442 0.0335544311
      0.007413188 0.0120952018 0.0518923141 0.0179477185 0.00897385925
      0.015996879 0.0183378868 0.0113148661 0.0261412412 0.00507218111
      0.00156067114 0.0230198987 0.000390167785 0.0292625837
      0.00897385925</_>
    <_>
      0.045569621 0.0784810111 0.0405063294 0.0240506325 0.00295358663
      0.03164557 0.0113924053 0.00337552745 0.000421940931 0.0827004239
      0.0105485236 0.0215189867 0.000421940931 0.00590717327
      0.0232067518 0.0130801685 0.0067510549 0.0345991552 0.010970464
      0.010970464 0.0101265823 0.0198312234 0.00759493653 0.0181434602
      0.00506329117 0.0379746854 0.0113924053 0.00168776372 0.0151898731
      0.010970464 0.0717299581 0.0185654014 0.00506329117 0.026160337
      0.0320675112 0.00886075944 0.0101265823 0.0535864979 0.0168776363
      0.00801687781 0.0189873427 0.0227848105 0.00801687781 0.0286919829
      0.00337552745 0.00126582279 0.0215189867 0.00253164559
      0.0375527442 0.00717299571</_>
    <_>
      0.0652699471 0.026188558 0.0995165184 0.0149073331 0.00402900903
      0.0495568104 0.0100725219 0. 0.00443190988 0.0410958901
      0.0157131348 0.0153102335 0. 0.00483481074 0.0302175656
      0.0104754232 0.00886381976 0.043110393 0.0157131348 0.0157131348
      0.0112812249 0.0298146661 0.00725221587 0.026188558 0.00805801805
      0.0342465751 0.00805801805 0.00161160354 0.0306204669 0.0108783236
      0.0584206283 0.0201450437 0.00644641416 0.0116841253 0.0173247382
      0.00765511673 0.0189363416 0.0201450437 0.0185334403 0.0149073331
      0.0322320722 0.0157131348 0.0177276395 0.0221595485 0.00765511673
      0.00080580177 0.0217566472 0.00161160354 0.0358581804
      0.00725221587</_>
    <_>
      0.0483749062 0.095238097 0.0211640224 0.0253212396 0.00491307629
      0.0313681029 0.0113378689 0.0026455028 0.000755857909 0.0793650821
      0.0181405898 0.0306122452 0. 0.0151171582 0.0219198801 0.01095994
      0.00755857909 0.0302343164 0.00377928955 0.0113378689 0.0166288745
      0.0139833717 0.00793650839 0.0139833717 0.00869236607 0.0366591103
      0.00869236607 0.00302343164 0.0143613005 0.00944822375
      0.0718064979 0.0124716554 0.00453514745 0.0192743763 0.0241874531
      0.0105820112 0.0132275131 0.0585789867 0.0185185187 0.0117157977
      0.0124716554 0.0204081628 0.015495087 0.0279667433 0.00377928955
      0.00151171582 0.0185185187 0.00302343164 0.0343915336 0.0139833717</_>
    <_>
      0.0358537436 0.0117145898 0.0291089807 0.0237841681 0.00780972652
      0.041178558 0.0138445152 0.00496982597 0.00177493785 0.0319488794
      0.0163294282 0.0504082367 0.00106496271 0.0177493785 0.0273340419
      0.0124245649 0.00603478868 0.0262690801 0.00887468923 0.015619453
      0.0191693287 0.0152644655 0.00603478868 0.0141995028 0.00745473895
      0.0365637206 0.0141995028 0.00425985083 0.0177493785 0.0138445152
      0.123890661 0.00887468923 0.00532481354 0.018104367 0.0234291796
      0.0120695774 0.01739439 0.03372382 0.0386936441 0.0159744397
      0.0149094779 0.0241391547 0.0266240686 0.0248491298 0.00638977624
      0.000709975138 0.0276890304 0.00319488812 0.0326588564
      0.00851970166</_>
    <_>
      0.0357142873 0.103991605 0.021533614 0.0225840341 0.00367647083
      0.0309873968 0.00945378188 0.00105042022 0.00157563039
      0.0987394974 0.00840336177 0.0315126069 0. 0.0136554632
      0.021008404 0.010504202 0.00315126078 0.0157563034 0.011029412
      0.00892857183 0.010504202 0.00840336177 0.00787815172 0.0141806733
      0.00420168089 0.0299369767 0.0168067235 0.00367647083
      0.00840336177 0.0115546221 0.112920173 0.0141806733 0.00840336177
      0.0246848743 0.0225840341 0.00892857183 0.00945378188 0.0588235334
      0.0231092442 0.00997899193 0.0120798321 0.0183823537 0.0126050431
      0.0252100863 0.00105042022 0. 0.0278361365 0.00525210099
      0.0288865566 0.00682773162</_>
    <_>
      0.0352716893 0.0981887504 0.0157292672 0.0243088659 0.00285986671
      0.0381315537 0.00905624405 0.00333651109 0.00428979984 0.103431843
      0.0123927556 0.0343183987 0.000476644433 0.00857959967
      0.0209723543 0.0119161112 0.0104861772 0.0162059106 0.0123927556
      0.0109628215 0.00953288842 0.00953288842 0.00857959967
      0.00571973342 0.00285986671 0.0409914218 0.0152526218
      0.00428979984 0.0109628215 0.0209723543 0.0614871308 0.0162059106
      0.0109628215 0.0190657768 0.0219256431 0.00428979984 0.0104861772
      0.0490943752 0.0233555771 0.00571973342 0.00905624405 0.0328884646
      0.0152526218 0.0586272664 0.00428979984 0.000953288865
      0.0162059106 0.000953288865 0.0295519549 0.00762631092</_>
    <_>
      0.0386774801 0.098565191 0.0424204618 0.0224578902 0.00187149085
      0.0305676851 0.0112289451 0.00187149085 0.00311915157 0.106674984
      0.0112289451 0.0274485331 0. 0.0074859634 0.0205863994
      0.00873362459 0.0074859634 0.029320024 0.0199625697 0.0118527757
      0.013100436 0.008109794 0.008109794 0.0180910788 0.00686213328
      0.0299438536 0.0180910788 0.00311915157 0.016219588 0.0118527757
      0.0723643154 0.032439176 0.00499064242 0.0124766063 0.0224578902
      0.0106051154 0.0112289451 0.0492825955 0.01933874 0.00623830315
      0.0143480971 0.0187149085 0.0124766063 0.0174672492 0.00187149085
      0.00187149085 0.0218340605 0.000623830303 0.0243293811
      0.00998128485</_>
    <_>
      0.0463352986 0.0956192091 0.0227464195 0.0181128886 0.00631844997
      0.0278011784 0.0105307493 0.00294860988 0.000421229983
      0.0686604902 0.0088458294 0.0362257771 0.000421229983 0.0139005892
      0.0210614987 0.00968828984 0.0088458294 0.029907329 0.0113732098
      0.0088458294 0.0122156693 0.0126368999 0.00673967972 0.0088458294
      0.00336983986 0.0353833176 0.0134793594 0.00421229983 0.0109519791
      0.0130581297 0.109941028 0.0151642794 0.0109519791 0.0176916588
      0.0227464195 0.00842459965 0.00842459965 0.0669755638 0.0214827284
      0.00631844997 0.00926706009 0.0189553499 0.0168491993 0.0341196284
      0.00168491993 0.000421229983 0.0197978094 0.00168491993
      0.0332771689 0.00631844997</_>
    <_>
      0.0341536924 0.105976894 0.0130587649 0.021597188 0.00200904068
      0.0286288299 0.00904068351 0.00150678051 0.00100452034 0.101958811
      0.0120542441 0.039678555 0.00100452034 0.0110497233 0.0261175297
      0.00904068351 0.00452034175 0.0205926672 0.0145655451 0.0115519837
      0.0100452034 0.00954294298 0.00552486163 0.0100452034
      0.00602712203 0.0401808135 0.0135610243 0.00200904068 0.0140632847
      0.0135610243 0.0944249108 0.015570065 0.00552486163 0.0251130089
      0.0205926672 0.0105474638 0.00904068351 0.0517327972 0.021597188
      0.0135610243 0.00853842311 0.018081367 0.0130587649 0.0291310903
      0.00200904068 0.00100452034 0.0241084881 0.00351582118
      0.0301356092 0.00904068351</_>
    <_>
      0.0325497314 0.091772154 0.0212477408 0.0207956601 0.00316455704
      0.0311934911 0.00632911408 0.00226039789 0.000452079577
      0.0849909633 0.0113019897 0.0307414122 0. 0.0113019897
      0.0194394216 0.0135623869 0.00994575024 0.0212477408 0.0117540695
      0.015822785 0.0135623869 0.00949367136 0.00723327324 0.00813743286
      0.00316455704 0.0352622084 0.0140144667 0.00813743286 0.01039783
      0.0140144667 0.0664556995 0.0144665465 0.00994575024 0.0207956601
      0.03164557 0.00452079577 0.00904159155 0.0474683568 0.0302893315
      0.00452079577 0.0108499099 0.0311934911 0.0108499099 0.0777576864
      0.00361663662 0. 0.0266726948 0.00226039789 0.0248643775
      0.00949367136</_>
    <_>
      0.0442156233 0.0944881886 0.0363416113 0.0266505145 0.00181708043
      0.0351302214 0.00908540282 0.00181708043 0.00242277398 0.109630525
      0.00908540282 0.021804966 0.000605693494 0.00605693506
      0.0187764987 0.0133252572 0.00847970881 0.0236220472 0.0187764987
      0.0139309503 0.00787401572 0.0145366434 0.00242277398 0.0181708056
      0.0072683217 0.033313144 0.00969109591 0.00242277398 0.0151423374
      0.0127195632 0.0781344622 0.0236220472 0.00302846753 0.0145366434
      0.0357359163 0.00969109591 0.00908540282 0.0375529975 0.020593578
      0.00484554796 0.0145366434 0.0199878849 0.0115081761 0.0290732868
      0.00363416085 0.00181708043 0.0248334333 0.00363416085
      0.0296789818 0.00484554796</_>
    <_>
      0.04524469 0.115881808 0.019852262 0.0189289022 0.00184672209
      0.0300092343 0.00738688838 0.00138504151 0.00184672209 0.107109882
      0.0115420129 0.0313942768 0. 0.0110803321 0.017082179 0.0138504161
      0.00784856919 0.0267774705 0.0115420129 0.0106186522 0.00784856919
      0.0124653745 0.0050784857 0.0124653745 0.00600184686 0.0313942768
      0.0115420129 0.00323176361 0.0124653745 0.0106186522 0.114035092
      0.0216989852 0.0092336107 0.0207756236 0.0244690683 0.00461680535
