<?xml version="1.0"?>
<opencv_storage>
<opencv_ml_svm>
  <format>3</format>
  <svmType>C_SVC</svmType>
  <kernel>
    <type>RBF</type>
    <gamma>0.00015000000000000001</gamma></kernel>
  <C>0.10000000000000001</C>
  <term_criteria><epsilon>1.1920928955078125e-07</epsilon>
    <iterations>1000</iterations></term_criteria>
  <var_count>2</var_count>
  <class_count>2</class_count>
  <class_labels type_id="opencv-matrix">
    <rows>2</rows>
    <cols>1</cols>
    <dt>i</dt>
    <data>
      0 1</data></class_labels>
  <sv_total>47</sv_total>
  <support_vectors>
    <_>
      46. 14.</_>
    <_>
      120. 124.</_>
    <_>
      54. 100.</_>
    <_>
      27. 29.</_>
    <_>
      93. 51.</_>
    <_>
      73. 128.</_>
    <_>
      39. 1.</_>
    <_>
      31. 95.</_>
    <_>
      145. 68.</_>
    <_>
      106. 74.</_>
    <_>
      109. 85.</_>
    <_>
      2. 14.</_>
    <_>
      134. 27.</_>
    <_>
      157. 81.</_>
    <_>
      155. 16.</_>
    <_>
      33. 126.</_>
    <_>
      9. 30.</_>
    <_>
      66. 149.</_>
    <_>
      20. 143.</_>
    <_>
      154. 123.</_>
    <_>
      73. 20.</_>
    <_>
      33. 113.</_>
    <_>
      28. 25.</_>
    <_>
      234. 114.</_>
    <_>
      218. 249.</_>
    <_>
      113. 157.</_>
    <_>
      139. 235.</_>
    <_>
      179. 156.</_>
    <_>
      210. 118.</_>
    <_>
      226. 188.</_>
    <_>
      204. 246.</_>
    <_>
      174. 180.</_>
    <_>
      143. 191.</_>
    <_>
      239. 126.</_>
    <_>
      199. 232.</_>
    <_>
      194. 137.</_>
    <_>
      151. 129.</_>
    <_>
      244. 219.</_>
    <_>
      129. 222.</_>
    <_>
      236. 126.</_>
    <_>
      143. 130.</_>
    <_>
      247. 114.</_>
    <_>
      207. 211.</_>
    <_>
      201. 133.</_>
    <_>
      253. 151.</_>
    <_>
      132. 98.</_>
    <_>
      174. 137.</_></support_vectors>
  <decision_functions>
    <_>
      <sv_count>47</sv_count>
      <rho>-0.044546663637268565</rho>
      <alpha>
        0.10000000000000001 0.10000000000000001 0.10000000000000001
        0.097706680550265712 0.10000000000000001 0.10000000000000001
        0.10000000000000001 0.10000000000000001 0.10000000000000001
        0.10000000000000001 0.10000000000000001 0.10000000000000001
        0.10000000000000001 0.10000000000000001 0.10000000000000001
        0.10000000000000001 0.10000000000000001 0.10000000000000001
        0.10000000000000001 0.10000000000000001 0.10000000000000001
        0.10000000000000001 0.10000000000000001 -0.10000000000000001
        -0.10000000000000001 -0.10000000000000001 -0.10000000000000001
        -0.10000000000000001 -0.10000000000000001 -0.013743237143909869
        -0.10000000000000001 -0.083963443406355837 -0.10000000000000001
        -0.10000000000000001 -0.10000000000000001 -0.10000000000000001
        -0.10000000000000001 -0.10000000000000001 -0.10000000000000001
        -0.10000000000000001 -0.10000000000000001 -0.10000000000000001
        -0.10000000000000001 -0.10000000000000001 -0.10000000000000001
        -0.10000000000000001 -0.10000000000000001</alpha>
      <index>
        0 1 2 3 4 5 6 7 8 9 10 11 12 13 14 15 16 17 18 19 20 21 22 23 24
        25 26 27 28 29 30 31 32 33 34 35 36 37 38 39 40 41 42 43 44 45
        46</index></_></decision_functions></opencv_ml_svm>
</opencv_storage>
